Hidden weights
-0.03268081119405346 
-0.18517422748943851 
-0.2422484962704533 
0.04916069381798564 
0.17896857570180635 
0.24965474379469943 
-0.2710515716338937 
0.037471609481019116 
-0.02059887706568858 
0.36260315388241793 
0.136077442251396 
0.2634221669894765 
-0.2621321561141141 
-0.03216771896491339 
0.41970609540371473 
-0.465409311077401 
0.2632713127333056 
0.11194702390391001 
-0.0867849944145051 
-0.16362934096711224 
-0.38745398348726445 
0.4330363400458428 
0.47323720752057985 
0.3219641129693549 
0.2805200297806538 
-0.26932171914971914 
-0.3648003394539441 
-0.2014715191986971 
0.26769447202136754 
0.14845306522989526 
0.3519901785427373 
0.20783564595063536 
0.20853527463270954 
0.1549572375067701 
-0.07837411586662829 
0.26905675227477854 
0.41102752041486623 
-0.10238474469767284 
-0.12385399394512425 
0.31195829569928135 
0.09813936379577148 
0.1983503055948287 
0.05433068159652715 
0.17482779043828206 
0.37523471836962097 
-0.13005082615562688 
-0.18249023579579737 
-0.2531276141869986 
-0.452532042404829 
0.29067733038183186 
0.013370080068052941 
-0.005925301891530236 
0.39055493177648115 
0.433023775158106 
0.38655789180744027 
-0.14423712543681866 
-0.028680608047633185 
-0.285241372394084 
0.40355546753768157 
0.429266136417107 
-0.4655985441657815 
-0.46555786019463397 
-0.44103005219947955 
0.3225626392819353 
0.19323543361003986 
0.14615122258409663 
0.24597511119935767 
-0.30629001868241035 
-0.004576697587476057 
-0.13490680671623745 
-0.1914832479555293 
-0.41353472811840597 
-0.46692662688190323 
0.3729587496971317 
0.33249678134736815 
-0.4458264082894803 
0.06649944573840419 
-0.17564721327068689 
-0.2726832391352998 
0.2118214077101186 
-0.2661495215525078 
-0.4951739710119649 
0.45262165783747277 
-0.14543868038082602 
-0.3585129271023709 
-0.141667279202145 
0.3389075555860772 
0.28580777899453047 
0.12614226336867346 
-0.0796406014243572 
0.1390241163765481 
-0.39865608983449796 
-0.11504085990652968 
0.3773107269572479 
0.28444453599421915 
0.2162161878889206 
0.05485948403279359 
-0.09353894934914966 
-0.14353497523661335 
0.29419930353002055 
0.22517670870058842 
0.0945043197170298 
-0.43816999394747624 
-0.27695581723019314 
-0.21138215797566423 
0.06908325517826275 
0.400372011566024 
0.45185990792369746 
0.15098395639417517 
-0.08540303058679755 
0.15655208061900783 
-0.3571835887146916 
-0.27909969360998454 
-0.3020288129666323 
-0.4937727482038049 
-0.09304705824549475 
-0.1689711428520715 
-0.26088635823853334 
0.2973564318376636 
0.12451619727434907 
0.02826766136403258 
0.3375223760465573 
0.30789288249855873 
-0.21272875704705424 
0.18206913634594235 
0.08493946544672862 
-0.08449768953604289 
-0.21308959403410743 
-0.3634263357770027 
-0.4334199850640543 
0.3967659878713381 
-0.11720185879304837 
-0.23812508044407543 
-0.4597021584640655 
0.47226117203635176 
0.47541012754114953 
-0.0871549244034028 
0.049576568188644324 
-0.12446814952761925 
0.3210165167951109 
0.23191600922697342 
-0.2645729303823081 
-0.037942050336190865 
-0.0865422907631545 
-0.35373660680195806 
0.34375565161947086 
0.2484402566297209 
0.03752242805312141 
-0.08029248697633892 
0.4015271189182097 
-0.20269670364533265 
-0.28608801385045746 
0.1679629909215022 
0.01202582141567567 
-0.22702170972305552 
-0.3268217113632158 
0.1587802189471435 
0.003975213173583403 
0.03591123491379361 
-0.025251258491277025 
-0.1937462356922075 
-0.3267638925029308 
-0.4961833326212567 
-0.04786323405749428 
0.17070568709993583 
-0.38476087825937266 
0.007940228285409552 
0.4823879996927143 
-0.4253488995970598 
0.4227918285092661 
-0.4788346895599894 
0.19028808197635233 
-0.35232173855536963 
-0.201026889835154 
0.05273523072611254 
0.4928743594546081 
0.4441119663915223 
0.2543148413484906 
-0.27414109509806606 
-0.36351508683464684 
0.4667570928304928 
0.3319779027974905 
0.38651629478571337 
0.17683855457010894 
0.3361627719649817 
-0.23980716520336304 
-0.4205438088882121 
0.33768120587744876 
-0.1718526160685448 
0.15878220773923868 
0.4661788218814481 
-0.07754737985343751 
0.1988738245012045 
-0.32387501396358154 
-0.37892704415934564 
0.37122488881992644 
-0.16715631736911418 
0.2814182264144731 
-0.28608719816546613 
-0.24154273806800114 
-0.049611676733826104 
-0.18159097150240083 
0.07415278833790342 
0.05973129823468874 
0.4795139462345318 
0.26371900752507305 
-0.24650630016018282 
0.0449068518705482 
-0.014776076773526669 
0.3652010103752009 
0.15300832269232983 
0.17796157353845327 
-0.254159408190194 
-0.08976851537064745 
0.33782875793972245 
-0.168715941848327 
0.2722294452503192 
0.12072599287651367 
-0.14877528275712104 
-0.15673158921081298 
-0.46888342699139296 
0.4613440310510021 
0.47574548224115787 
0.2559426746798368 
0.19380530641991006 
-0.34725747353785374 
-0.34885485850726505 
-0.18884054892244084 
0.20194177904846006 
0.1582174485979148 
0.36399407641355885 
0.2163458845077853 
0.23039312274259433 
0.17986083606930164 
-0.06556398204596209 
0.2787315389694319 
0.4409476684185537 
-0.16509167231676714 
-0.2080604574864477 
-0.4425888554531521 
0.011872534394897192 
0.13627043548000695 
0.06534917997309328 
0.18548797662719013 
0.31082573707863126 
-0.11706154369171276 
-0.263830097527722 
0.02717236523437038 
-0.5189118077831665 
-0.40850853886766914 
0.024926083979010638 
0.0015099404979988511 
0.4058733403177255 
0.4435943646736479 
0.32501551232584835 
0.19581362782436262 
-0.11091627260044562 
-0.27726863937132507 
0.41457396591424833 
0.46169458894369486 
-0.44105324288974757 
-0.16590829248280942 
-0.45025693003310807 
0.35472234649190837 
0.20532892815422749 
0.06749881401832528 
0.2577998604269319 
-0.2814759869909227 
-0.0713147751534717 
-0.10543453777125167 
-0.18252511543851568 
-0.38352498344135233 
-0.45850598499811934 
-0.3264958648689842 
-0.3912343742770057 
-0.4248643779016452 
-0.01770700290175705 
-0.16964526433527616 
-0.33754012928731436 
0.14786033528015363 
-0.3451602572071021 
-0.48702207444479606 
0.36966933910702093 
-0.22803267202245808 
-0.3402383349795238 
-0.12697594306633572 
0.3494781600027803 
0.2934221998296308 
0.13492123234127712 
-0.06951790586867908 
0.07577969812422355 
-0.11083125644907454 
-0.1997847991799196 
0.3102143074012701 
0.2923276872447732 
0.1478656384232344 
0.06202598110570778 
-0.06388751685975472 
-0.1392350799730971 
0.325194447701329 
0.23852431825332326 
0.09638553693333421 
0.5059312484175239 
-0.3302567183724111 
-0.2716703926463875 
-0.016735665361586445 
0.43710035935612823 
-0.23317211582322622 
0.4767017006083669 
-0.1525890319149787 
0.1678393243121895 
-0.4418379462158768 
-0.33741714419335855 
-0.4696319247415004 
0.42372282702560693 
-0.06877051718723692 
-0.1644920691429841 
-0.24655334919154742 
0.22497470262275782 
0.13607218628414564 
0.04009239569044393 
0.37147370379946865 
0.3140740098795406 
-0.19956029613756815 
0.1902210329131112 
0.08977685134347471 
-0.05627956540192916 
-0.20153359012314964 
-0.3550952607642627 
-0.4289409113549669 
0.4246257700154725 
-0.10528752779327066 
-0.22979402033249663 
0.4796512797763923 
0.28808552181053104 
0.4861598955022626 
-0.15165348746659552 
0.060326321248596174 
-0.1879813130965597 
0.3280038652247764 
0.24168039259499308 
-0.23160700212365448 
-0.1034259830913202 
-0.1491596366100454 
-0.3464805279568389 
0.2778237951021577 
0.16978784806394653 
0.056782404769062 
-0.07482804357531922 
0.4318951906840832 
-0.18469085683910047 
-0.27910066542079204 
0.1019415526319839 
0.3168711021130799 
-0.21663028375192356 
-0.29358702288678307 
0.1709632803623749 
0.012037527968547228 
0.04728806037918026 
9.960815554901172E-4 
-0.24480759252930148 
-0.4756445032939268 
0.422387238775776 
-0.1086889593614464 
0.08882834963594355 
-0.3768777270088187 
0.03517295292527059 
0.48865869394474004 
-0.39569746710766474 
0.4478745906162075 
-0.46629330105593814 
0.19243802960811046 
-0.04434111073195707 
-0.16788179803208741 
0.06088714219444259 
0.43993178540121003 
0.26226542734186964 
0.18399349289429412 
-0.35718298069956167 
-0.06055100845238452 
0.40190021757963934 
0.3616293203857244 
0.39323489789876387 
0.18588626885932752 
0.29414912941710647 
-0.30323076190125653 
0.4168696287780759 
0.34538519358359276 
-0.24477182101552336 
0.16720286452418365 
0.3802703195693933 
-0.051837530439901414 
0.22494201590472296 
-0.389358976521031 
0.43877850792997686 
0.372658197175206 
-0.13356331670502286 
0.29001804674382803 
-0.2538379240844494 
-0.30765377303088437 
-0.04477429083708001 
-0.16492885127924323 
0.0681508394024927 
0.056506354435309755 
-0.5031072793646807 
0.2834269080031997 
0.04293100512492805 
0.061748150539276944 
-0.08966608070901488 
0.3848193141799614 
0.1697600246876924 
0.19471329043497704 
0.03796532045874558 
-0.09594962785046812 
0.3518034398978922 
-0.1748074576547815 
0.26604833277049855 
0.11759066065166204 
-0.15119399060665528 
-0.23162159314630093 
-0.4745270488379838 
0.4557899909766162 
-0.2330256068319585 
0.27565056025680235 
0.2077800032792409 
-0.3530802738300157 
-0.4317175954655119 
-0.17182008670930216 
0.19593983011304933 
0.1746108235044575 
0.3805666297656727 
0.14181420766111724 
0.2246599191237985 
0.10210424522557934 
-0.04934975578266754 
0.29243747561098665 
0.43476657083989423 
-0.1712727847965878 
-0.21388324287744848 
-0.44841164084415286 
0.02871381816246521 
0.13008932300018627 
-0.009630405734599152 
0.19292321901671933 
0.3048237881432204 
-0.10523679446414005 
-0.25048245817266496 
0.04392408213089473 
0.47508624328142224 
-0.4583157657950545 
0.019192865459053632 
0.2904993369220831 
0.3958402414354134 
0.4375028339660322 
0.3188344147471889 
0.18909502471131212 
-0.1169182215358561 
-0.2600690136137763 
0.33242789803480244 
0.45596138532489905 
-0.44714478849852446 
-0.14620040690584385 
0.4837216316773738 
0.34872039755649753 
0.19610205032059896 
0.06176559549836857 
0.2750890530555248 
-0.2875675176985384 
-0.053846433881631794 
-0.11152606847886737 
-0.16398176309789247 
-0.3694607048098165 
0.4659769386609579 
-0.30929623911143544 
-0.3716160704722451 
-0.4996648000649282 
-0.023977697153782583 
-0.1525352352510937 
-0.340585879739961 
0.14212713166135782 
-0.3312751570211374 
0.4384462636096971 
0.36411529903263506 
-0.2337658756412539 
-0.34659861100375444 
-0.13261956491292642 
0.36318409664433504 
0.30936768077630983 
0.060031243306950755 
-0.14431831313080434 
0.06959858564440288 
-0.11656447496903155 
-0.18294351541235204 
0.30421235846585937 
0.21448151462883835 
0.14401362221842062 
0.07949435217987214 
-0.06756035461899737 
-0.12266254152214576 
0.3190133203203471 
0.2323432206746638 
0.11322682070090176 
-0.4770482893693385 
-0.3357211766745921 
-0.2780306835717793 
0.00933251114077083 
0.4314567524106986 
-0.23863658902656842 
0.49354298437593447 
-0.13314987675346696 
0.18494936829753317 
-0.4481982222401074 
-0.34315034781215437 
-0.4757234554491161 
0.4408328710109506 
-0.07513079321146754 
-0.1480986942364414 
-0.252017822394885 
0.219241499003962 
0.13024940089314485 
-0.03479760824504402 
0.36493427913198917 
0.23497367755158455 
-0.20529349975636396 
0.18439824752211043 
0.10375154820280555 
-0.062460677881748666 
-0.2757965216532059 
-0.3383435587689001 
-0.41147255518196457 
0.4185342393078568 
-0.11146865517425253 
0.06259945363305755 
0.4732910186533229 
0.302060218669862 
0.4800683498934857 
-0.1578345999464162 
-0.11489118155904926 
-0.19380409848756047 
0.25374093369472317 
0.2587008399069761 
-0.2376089510590652 
-0.08622638713609396 
-0.13518495465187563 
-0.3526616255354984 
0.29439634845427154 
0.18698747382149516 
0.07353412166558526 
-0.057986744906592044 
0.42571409310542374 
-0.18836369459834312 
-0.353901087584075 
0.11869325462734659 
0.3106899896332592 
-0.22254263601396812 
-0.29967855359439877 
0.16478216788255423 
0.025385152422443484 
0.06421892591895245 
0.014702018197044697 
-0.25054079614809877 
-0.48075063450728783 
0.4423638845705177 
-0.111913873358503 
0.10289261336631828 
-0.0819759783226865 
0.029171003989860007 
0.5054999777123137 
-0.40178899781528044 
0.37325334689849565 
-0.4499894930204392 
0.114681438764385 
-0.050343059667367795 
-0.17397331383854192 
0.07486183905377392 
0.4339298364657992 
0.2791067111094372 
0.20307432096698597 
-0.34114793288183887 
-0.06673212093220457 
0.3924045795282347 
0.3558065349947236 
0.40998661479528764 
0.20227965866703151 
0.310990413184674 
-0.3090535323910961 
0.4075531691722424 
0.3622264922523215 
-0.25417787729472485 
0.1811775464823533 
0.3972011702080047 
-0.03490666490012889 
0.21920879738476595 
-0.3954504923274855 
0.45284278656151267 
0.39236608275217144 
-0.13938610209602365 
0.30730723937242055 
-0.26324395056132666 
-0.29779980789065985 
-0.1195746831980401 
-0.1704828913536291 
0.08203593958845737 
-0.023131438723558356 
0.43902317891297993 
0.2017287340836209 
0.036301983784082434 
0.056104528692686104 
-0.0748851628010005 
0.39843568395047235 
0.1662663504728597 
0.18853217795515637 
0.0505066940616358 
-0.0790187623106956 
0.34624939982350633 
-0.1575182650261891 
0.1876646695213421 
0.12771334130617992 
-0.13659222134188953 
-0.23627981549863708 
-0.4593878038411495 
0.27976625221912554 
-0.23831090158972945 
0.2700069384102114 
0.22462128704680845 
-0.336238975161287 
-0.4170262444285413 
-0.1822115275815953 
0.21322902274164174 
0.16896720165786666 
0.37716253732304494 
0.1384101152184895 
0.23773878335991844 
0.11321232537435108 
-0.038510420950510715 
0.3054267729760629 
0.45205576346848664 
-0.15792517524385297 
-0.1987439978806142 
-0.432018251036449 
0.022443138811600614 
0.14361611099849236 
-0.016169845303239793 
0.1164207729838638 
0.32139632659417317 
-0.09260582418788368 
-0.24000145042932675 
0.05977996640420759 
-0.5080724729510097 
-0.4675426585298442 
0.036482058087645486 
0.2844078062144674 
0.41393568491501176 
0.35992539176555627 
0.33594444383137134 
0.11662371372419905 
-0.10437683303180506 
-0.24537767747796785 
0.34622341644856214 
0.46689028702809976 
-0.4287805997023112 
-0.15256066802891338 
0.4943818029651207 
0.3677116289558233 
0.21285375231596154 
0.07412783535917081 
0.19688455335077326 
0.006348846394496662 
-0.04515704668123294 
-0.18946182286700275 
-0.1507237502185238 
-0.45053182122512514 
0.45683965750069544 
-0.3164627510855108 
-0.3776180194076558 
0.494512414544071 
-0.0072259951584200625 
-0.15889549637416311 
-0.3307319295008977 
0.15896843033008656 
-0.3374562545997969 
0.43280264176310623 
0.3805982706125439 
-0.21629751946825143 
-0.33369889541088327 
-0.11586784801640329 
0.376800466414846 
-0.407017829131901 
0.05546258782565838 
-0.15014111342296632 
0.08635028763976546 
-0.10653137608671948 
-0.18876628590219163 
0.321322402451203 
0.20901705632665746 
0.16121324797596925 
0.09346904903920297 
-0.05098781616804546 
-0.12947071150623873 
0.24654203913555606 
0.24721370545372195 
0.1250515699284743 
0.516591434606431 
-0.31887989290702445 
-0.26378724139583354 
0.02626336177938226 
-0.2775830968801881 
-0.22215361744665946 
0.48780978075713866 
-0.13870391682785282 
0.17670788995815934 
-0.4065428918798909 
-0.32971315648721455 
-0.45700095446524414 
0.45292635065397713 
-0.05855823985935432 
-0.1538318978552372 
-0.23499734528058952 
0.23133499354814963 
0.14458240994013438 
-0.019658348347048382 
0.2900442900976624 
0.25172539444810393 
0.0840542088553804 
0.10574583895633868 
0.12157823146462779 
-0.13439449823563393 
-0.2654946625531177 
-0.3232043137720658 
-0.4178328312061952 
0.43537553797658557 
-0.09623981350405209 
0.05614958093546024 
0.4874448492547413 
0.295968673061085 
-0.5030903514377976 
-0.13964958959577395 
-0.11937025526813666 
-0.17526077594925965 
0.24764941788826744 
0.24911563498452527 
0.05003671878194861 
-0.09231790294254846 
-0.14091817317183264 
-0.3336703792350115 
0.3038023749311488 
0.1988121932467456 
-0.001714194457560984 
-0.06380953029759122 
0.44497405492020314 
-0.262895356543851 
-0.3635758742787284 
0.1083914104284196 
0.32376886877054034 
-0.2091054446890282 
-0.37833097706133434 
0.4544882035831185 
-0.049504851513045095 
0.05947112179441166 
0.009506305211478881 
-0.23217662225304503 
-0.4639093507397203 
0.4359140118729208 
-0.09444551718550065 
0.0967115008864976 
-0.09290489492704829 
0.0429665373047806 
0.49690018718527507 
-0.38987468171666395 
0.36357856020384227 
0.47082060778055657 
0.1320602131651833 
-0.036189199263627014 
-0.15677371788331568 
0.06635160049662399 
0.4479941001961739 
0.2725672864419578 
0.19680364161612152 
-0.34437286178005666 
-0.04765129285951322 
0.41050002300783306 
0.27670621756792424 
0.3514900006675037 
0.19385900188208655 
0.22947140280950284 
-0.2947205233441066 
0.42430488606876615 
0.3567620190489794 
-0.23742616039819925 
0.47321270826024386 
0.3915575483614139 
0.25936801138056664 
0.14225842758972485 
-0.3797737715985826 
0.4671757956085022 
0.4022200329912349 
-0.2165156354354747 
0.29897617926084175 
-0.24783597514903521 
-0.28015228817324755 
-0.10739163668396995 
0.11599820054755802 
0.07603399065304664 
-0.006290154955990723 
0.4332899752941841 
0.19590593379145893 
0.05314326755165007 
-0.01833755148061559 
-0.08124543882523111 
0.3889400757013901 
0.09173468852735484 
0.2053734766238851 
0.04441516335402011 
-0.08519985988935508 
0.362732356502254 
-0.1607431939244069 
0.20441637151670466 
0.42010681527173777 
-0.14232542496068534 
-0.22239470041151121 
-0.44299441403344564 
0.2734955579670999 
-0.21905090997262766 
0.2863107464457104 
0.21879850165580766 
-0.3423305058689027 
-0.4043056923800801 
-0.2567431895271015 
0.22657664719553788 
0.45580663554903267 
-0.3308918975724259 
0.15471392325398842 
0.16562581436278462 
0.10712080956789657 
-0.04442278811371647 
-0.4067483936385142 
0.3738512637637371 
-0.13911307758661473 
-0.18217145942966145 
-0.437661887784201 
0.039732331440192795 
0.15974074058842014 
-0.004972183382263076 
0.10826886151553375 
0.31566312297537735 
-0.1697353575273341 
-0.2455555054048738 
0.05368843569659189 
-0.4946352518237479 
-0.45043261454450056 
0.030300960508986265 
0.3012490899820349 
0.42737287623995157 
0.37658752688987507 
0.33146538502344514 
0.10820307184041528 
-0.08762511613528129 
-0.2512004777701289 
0.36127306477203036 
0.3917315675783192 
-0.43433465467785826 
-0.13536105717252583 
0.5082669180522454 
0.3613513678327539 
0.20676222160834584 
0.07081332468874804 
0.19088260441536253 
5.260461023346703E-4 
-0.050979817171072576 
-0.17235179378282028 
-0.15547155434306492 
-0.4542046589843678 
0.47323303240723824 
-0.30481718030350924 
-0.3472499476417823 
-0.48864630168836143 
-0.013317525866035816 
-0.1448312326437885 
-0.31389064573333014 
0.15287688472130967 
-0.3188233353881298 
0.44937518021405887 
0.37692543285330127 
-0.22194115621600347 
-0.31676801496994955 
-0.10189316605823365 
0.3734859557444232 
-0.4136468504727465 
0.0690789575961692 
-0.13500186842613207 
0.08052751714992587 
-0.08924216855696587 
-0.17192501703578517 
0.31523085684242613 
0.22290215651262224 
0.1738442182522255 
0.08684002769835744 
-0.05716892864786613 
-0.20409197012511177 
0.2403609117545742 
0.07181703910166592 
0.11869129390424385 
-0.46674644517041153 
-0.32497140871347896 
-0.24739386648928952 
0.023038447782325642 
-0.28331630049898393 
-0.21409130265169557 
0.40629077038196637 
-0.12186261815912569 
0.19337001018131694 
-0.4126344225875066 
-0.33607343251144517 
-0.4629133365296111 
0.4468348199463613 
-0.1336274073392532 
0.14008445133664016 
-0.24073056380054664 
0.24853460440453692 
0.1422532987639663 
-0.02566029728245911 
0.28422148980550044 
0.2427672619310947 
0.07823142346437961 
0.12285586804052126 
0.11539711898480712 
-0.14021726872547352 
-0.2715861932607334 
-0.3292958444796815 
-0.404933115613324 
0.4320610273061628 
-0.07904020264766465 
0.0734387884652144 
-0.4990283627469527 
0.3123620777699502 
-0.5085548097399828 
-0.1256748927364431 
-0.1051268279933521 
-0.18099396466689427 
0.26735730346523423 
0.17637559358195354 
0.044303500261991605 
-0.08049316861613695 
-0.12398729273090013 
-0.3398515066159934 
0.29815876798571916 
0.192989422756906 
-0.013001438150742551 
-0.044907865769310926 
0.4389721059847924 
-0.2689868872514667 
-0.3468241573822046 
0.1281888926787514 
0.3405205707659029 
-0.2839954337233579 
-0.38442250776895004 
0.46837331867024445 
-0.055327622002884796 
0.07344580375258097 
0.2987644320510229 
-0.2412243365422636 
-0.4539658336296132 
0.45302405585826455 
-0.10062662966532132 
0.11391111174288504 
-0.07543652385288474 
0.039293699545538 
0.42192058657642095 
-0.09783953483993432 
0.38355520599858384 
0.4646395102018971 
0.12659575486300176 
-0.022483262622072363 
-0.16555267195475815 
-0.008538403438864209 
0.46420832645946786 
0.2857357324502827 
0.21041999648547127 
-0.3275315631113279 
-0.053921987111538866 
0.42402679610497784 
0.27052511998926476 
0.34620469100857154 
0.11870028243230618 
0.22400694450732195 
-0.2809250049303469 
0.41857168244997034 
0.2788262646608448 
-0.24289061870038015 
0.46873363455115646 
0.40830926525793765 
0.25318691380190717 
0.15847265385301879 
-0.362574145841034 
0.4613530102175014 
0.3960389205114141 
-0.22233842082647548 
0.31626537188943415 
-0.32227805532234055 
-0.2900062384123109 
-0.11312484030276572 
0.13319782630510663 
0.0010544198465149348 
-0.011754613258171585 
0.4506687496949815 
0.21274723246018767 
0.047410063932854254 
-0.0246978424060074 
-0.06440414015650237 
-0.31902477742187574 
0.08564314291857794 
0.19972985477729427 
0.061614789111568785 
-0.0716730718910491 
0.35905953364417253 
-0.1439914919290442 
0.20119145751964806 
0.4341710790021124 
-0.1254841262919566 
-0.22866539466353686 
-0.4524004554114841 
0.29069515392232614 
-0.22523202245244833 
0.2802192157380947 
0.2356398003245364 
-0.3288037327717579 
-0.4094118384946023 
-0.2628347202347172 
0.22057469826012716 
0.46906466332956254 
-0.3369834282800416 
0.1489807196351926 
0.15908637479414406 
0.12423083865207904 
-0.11931277714804397 
-0.39196747573049984 
0.3681180601449413 
-0.14511502652202546 
-0.18799422991950115 
-0.4209101708876771 
0.030326290062154433 
0.15642622991799737 
0.011421221326602237 
0.12242272191927464 
0.332773166960721 
-0.17663310928363335 
-0.22862462496393998 
0.0708880614541414 
-0.5004580521159081 
-0.45652414525211626 
0.04714224427655367 
0.295784631679854 
0.42262507211541045 
0.3707647414988743 
0.3485754141076276 
0.1250443556079831 
-0.0907604781624553 
-0.32609045190329444 
0.3736352897316717 
0.3859087672861572 
0.38659582630968203 
-0.14172133319675645 
-0.2018478976039378 
-0.349569683773276 
0.1346492377100508 
0.08765460845631559 
0.2079926334995451 
0.017456926543268247 
-0.037005135212902884 
-0.17844332449043598 
-0.2337656358200194 
-0.4368258845835704 
0.46705193482857876 
-0.3768405675284381 
-0.353341478349398 
-0.4918712305865792 
0.006390359710929662 
-0.21972122167811525 
-0.3200717582131508 
0.17249520342723146 
-0.3248252843235405 
0.4454335971382013 
0.3941250437096887 
-0.20796645935667263 
-0.3200825256403723 
-0.10798469676584935 
0.2985959518089353 
-0.3941181135390298 
0.06253951802752863 
-0.11789183934194597 
0.09763754623410834 
-0.09497537217576169 
-0.1779269659711959 
0.3349387573205528 
0.21743769821044123 
0.16793185108901976 
0.37923350166390957 
-0.13143184527675883 
-0.21018350083272747 
0.2572022104233015 
0.06599425371066514 
0.044070035285369236 
0.46463426004728736 
-0.399503085560147 
-0.2533958154247016 
-0.05158279593538603 
-0.26978951250067795 
-0.19725000398296683 
0.4234903812383538 
-0.12840205772776464 
0.18736806124590621 
-0.4870765176619697 
-0.31941129738712637 
-0.44893863967028025 
0.463676103713929 
-0.13971892314570772 
0.15414872996817608 
-0.22308304408313423 
0.2426222372413313 
0.06772162191729827 
-0.009087743930344935 
0.2984649319814463 
0.25996688768863896 
0.09534145254856208 
0.11703308264952036 
-0.06286616407780755 
-0.12337598495790428 
-0.2520574712281779 
-0.40391710309855455 
0.4194014429156828 
0.3576189322316997 
-0.08513173335528035 
0.06716809421318876 
-0.5051198785534085 
0.3091371339705712 
0.41341983919853276 
-0.13176643834522 
-0.11086003161214791 
-0.16460058976035158 
0.26153451807423345 
0.16965699046890304 
0.06428014605673155 
-0.06392063016518258 
-0.1301684052107196 
-0.3257872279844576 
0.314462561120057 
0.21269730833387146 
0.004466918022259705 
-0.12275405328640027 
-0.2693510593261321 
-0.2516976946228743 
-0.35255736100100044 
0.12200776529776935 
0.33433947318724344 
-0.2898182191143588 
-0.3673124637836064 
0.46228178796262864 
-0.035350991109304314 
0.0672646912727603 
0.3159640578085715 
-0.22429347100249108 
-0.4571907476266698 
0.4436179995790649 
-0.08378534589775377 
0.10781958103526934 
-0.0816176512338666 
-0.03532754417217389 
0.4358057016635468 
-0.10330399314211522 
0.37773242060758305 
0.48210785147373825 
0.14048085504896707 
-0.028664375101893087 
-0.24053225766245107 
-0.014629919245318718 
0.46098339756125006 
0.3031145068510802 
0.2062096680929988 
-0.3332647816312849 
-0.03994730515336922 
0.41793526539736214 
0.29023300556623033 
0.3625980808162754 
0.13294369480592944 
0.24075864650268453 
-0.2869269538657576 
0.4354129811186992 
0.27300347926984403 
-0.2260493200316514 
0.48190209546064255 
0.402128152778117 
0.26993861579726974 
0.1485291218417505 
-0.3682177676876248 
0.47819430888623016 
0.32177598898136095 
-0.20549713705890793 
0.3097259323207936 
-0.32836958602995625 
1.477061492794369E-4 
-0.0966418836240181 
0.12791253154733567 
-0.0026184179127276596 
0.00795327231879387 
0.444487652116322 
0.20674528352477695 
0.06702836773761472 
-0.007498216648458544 
-0.0700477620030932 
-0.32502672635728647 
0.09899076737247398 
0.21934815858205475 
0.058300278441145964 
-0.07749587218321108 
0.37625914450055997 
-0.1501725895077038 
0.21803272638605453 
0.4279899814234529 
-0.13453185548233637 
-0.2111970384905345 
-0.43520084455509667 
0.3042219419206321 
-0.20812199336826587 
0.29741882659448216 
0.22963785138912568 
-0.3115145252420042 
-0.47399998333000204 
-0.24312683465775242 
0.23768472734430962 
0.46360021992854283 
-0.3230983131929157 
0.16609074871937507 
0.17619640387832664 
0.11813930794446334 
-0.12253770604626402 
-0.39608820744960616 
0.3848697621403039 
-0.12836332452666288 
-0.1707946190631136 
-0.42413509978589503 
0.047525900918541766 
-0.5509115507998349 
0.0056880028066451024 
0.14123478977419074 
0.3235462891270925 
-0.16436048099735817 
-0.23193913563436275 
0.06148200517494086 
0.4247415406219682 
-0.4396828465833875 
0.04149862242996272 
0.31235717013080666 
0.34209144633333166 
0.38760602526644183 
0.3424838834000119 
0.11895283980152832 
-0.07365043417711165 
-0.3319132521954564 
0.3690666640527017 
0.4057062495364889 
0.4034371100772497 
-0.21956750581268608 
-0.21116435720977128 
-0.3550341271742957 
0.12900561586345996 
0.08147349597649492 
0.2019011027919293 
0.011275799162286495 
-0.11162637893061345 
-0.16160204072286832 
-0.23851343994456053 
-0.44318614570663983 
0.4864910750889293 
-0.38266336782060006 
-0.42823146738372475 
-0.4746716048290305 
2.988439044753781E-4 
-0.22581276728689215 
-0.30296172912896835 
0.16640367271961565 
-0.3111193476819858 
0.46254362622238376 
0.38794393122986803 
-0.19112516068794388 
-0.3946142024870404 
-0.18251635871135558 
0.2924148542302758 
-0.40065755310767037 
0.07973912888391618 
-0.12416253359397161 
0.0887689954892997 
-0.07813407350703294 
-0.16081692198585223 
0.3287576448407321 
0.23418940020580392 
0.18468355308438233 
0.37323155272849884 
-0.1404795595659774 
-0.19298388997634003 
0.2517377521211206 
0.07952104170897112 
0.0382472498943684 
0.4588114597551254 
-0.4027280144583648 
-0.236196189667152 
-0.05740559622754834 
-0.2530377956041542 
-0.20298320760176264 
0.4173988654318993 
-0.11102328332696876 
0.11238849043937463 
-0.4731914025748438 
-0.32272580805754914 
-0.45476142506128103 
0.4578533332240894 
-0.12574424118753644 
0.1479676174883554 
-0.22881624770193004 
0.25991142986991955 
0.061809254754091617 
-0.014820962450302236 
0.2922838046004643 
0.25387534207986207 
0.10904740409127811 
0.13073903419223365 
-0.06859936769660366 
-0.12946751566552167 
-0.2578802417180175 
-0.4099190520339653 
0.41384741774245815 
0.35107949266305916 
-0.1628883241990043 
0.08078444908253851 
-0.21281600126122008 
0.32588885086709496 
0.4299923925506466 
-0.11456681258767346 
-0.09401873294341917 
-0.17024421160694242 
0.278375801841801 
0.1871253466419054 
0.0580990335769125 
-0.0697434155561851 
0.16249381407144936 
-0.4004084866033306 
0.30881893927346604 
0.20660576272509457 
0.0011524073518369238 
-0.12884558399401796 
-0.2787571007041706 
-0.2574308982416701 
-0.332849475424035 
0.13920739105531815 
0.25989737811278035 
-0.27288735357458616 
-0.3733144276201783 
0.4791230717301963 
-0.04144253671808121 
-0.007177388900542049 
0.30978293042758964 
-0.23011625639349187 
-0.4397223914536673 
0.46045929824779364 
-0.08951854951654958 
0.12466087970399825 
-0.06235765961676537 
-0.04115034446433587 
0.430162079816956 
-0.08646270937454767 
0.3946632861473557 
0.47601633566728374 
0.13438933924251256 
-0.10355437903738071 
-0.24662378837006677 
0.0025696916110687948 
0.47764553268556886 
0.2971125579156695 
0.1311405006131009 
-0.31615473764594115 
-0.023106021385801992 
0.3434036034518553 
0.28405189308640966 
0.3565065501086597 
0.12712092431608984 
0.23430878870624894 
-0.27017525187039504 
0.4321880373193202 
0.28706774300021864 
-0.2292742638310304 
0.4763480404850955 
0.4161028347362866 
0.26411583040626896 
0.16572874759929912 
-0.07949713148130688 
0.47210276327745326 
0.31568445827374525 
-0.21158865286536244 
-0.09353036641078805 
-0.31484281293281147 
0.014480715196269485 
-0.10219590879724277 
0.14493297885931317 
0.014581207844820945 
0.0015929962945632657 
0.46168726297270946 
0.2238553126089594 
0.06102641880220401 
0.006655628854121051 
-0.05616266181712844 
-0.307916697273104 
0.11619037822886141 
0.21325662787443905 
0.07442490803107324 
-0.06065457351448232 
0.3700780320207393 
-0.22506259344319174 
0.21194121057959991 
0.44545832269529406 
-0.11733224462594971 
-0.2172885691981502 
-0.44129237526271237 
0.3004595372903457 
-0.21394476385810546 
0.28872943939408346 
0.15501659277025265 
-0.31805396481064485 
-0.47749364264367355 
-0.2493079471375733 
0.23159319663669392 
0.4803519219239054 
-0.3285627863962578 
0.15686387088574655 
0.1701944549429158 
0.1305015329041025 
-0.10533809518987408 
-0.3818447950759828 
0.37886781320489316 
-0.13391737950220994 
-0.1768861497707293 
-0.40729381601832737 
0.04143438511208726 
-0.5570030666062894 
0.022529301475373527 
0.12994754608100906 
0.24928335759704015 
-0.14966912996038745 
0.060454338331191015 
-0.012960060097200028 
0.4190083221020112 
-0.4451473048855684 
-0.033480948376568856 
0.309401001450365 
0.359559802506334 
0.38178325477660224 
0.3565481471303865 
0.1328379399874912 
-0.07974196488472735 
-0.31480322311127396 
-0.3406002427424586 
0.3996147188288732 
0.39770390645845377 
-0.22539030610484817 
-0.1966521697172105 
-0.33819284340672817 
0.14539900567116387 
0.09894185214949738 
0.22187774858667098 
0.02516091424941285 
-0.11771790963822909 
-0.16527487848211098 
-0.22856990793329224 
-0.42607610172129606 
0.48030994770794744 
-0.36600123269628126 
-0.4337855223592718 
-0.48121104439767115 
0.017140127672042905 
-0.20870272330154838 
-0.30878449961880794 
0.4584388195963497 
-0.31694214797414777 
-0.5240191675515127 
0.40487481167080186 
-0.19694796098010586 
-0.4007057182934949 
-0.18869747119117625 
0.30925613799784335 
-0.38345794225128293 
0.07364759817630037 
-0.10732123492524287 
0.3807145605938257 
-0.08135901730641193 
-0.16404185088407003 
0.25386764090524416 
0.22809786949818822 
0.17895034946558652 
0.39249152944443944 
-0.12354869402620389 
-0.17909877488921405 
0.26831029057207323 
0.07387740496121908 
0.05795513547133385 
0.47520486446399046 
-0.38588671578963607 
-0.23951070033757443 
-0.040474715786614296 
-0.25877099922295 
-0.27796279330945317 
0.4346880431593305 
0.1781452617403691 
0.10665528682057882 
-0.4792829332824595 
-0.30606368783439153 
0.470438152775436 
0.3800967274792034 
-0.13120871439088017 
0.16471931948371799 
-0.30325832787522833 
0.2575823186937515 
0.07945677447150482 
0.002109903089470431 
0.3090355214969882 
0.2707166407485908 
0.10358294578909721 
0.1469532455543664 
-0.051758083929035886 
-0.11226788990797235 
-0.2411285397226518 
-0.3931673500386027 
0.4335553033194237 
0.3682791184206078 
-0.16835279740234638 
0.07496167859269892 
-0.21863878665222086 
0.32042439256491406 
0.4241696071596458 
-0.11886672275235091 
-0.10019984542323984 
-0.15635911142097764 
0.27237385290639027 
0.20110004350123623 
0.07449242338461479 
-0.14436465927389486 
0.15640228336383366 
-0.4062312719943314 
0.23124151197415266 
-0.5008215997649307 
0.018083272891609155 
-0.11209386709749211 
-0.26155747494662196 
-0.24103750843396504 
-0.33938891499267554 
0.13275753325888257 
0.27342416611108633 
-0.2790684660544068 
-0.3536961089142566 
0.4731211227947856 
-0.024780401593761776 
-0.013716828469182495 
0.3261763202352935 
-0.21327495772476313 
-0.445813922161283 
0.45436778244133913 
-0.07581261287499486 
0.11919642140181719 
-0.06809086323556063 
-0.02457779111222179 
0.44655545472349867 
-0.07275675783183175 
0.388482173667535 
0.4925888741182365 
0.15132020478228508 
-0.10964590974499641 
-0.22942417751367933 
-0.0034322573243419736 
0.47155400197795316 
0.22464126182971544 
0.14448813996815812 
-0.3225150136701719 
-0.028660046559026646 
0.33740165451644455 
0.30134108571500207 
0.3738853245094571 
0.14351429922263254 
0.25356878032334973 
-0.27563971017257594 
0.35720846651278837 
0.30435695052997225 
-0.21216421984568662 
0.49309974248045807 
0.34183991810739467 
0.2810466959460415 
0.15990594730713714 
-0.0852303351001027 
0.3975711013319464 
0.3322570116258592 
-0.19483695086999986 
-0.07713699150424524 
-0.3207551800960172 
0.009374569081747035 
-0.08508587971306031 
0.13919977524051735 
0.008489662236044058 
0.019061367368726684 
0.45559573226509376 
0.2177637819013437 
0.07813644788638643 
2.662241443664268E-5 
-0.06234377429694936 
-0.31123120794352677 
0.11036760773902182 
-0.4947082252488334 
0.06483971800978612 
-0.06674611912325923 
-0.3377972244291604 
-0.23402072596020534 
0.22914082143598746 
0.4392772251166346 
-0.12315501511578925 
-0.20044727052942146 
0.4838176357029609 
0.3172112392857084 
-0.1971034800905378 
0.21383943545859418 
0.15179166387203485 
-0.023152216124513667 
-0.4647731054963735 
-0.23201875450898068 
0.15956979451060388 
0.4743499729884947 
-0.31181106949973403 
0.1743322419599102 
0.18407957003004177 
-0.044895163250274525 
-0.11142962589748978 
-0.37136377243148466 
0.3959778422890756 
-0.2116739703459346 
-0.34968497453116676 
-0.4130270196371232 
-0.0334556188234007 
-0.540161797739883 
0.01930435767599454 
0.1449076275334334 
0.2431918268894246 
-0.13578402977442278 
0.05436280762357705 
-0.01914118747818217 
0.4357600389985351 
0.48282929298834154 
-0.03912458512432104 
0.3266005974055912 
0.3518557998990288 
0.4014911403535677 
0.35072536173938573 
0.15012714751724476 
0.21184527313098156 
-0.3208051720466847 
-0.3286859266438421 
0.4167247628142169 
0.41481395044379754 
-0.2082802621195044 
-0.1803483616817116 
-0.34428437411434387 
0.15892577876830877 
0.09276073966967671 
0.21560705433464533 
0.01906938354179676 
-0.10087662587066168 
-0.14843357981338223 
-0.21235569657115938 
-0.43180932024125307 
0.4974199916932911 
-0.37209276340389696 
-0.4168546419183381 
-0.46392185176907863 
0.01167566936986189 
-0.2147942540091642 
-0.380807901744898 
0.4527056159775539 
-0.3922800458694994 
0.46988930174086907 
0.39905201137863977 
0.0950871858966282 
-0.38386443452592733 
-0.17158744210699378 
0.3231412530849693 
-0.38954945805773744 
0.09335549865442713 
-0.11636894921446145 
0.374533448114005 
-0.1563385881129442 
-0.23893183991839678 
0.24795527374203571 
0.2448495714935508 
0.1064790682807964 
0.38639999873682374 
-0.12981938827823053 
-0.18563821445785472 
0.25962090337167454 
0.09027079476892308 
0.05186360476371815 
0.4695612426173996 
-0.39170950118063685 
0.05252444653915865 
-0.04683499181084491 
-0.24192971545537995 
-0.26389851467791736 
0.4289548395405347 
0.1720537310327534 
0.12062996877874846 
-0.462441649514892 
-0.31215520364084604 
0.4637195645635467 
0.3969380261479323 
-0.11463616103876473 
0.15871737054830726 
-0.3091706950384341 
-0.4502929377561481 
0.073723570852709 
-0.006937811199748058 
0.3029439907893725 
0.26444594649656517 
0.12042422955666476 
0.1414887872521855 
-0.057849599735490156 
-0.12167394618717206 
-0.24686174334145022 
-0.39881095698403235 
0.427553354384013 
0.3620980059407871 
-0.15151149873361763 
0.09422165530863952 
-0.2017975028846533 
0.24544482175837734 
0.44127965114498946 
0.1728996788077704 
-0.0830002345668524 
-0.16245062722743225 
0.2894838968917339 
0.19500851279362053 
0.06866962309245285 
-0.14758958817211265 
0.17611016894079912 
-0.3894795699989688 
0.24745572333628518 
-0.5068235487003435 
0.012260502401770079 
-0.11549795954011985 
-0.26764900565423766 
-0.24668114518171896 
-0.32227887100733177 
0.4214781843663574 
0.26760136581892435 
-0.2618688402968582 
-0.35942931253305244 
0.49282900837175103 
-0.030871932301377476 
0.003393215516161093 
0.32035353484429274 
-0.21936650333354002 
0.4790273434877752 
0.3797465238224661 
-0.08199371045365433 
0.4138294247713341 
-0.05133916124019841 
-0.030042264315564025 
0.4407326842336591 
-0.07875870676724248 
0.40568179942508364 
0.4871244158160556 
0.14495992875805447 
-0.09244628398744778 
-0.233007433500717 
0.016186061381579575 
-0.23641085114531246 
0.214787311590652 
0.1403673933478906 
-0.029942376160208097 
-0.10390837758333357 
0.35666163123238515 
0.2948016610475227 
0.3706604105124005 
0.13733320164397306 
0.24738766784353014 
0.016395436704157863 
0.35156484466619753 
0.2981758231489904 
-0.21825575055330232 
0.4894269196223766 
0.335658805627574 
0.2780905272655998 
0.1796138477852639 
-0.06838905133253514 
0.3914795706243307 
0.3267925384225171 
-0.18086226891183022 
-0.08072023259012184 
-0.30400347810065453 
0.0366968754938124 
0.20408266535427572 
0.15693687673013473 
0.025330960904772697 
0.012969836661111102 
0.3803474161419471 
0.23774042769608528 
0.07177618676331701 
0.016867891280842963 
-0.13696501801466104 
-0.2944795059481642 
0.12720889150658737 
-0.5004414288676262 
-0.00978154060908629 
-0.14109861752435204 
-0.34362002472132236 
-0.21664195155940785 
0.22331803604498668 
0.45611850888420225 
-0.1983137643678914 
-0.20627007082158344 
0.4779948503119601 
0.3117467809835275 
-0.27530799469644274 
0.20756875610772973 
0.1686329476396024 
-0.028706256198899896 
-0.469073015661051 
-0.23811028521659638 
0.15383659089180807 
0.49146000207267726 
-0.3179026151085109 
0.1682406963511332 
0.1782567697378798 
-0.050628351967909144 
-0.09458832722876104 
-0.44876205108755063 
0.3921258558865842 
-0.21776550105355041 
-0.35550775992216754 
-0.4880065904436549 
-0.03927840421440152 
-0.5458949864575177 
-0.05531688604171675 
0.07127176840881469 
0.2600331106569912 
-0.14348803238172797 
0.071204106292304 
-0.002299888809453202 
0.42689148825372636 
0.4764690169641109 
-0.01941668464619372 
0.3205090815991367 
0.3660992420749746 
0.39548919141815697 
0.17505993516955087 
0.14412519858183404 
0.2229533532797533 
-0.3069200569595588 
-0.33746489561644577 
0.41063321720544 
0.41158902154557975 
-0.21428221105491513 
-0.16628409795133697 
-0.32708474835679524 
0.15310300827846907 
0.015093715696994768 
0.2323587712311691 
0.035910667309364507 
-0.08976854572188994 
-0.15443552874879296 
-0.1972164515743251 
-0.4149680215725243 
0.41957381907736147 
-0.3581180665445661 
-0.42016915258876086 
-0.4701029493477381 
0.303442070929984 
-0.19499677175883245 
-0.38734734131353854 
0.4695468997451214 
-0.398371561675954 
0.3956263702108159 
0.3212954205349151 
0.0889956700901737 
-0.38932889282810823 
-0.1773206457257896 
0.31767677988162724 
-0.3755747760995678 
0.0873535497190164 
-0.19072144761556198 
0.39137473188157257 
-0.16198220995953505 
-0.2446650435371926 
0.2618403888291643 
0.2416246574964942 
0.10029794089981453 
0.4037787880387823 
-0.11306768628286648 
-0.1683490218292622 
0.27682052912922317 
0.0844479944767611 
0.06906323052126864 
0.4834463279022031 
-0.37477863564086433 
0.04634334896049917 
-0.029635380954457877 
-0.24515464435359802 
-0.26972130006891815 
0.4474981769799967 
0.18916377501809706 
0.13756083431852084 
-0.4681748531336878 
-0.019851311447493997 
0.48306912305169225 
0.39120482252913646 
-0.12045894642976553 
0.17761903507658916 
-0.29197109908320784 
-0.456026141374944 
0.0910127783824626 
-0.08120072782864049 
0.32265189126749916 
-0.4406522899161416 
0.11433269884904906 
0.06937580335389312 
-0.04073957065130793 
-0.1043847535585796 
0.04517340353528773 
-0.38152176435543994 
0.4442154895083318 
0.37607270280011795 
-0.15787177475784825 
0.08804054282881885 
-0.20520159532728105 
0.2589715799543659 
0.4379651404745667 
0.1668081481001547 
-0.08900218350226313 
-0.2373406311629202 
0.28339235128295703 
0.21184979656118808 
0.08264430505062256 
-0.13074828950338419 
0.16983948958993467 
-0.39521275871660344 
0.2417225197174896 
-0.49320717892984245 
0.029101786169337097 
-0.0986566608713911 
-0.25080772188666933 
-0.23288559696563516 
-0.32837040171494747 
0.43876737699494983 
0.2844426644876531 
-0.265093769195076 
-0.3425880138643237 
0.48673747766413533 
-0.016897250343207822 
4.3703193455818165E-4 
0.3403301806390343 
-0.2937190017346384 
0.4735628851855943 
0.3736549931148504 
-0.15652538730032328 
0.4080066393803333 
-0.0571619466311993 
-0.016067567456233 
0.4575739829023878 
-0.06227573518733322 
0.39959025381630675 
-0.49890090222577477 
0.4399512592163919 
-0.09549206424241682 
-0.2160765530597833 
0.010452842861622683 
-0.24223365143747444 
0.23198693734820075 
0.15693993179884325 
-0.03934841753824675 
-0.10722288825375634 
0.3485097346652163 
0.31191169013170517 
-0.33730444261086534 
0.15480154291581422 
0.2642289665122578 
0.01317050780594018 
0.3684061433349264 
0.3150171218177191 
0.0738689780956355 
-0.49337346952123584 
0.3519626136630729 
0.20320052333011523 
0.173791062394263 
-0.07448058204015084 
0.41118745620129615 
0.3464108571284388 
-0.18650589075842106 
-0.06396853059475924 
-0.307676300958736 
-0.04079097003329735 
0.1977223744288839 
0.15066619737927028 
0.019508160612610716 
-0.06192016727437673 
0.3743454672065364 
0.2315593003151034 
-0.005980404080406957 
0.011134702563208435 
-0.14269822163345686 
-0.30021270956696 
0.12147568788779356 
-0.48368971197110533 
-0.013454378368328995 
-0.14432354642256984 
-0.3267787260525936 
-0.22300222758363858 
-0.48760300065988504 
0.45280399821377937 
-0.20377823757123348 
0.08872125963675076 
0.4949257307528938 
0.23658804663258642 
-0.28113078008744363 
0.22441003987529728 
0.1628997440208066 
-0.011864957530170615 
-0.45626286693922347 
-0.22144815009227758 
0.17076747133274178 
0.48823507317445936 
-0.29864262349140913 
0.09335069241564259 
0.19482932308999362 
-0.0344141257046152 
-0.10041112752092302 
-0.4578097653767692 
0.4094150485151766 
-0.2011033659292315 
-0.33857687948123383 
-0.49400853937906564 
-0.019480921964069645 
-0.5291432695609939 
-0.06131883497712748 
0.06249279943621081 
0.2542999070381954 
-0.2239320763916018 
0.06502299381248333 
-0.008391419517068845 
0.44364319024908905 
-0.5060626119617228 
-0.025597797126014395 
0.24561907766365465 
0.38034266934975913 
0.32050962061162525 
0.16896840446193517 
0.06950392506180156 
0.21704100101770873 
-0.3131011545382183 
-0.3228631412528413 
0.42747451587416874 
0.4286990506297622 
-0.19753050905955255 
-0.17542139401276052 
-0.3332658757377771 
0.16994429204603673 
0.032203759682338934 
0.2262672256223922 
0.030177463690568885 
-0.09299345971894654 
-0.22932551778311971 
0.0899812945045027 
-0.4239261689906991 
0.4133926916963796 
-0.36385127016336194 
-0.4034174505933983 
0.45214044490737604 
0.31768549820476855 
-0.20081957205099443 
-0.3702373122293561 
0.4605887672281078 
-0.3812615325917714 
0.3895348544043614 
0.33813670430248277 
0.10619528094656114 
-0.3727563394759943 
-0.15761276014882414 
0.33424933323374106 
-0.45019601981727964 
0.012463545783529255 
-0.19726088718420254 
0.3880602212111498 
-0.1451409112908062 
-0.2282716686306499 
0.25610718521036846 
0.16664507178880128 
0.11776631197397808 
0.39759766065780044 
-0.11629261518108427 
-0.17453011940792168 
0.2707289835204463 
0.10128929314548984 
0.06270295449703693 
0.500287626570934 
-0.38427425879110777 
0.06318463272806671 
-0.03859351347147108 
-0.3194175609824922 
-0.2528800014001894 
0.4382712991463682 
0.1826243205482953 
0.1318276306997249 
-0.4514231511383252 
-0.006324538350349177 
0.47733591943289644 
0.408046106296704 
-0.10325933557337807 
0.17143793749792968 
-0.2943897920315809 
-0.4387369636475127 
0.0852795747636668 
-0.0872922585362563 
0.31691867274754215 
-0.4467438355249185 
0.03980102200238094 
0.06283637868641376 
-0.046741519586718655 
-0.11056585113723907 
0.036215271018274174 
-0.38474669325365773 
0.4381239438995549 
0.3932723136565054 
-0.1404034185848459 
0.013598462655516265 
-0.18844986352959597 
0.2532383912367313 
0.4547168424699294 
0.18427651917431825 
-0.1611151674005582 
-0.243073834781716 
0.20563576043922932 
0.20575826585357238 
0.007754330917458377 
-0.1364814931221796 
0.18659119158529724 
-0.37595278200066273 
0.2585638183862171 
-0.4994778731818681 
0.023010255461721398 
-0.10447946116355308 
-0.2566305072776709 
-0.3077756009011241 
-0.40603742568762846 
0.4324966827429242 
0.2783511337800374 
-0.24825248542750816 
-0.3486795594731006 
0.4117579068576036 
-0.02263043906084245 
0.017278315702125596 
0.3342386350302574 
-0.29766058481049595 
0.49040416895316197 
0.393452475365182 
-0.16261691800793898 
0.42520625023672076 
-0.1317832052500731 
7.737163113342563E-4 
0.45434903910300883 
-0.06550067898671262 
0.3218336629725821 
0.49491800019556575 
0.43394931028098116 
-0.07874034734589294 
-0.22189933845078408 
0.026846232669326626 
-0.22816937280593863 
0.22616413705603877 
0.14771305396521472 
-0.022596715542884158 
-0.09082949844605245 
0.367769711381157 
0.13337966175247018 
-0.34303766113082235 
0.15157661401759642 
0.255270819094083 
0.02983264293025871 
0.3622250159539445 
0.31143386583068144 
0.06804619270463472 
-0.4995545820010565 
0.3462293951431159 
0.19701941085029456 
0.09845316449891331 
-0.057370538054807976 
0.40572299789911526 
0.3403193264208231 
0.10543967434610424 
-0.06979130108459874 
-0.2909245840622122 
-0.04876370305605637 
0.21680321740273695 
0.07613452053260225 
0.036439041053544424 
-0.06765337089317211 
0.3909180205586502 
0.055804291973066834 
-0.011803204372568918 
-0.06061993934510644 
-0.1258569378658892 
-0.28337141089823115 
0.04649611708126104 
-0.4925582627159141 
0.0032973385281950245 
-0.12748224775384098 
-0.31280404409442397 
-0.20616094381607092 
-0.49360494959529577 
0.3779139942782914 
-0.1870265057735485 
0.08262972892913506 
0.49161122008247105 
0.23076524634042445 
-0.2641998996465098 
0.22118512587824068 
0.18000978800615025 
-0.018225233554401393 
-0.4411236368435504 
-0.2992047558371628 
0.16458634395175992 
0.4133450841401326 
-0.3041966486646338 
0.08761748879684678 
0.18873779238237792 
-0.03763906950399419 
-0.08356982885219427 
-0.43944559148171713 
0.4034130995797659 
-0.2069261513202323 
-0.3447580068622157 
-0.47689851029488317 
-0.025662049345051487 
-0.5380118352069637 
-0.04456711808060371 
0.0770049720276105 
0.287534595514628 
-0.20601579645641338 
0.08231218644107574 
0.008808191339318611 
0.4396120403021877 
-0.5121541575704989 
-0.008756513358446879 
0.23979630717381506 
0.30294439069369317 
0.3111035792335868 
0.18643676063493764 
0.06341240925534639 
0.23379270301307142 
-0.29625987077065075 
-0.3045885491299942 
0.41842680158495016 
0.42215962596228285 
-0.20326369777718717 
-0.25622376511145506 
-0.3134683934874455 
0.16421108842724091 
0.02611222897472257 
0.5154357855908841 
-0.04480210711596319 
-0.07624175772358396 
-0.2383732320723383 
0.08577098101319142 
0.5014525872915927 
0.43014442349406457 
-0.3470099863957944 
-0.409508981301014 
0.4460489141997602 
0.31195229458597273 
-0.1839782733822657 
-0.37606009762035686 
0.4776988112134515 
-0.38439687971778425 
0.40637613817192897 
0.33240350068368696 
0.10297035204834334 
-0.3814457415775543 
-0.16370429085643984 
0.32815780252612536 
-0.45619796875269036 
0.006372015075913387 
-0.18050918518883996 
0.40552859228531335 
-0.15132202377062698 
-0.23391529047724074 
0.27250056011691115 
0.16091186817000547 
0.11158518459299621 
0.4111244486561064 
-0.0989138258791257 
-0.24655352153401167 
-0.43723586960281957 
0.026488870982205648 
0.07658805468300262 
0.49419609586331614 
-0.36707463303355914 
0.05422648530989192 
-0.021752229703903676 
-0.3257778370067228 
-0.2589715470089663 
0.36338131011204144 
0.20224263925421698 
0.1485793326950876 
-0.45455848336317684 
-0.011968160196940025 
0.494445948517079 
0.4019545755890883 
-0.10935086628099377 
0.09717500596787809 
-0.30003341387817173 
-0.4444701672663085 
0.10221044030343931 
-0.07071970518414236 
0.24193910194101148 
-0.42927546445075493 
0.033619924423721706 
0.07994640777059622 
-0.027123215781958296 
-0.18545585507272772 
0.0529669730136367 
-0.36799497635713385 
0.45209864075888573 
0.3874495282655046 
-0.1464949492924616 
0.007059023086875779 
-0.1944518124650067 
0.27007967500429886 
0.44862531176231357 
0.17522878998393848 
-0.16684835611819282 
-0.22632211788519213 
0.1999025717215947 
-0.49933998546029 
0.002289857714116263 
-0.120088118215639 
0.1806788244220915 
-0.3815964038472536 
0.2553388894879993 
-0.4821886805532757 
-0.05474633538200273 
-0.0880860713558492 
-0.23683303992850302 
-0.313867146509901 
-0.3889273817022847 
0.45184624123106976 
0.29581948995303986 
-0.25371694372968934 
0.47556543218486247 
0.4056663910511491 
-0.09761002476853589 
0.011455530311125051 
0.2593486459959309 
-0.28413379681219 
0.48144603643614836 
0.38762967507302004 
-0.14577561933921024 
0.4190251526580613 
-0.11825641725176594 
-0.0054969779406914415 
0.37981737715750197 
-0.14003234093222228 
0.33858536496794467 
0.41993839958671164 
0.45070102717750493 
-0.0852797869145335 
-0.20505805468321653 
0.020665120189505955 
-0.23426090351355433 
0.24291585395256254 
0.16356895313968878 
-0.028061173845065037 
-0.09656270206484827 
0.3616781955747024 
0.12728811614369354 
-0.3262859442342986 
0.07641789456781617 
0.18073915714857725 
0.024189006182506675 
0.37619971281327536 
0.23681262211296827 
0.08488749137336346 
0.4256450107368216 
0.36620604093785747 
0.21377111284565714 
0.09227205201909264 
-0.06050588518082037 
0.4225642965678441 
0.35707102841618565 
0.09934815853964973 
-0.05303959908923643 
-0.2967473843543742 
-0.030668274477618454 
0.21080126846732622 
0.07093880754703616 
-0.0414071464635464 
-0.053768255806046675 
0.38509522026648824 
0.049712776166612335 
0.005038094296159727 
-0.06698023027049801 
-0.129081866764107 
-0.28946295650700815 
0.043092024638633306 
-0.4754482336317315 
-0.002435879991762047 
-0.1332154513726368 
-0.3185372328120586 
-0.2117149689892956 
-0.4764949056099521 
0.37173289669963194 
-0.19069934353279117 
0.09973975801331764 
-0.4909204386456878 
0.2479648720979732 
-0.27011226680971556 
0.23829515496242315 
0.17364949708075844 
-7.568773813990883E-4 
-0.15544875108988743 
-0.3052962865447785 
0.18205471502592346 
0.40707438988810696 
-0.37935539791673667 
0.10445878746557563 
0.11447487575348317 
-0.02017071333099145 
-0.0924383795970029 
-0.4270833516209146 
-0.30768710066951266 
-0.18721826574326683 
-0.32755838110466706 
-0.4858566428118968 
-0.00908949599293797 
-0.5213497000826449 
-0.05030033660056071 
0.09169630816341992 
0.28135346813364615 
-0.19078696968737413 
0.07290614506303728 
0.005583277342261963 
0.4563637422975503 
-0.49531285890177357 
-0.014758462293857674 
0.25672715781242017 
0.3105588115287934 
0.328392756961018 
0.18034522992732183 
0.08025369302291468 
0.2280594993942755 
-0.30235140147826645 
-0.3143529175968526 
0.34398470651048707 
0.3472696220267949 
-0.1835558122002217 
-0.2382179183052217 
-0.31929117887844627 
0.08923151762071108 
0.04295352764345198 
0.5097025670709283 
-0.047758290697566014 
-0.08242285530224344 
-0.22153194830477074 
0.10001440828797598 
0.4954506383561782 
0.42414247455865384 
-0.3531015171034101 
-0.39266768263228524 
0.46324853995730897 
0.3287935783535403 
-0.1900698040898814 
-0.36235414607764094 
0.47169686227804075 
-0.36764517772242167 
0.4005533527809282 
0.3488864722635958 
0.1198116358159109 
-0.36424613072116674 
-0.14659426177225737 
-0.3791799781917057 
-0.4394462667573278 
0.02025713016303944 
-0.1836445174136916 
0.39916831626108273 
-0.13734734181245722 
-0.2211947384287795 
0.2668569382703203 
0.1777531668387342 
0.12564946322453033 
0.4053912301361494 
-0.10491578971569762 
-0.2527346340138348 
-0.44305864009265916 
0.02048692204679492 
0.0016084838764695054 
-0.2132312666267222 
-0.37316617864233603 
0.07142611106744064 
-0.0272166731049237 
-0.30866780792254034 
-0.24177192125142005 
0.3568418705434009 
0.19677818095203609 
0.14257738375967688 
-0.16225459116982843 
0.004783556699583799 
0.4880856724928484 
0.4218416396116249 
0.18555089730629798 
0.08812727677749832 
-0.28301296656619424 
-0.42673306577669123 
0.0964772366846435 
-0.07618417838748445 
0.23593715300560075 
-0.43563574047498554 
0.053417391772891884 
0.07385489196414172 
-0.03285641940075402 
-0.19154737087918222 
0.046785875434977225 
-0.3741760888369545 
0.44627585536788494 
0.31229077901340174 
-0.12678706371549595 
0.024258633943263934 
-0.17734178338082424 
0.26398814429668316 
0.37364574095578185 
0.19207008865266723 
-0.15045498121165013 
-0.22945746501120506 
0.2162959466281374 
-0.5051627708512977 
0.019131156382845058 
-0.12573174006223028 
0.19420561242039747 
-0.364844701851891 
0.2728072307598405 
-0.48872812012191624 
-0.03790505161443518 
-0.09686504032845286 
-0.24283498886391375 
-0.29639877543573745 
-0.3952876577265153 
0.44539639833579536 
0.29259456105482207 
-0.3288756929817922 
0.46992181033827163 
0.41964107300931874 
-0.10361197370394662 
0.028296814078692473 
0.25361542747597604 
-0.2673820948168273 
0.49855608042149213 
0.4044709737417488 
-0.149090130009633 
0.43586643642562883 
-0.12434793305822234 
-0.08047654874722443 
0.3739945917665012 
-0.14612387163983798 
0.33294174312135383 
0.41384688378025714 
0.4446990782420942 
-0.06816975783035104 
-0.21114958539083223 
-0.053597811340547405 
-0.21715085952821067 
0.2366451597005369 
0.15971695183603618 
-0.011219875176336654 
-0.07981100006948569 
0.37878822465888495 
0.14466690544565186 
-0.3322878931697093 
0.07095342136447408 
0.17491637175757646 
0.040582410891371615 
0.3930410114820041 
0.23072109140535257 
0.0988621733315331 
0.4198222104446596 
0.35984576491362685 
0.2081274909990663 
0.10633631574946736 
-0.04375418318545819 
0.4162040205436134 
0.35097951260973115 
0.1161894423072174 
-0.061908164735206016 
-0.3717269551609059 
-0.01597693834180927 
0.22764255223489377 
0.08769050954239885 
-0.047140350082342214 
-0.0597702047414574 
0.402294846024037 
0.0636874581247823 
-0.001053436411455996 
-0.049870186285154064 
-0.11197183767992452 
-0.3673091142217766 
0.06056038081163559 
-0.4815397643393472 
0.014405418676966595 
-0.11637416760507331 
-0.3016959639456521 
-0.1924549773721938 
-0.482586451218729 
0.3889325224571807 
-0.1735893144486087 
0.09364824220686302 
-0.4970119544521423 
0.23900673958095958 
-0.25058352987599924 
0.23229320602701242 
0.191117868154922 
-0.0068484080890147195 
-0.1596590794823599 
-0.28809666078722984 
0.17596318431830776 
0.4240052554278796 
-0.38544692862435237 
0.10123385856735784 
0.11062287444983057 
-0.026262244038607115 
-0.16705963821587666 
-0.4308457860535234 
-0.31350988606051355 
-0.19304105113426762 
-0.33364992671344396 
-0.46901534414316803 
0.005064349509641691 
-0.5274412307902606 
-0.03319029261521766 
0.10558142325054579 
-0.42616346122743365 
-0.2014471558762822 
0.09010575591942471 
0.02242456110982926 
0.4499138845011147 
-0.5011356591939315 
-7.837654345268079E-4 
0.2706122728995465 
0.30563182895868113 
0.3222116593823585 
0.19978438508883367 
0.07452048940411883 
0.24490078316184316 
-0.37670389987936337 
-0.39076579675866385 
0.33789317580287137 
0.3383114895097813 
-0.1896473429078374 
-0.22316825508059274 
-0.3941811828139342 
0.08609615559353695 
0.03730989089569994 
0.526543865739656 
-0.030558664940017216 
-0.1570441288222793 
-0.22717557015136158 
0.11058501270467908 
-0.4877976596484591 
0.4412525036428363 
-0.4277227757222831 
-0.39840090115224225 
0.4570674125763271 
0.3227020625470858 
-0.2643327207187748 
-0.3448857899046386 
-0.5115514357265797 
-0.3733783813412175 
0.4198133443980301 
0.34593028868199294 
0.11434717751373 
-0.3704272282998262 
-0.1525962107076681 
-0.3852715088993214 
-0.4451794703761236 
0.03700883215840134 
-0.16716156073494393 
0.4162783453452652 
-0.12050604314372793 
-0.22459883087140725 
0.2836086402656829 
0.17166162122995732 
0.11946835074471135 
0.3309491499628475 
-0.17989536052223082 
-0.23526627784083004 
-0.42612777455288664 
0.03732822071552344 
-0.004483046831146267 
-0.21959154265095282 
0.451168394787832 
0.06578248922085018 
-0.10210667704041204 
-0.31440101154133615 
-0.24759470664242084 
0.37395189962758335 
0.21361946471960364 
0.06795614004196515 
-0.16834613677860533 
-0.0013079889091931428 
0.5055540435670237 
0.415750094002848 
0.17954894837088714 
0.1045206814863634 
-0.2885669917394189 
-0.43273501471210196 
0.022035141610179602 
-0.059432476392121666 
0.25304719699094336 
-0.4187944567074179 
0.0475946063818911 
0.08782957392231136 
-0.10774640843508085 
-0.17434777492395598 
0.06371672607358898 
-0.08187221154476532 
0.37147543320460197 
0.30682633561238204 
-0.13305775796752167 
0.03823331590143382 
-0.18343331408843994 
0.2810981882820268 
0.3680916859802348 
0.1863368850338714 
-0.1566360787903096 
-0.2123474359270225 
0.21065232478154655 
-0.4882318904103571 
0.01277088035861465 
-0.1085321292058424 
0.18811406681162057 
-0.3709362176583455 
0.26644696963677106 
-0.4715284943643676 
-0.04399658232205088 
-0.2726200486704906 
-0.31763539612603287 
-0.30275905145996806 
-0.3779984650979229 
0.46250642741997794 
0.2174358267038774 
-0.3346984634716318 
0.4834485983365777 
0.4368406838657062 
-0.0866811081641741 
0.3170174502850063 
0.2703671592736586 
-0.2731152984356231 
0.4924645348127151 
0.3983794430341331 
-0.1318009373810406 
0.430133232806833 
-0.10714833710299404 
-0.08397022296205714 
0.3905671302174538 
-0.1292825729711092 
0.3493351329290577 
0.4335547693572226 
0.458225851339239 
-0.07685914503074973 
-0.3864566848718448 
-0.03989185979783148 
-0.22324240513698757 
0.2563530601786639 
0.08178119744790124 
-0.014444804074554334 
-0.08867953591313313 
0.3728758574956792 
0.13866494160907994 
-0.31517786408552684 
0.08779472003320282 
0.1914889251096903 
0.034849192371414636 
0.3872182111898421 
0.24765197184628868 
0.09178524312966271 
0.43666350911338847 
0.3773141359877904 
0.22183344254178222 
0.12308803264599114 
-0.049487386804254116 
0.43367237671661585 
0.27277499800382043 
0.11045623868842158 
-0.13688773554174027 
-0.35820016716259995 
-0.02627879744189722 
0.22155102152727807 
0.08249479655683287 
-0.030657363601272136 
-0.04266017565727494 
0.4162695279822066 
0.05795425450598621 
0.01641491976154654 
-0.05605131366613593 
-0.11797378661533504 
-0.35001992159318407 
0.05446885010401996 
-0.46469846567061845 
0.008313887969350918 
-0.12246569831268912 
-0.30778747975210674 
-0.19863610475317567 
-0.46574515255000026 
0.3828409768484037 
-0.1796808451562244 
0.11048954087559187 
-0.48017067068457464 
0.25584803824968616 
-0.2562271517225897 
0.24913448979457997 
0.1820701538657034 
0.007126273869154891 
-0.14675936388948874 
-0.2939194610793918 
0.1899378811776386 
0.43789037051500546 
-0.368068154223555 
0.11834390255270148 
0.12728499467299098 
-0.009689690686493151 
-0.17359907778451722 
-0.4184835610938821 
-0.296399856976331 
-0.1761101706933339 
-0.31958564808190815 
-0.47474854776196385 
-0.0010271811979741348 
0.3976687801754135 
-0.04214842513223066 
0.0975191084555819 
-0.4355695175066333 
-0.1822767311302242 
0.08401422521180901 
0.016601775718828395 
0.37215729365739003 
-0.4871609623346047 
-0.006964877914347479 
0.26487906928075056 
0.3205023435400617 
0.33905294314992607 
0.19431991188549158 
0.09378046612005947 
0.24167586916478656 
-0.38019758899535727 
-0.37249118973465556 
0.35464487779823395 
0.3556902639105787 
-0.2646269286155205 
-0.23373884459613425 
-0.4002727135215499 
0.10320619957888072 
0.05415118956442869 
0.5204523350320401 
-0.03665021054879432 
-0.16277733244107512 
-0.21051344992820398 
0.12438054601959997 
0.506469136732758 
0.4380275598434573 
-0.43372472465769385 
-0.4762470588670107 
0.4739982930172608 
0.33981209163126824 
-0.2704242663275517 
-0.3509773206122543 
0.4121252817849582 
-0.35653709757364993 
0.4136322170170481 
0.3631298995383804 
0.13118847618245894 
-0.44567555932413405 
-0.22757578151419983 
-0.36556360842119473 
-0.42833818660855605 
0.031006883222990264 
-0.17325309144255963 
0.4105451417264694 
-0.12623926166368543 
-0.20793671064824965 
0.2803837262686263 
0.18912999230412086 
0.13622005274007154 
0.32440971039420696 
-0.18562856414102663 
-0.24162655386506066 
-0.4294422852233094 
0.03114710823570283 
0.012358236936421355 
-0.19961491175737245 
0.4453456093968312 
0.08217586412739258 
-0.10819820774802774 
-0.2975597277737686 
-0.3198868540851234 
0.3708165674027317 
0.20752793401198794 
0.06473122604490865 
-0.15150483810987658 
0.018399911568933475 
0.4277974378221261 
0.34086010496852126 
0.19665897745506972 
0.09878746296640639 
-0.27145696265523644 
-0.4149978983213235 
0.016749846852408472 
-0.06310531415136453 
0.24695565138216752 
-0.4242589150095989 
0.06443589014945839 
0.08146929789808074 
-0.11383793914269656 
-0.17766228559437874 
0.057893955583749074 
-0.08760541516356113 
0.3652943356259425 
0.3236676044787884 
-0.20794773210068734 
0.03214178519381812 
-0.26118991983332507 
0.2750962393466161 
0.3814393104341308 
0.2027302748415753 
-0.13925730438951223 
-0.2187077119512531 
0.22740402677690913 
-0.4943234211179728 
0.030239236531616816 
-0.11749026172285601 
0.11313449600508935 
-0.44582622159383345 
-0.4412491381698799 
-0.4747534232625854 
-0.027244880326688835 
-0.27889074292251625 
-0.3239956721502635 
-0.2827824056652264 
-0.38417957757774357 
0.4533691313585543 
0.2119713535005353 
-0.31749886751640555 
-0.4994413725792398 
0.4307491531580905 
-0.08999560393343567 
0.31128424666621046 
0.26149859362768907 
-0.25627401466805555 
-0.4906045996475122 
0.41584779920713544 
-0.13834037694968115 
0.44357042413177283 
-0.11323985290944855 
-0.06686017897671348 
0.3851026719152729 
-0.1351053732632712 
0.3436019293102619 
0.4278215657384268 
0.4754254621956264 
-0.15174913406507662 
-0.37292989687353884 
-0.04571464518883227 
-0.2064011064682587 
0.25035111124325315 
0.0976370966223753 
0.0027548216829944598 
-0.07156950682895066 
0.29511925175079334 
0.15541667340676502 
-0.32413599660254044 
0.08170318932558712 
0.1860244519063482 
0.04882387432958425 
0.31241778902655915 
0.2383355122404528 
0.10835778158061535 
0.4506382059727193 
0.3712225903790135 
0.2389434716259647 
0.11699648703721424 
-0.12437737583857962 
0.42758084600900015 
0.28970587844475415 
0.13007454249318595 
-0.14342717511038083 
-0.3643812945435818 
-0.01006457117860354 
0.2387506472848268 
0.09942567699776658 
-0.0366593125366829 
-0.04875170636489064 
0.4101779972745909 
0.07479553827355404 
0.010054643737315707 
-0.04252452566782984 
-0.10122206971881148 
-0.35655936116182463 
0.07131013387158841 
-0.4702525206461655 
0.025782244142353368 
-0.10858058322556316 
-0.3820504112821599 
-0.27316778159984745 
-0.4714783561687961 
0.39681565880657343 
-0.16283956138865685 
0.10475633725679606 
-0.48590387430337045 
0.25002523795752535 
-0.23938588285618911 
0.2433117044035792 
0.47383655542582814 
0.0013034884781541176 
-0.1283056082222317 
-0.2773469077272779 
0.1842046626576816 
0.43215715199504845 
-0.3545413811264101 
0.1122523569439246 
0.1413492733045268 
-0.015154148988674036 
-0.15675777911578848 
-0.4226042928129884 
-0.30293928164381034 
-0.1822017163021108 
-0.32567717878952385 
-0.4576385186777814 
0.29100796567875786 
0.39184597988325154 
-0.02494881427584377 
0.38686681706732684 
-0.41845947352128965 
-0.26110831814157387 
0.009034654405278474 
-0.058288213315497814 
0.3896256498303924 
0.4376803033144536 
0.28551817782341526 
0.28136202595949833 
0.3323270778664733 
0.33296141244231037 
0.21116121055422032 
0.08813684427346863 
0.16669628345709364 
-0.3630875599111748 
-0.38109101006401047 
0.34855336199177944 
0.34932998788634806 
-0.27027055046211135 
-0.21456843475123782 
-0.3830730877640013 
0.09711466887126502 
0.05092626066621089 
-0.46207930879495007 
-0.019808911880065116 
-0.14889221735394925 
-0.21660498063581968 
0.1165869616400898 
-0.4766895645985262 
0.45486885851218606 
-0.41410640595177217 
-0.4822490227035826 
0.49083957678482837 
0.3338101426958575 
-0.25671832968599695 
-0.058942173735525405 
0.40666080858161613 
-0.36262862828126563 
0.43083184277459685 
0.3569488019597209 
0.12482820015822788 
-0.4493483970833768 
-0.23330898513299564 
-0.37129681203999054 
-0.43156310060561265 
0.048116912307173076 
-0.1559638988139671 
0.33565515269214263 
-0.20112926559917343 
-0.21393865958366037 
-0.42758112685463956 
0.2031046891634517 
0.130038940260251 
0.3415197543795506 
-0.1687872654722979 
-0.2247852551963319 
-0.41224267436692186 
0.04843630086429518 
0.0065354515454204756 
-0.20534811537616826 
0.46218690806555995 
0.0759947665487331 
-0.09108817866384528 
-0.3065178602907822 
-0.3253513123873043 
0.3875682693980943 
0.1329066902942761 
0.08157250981247613 
-0.1572380417286724 
0.012666707950137746 
0.4217059220156716 
0.3346789924887006 
0.1902987014308391 
0.11562876163513514 
-0.2773693298184422 
-0.4207311019401193 
0.03403903948100097 
-0.0454577795327909 
0.2609303482414973 
-0.41028423305142914 
0.05834435944184295 
0.09884807229887824 
-0.09708623714733397 
-0.16073140515344503 
0.07715393229969017 
-0.07363071830423029 
0.3807023110382305 
0.3204426755805706 
-0.21403927770946424 
0.04889350209034093 
-0.24399029407577716 
0.2029832554483162 
0.37525819795431015 
0.19708665299498446 
-0.12528262243134256 
-0.20186642818368555 
0.22417911277985253 
-0.4772133920337902 
0.02701430763339896 
0.17454490005504142 
0.11017831242348647 
-0.45155942521262926 
-0.4469823417886757 
0.45035657280192665 
-0.03288850217327914 
-0.26195987738274373 
-0.31002099019209384 
-0.2885156092840222 
-0.3644716920007781 
0.37838954565086136 
0.22881265216926416 
-0.32645698513225796 
-0.5055329032868442 
0.4475904518268192 
-0.07315432016586812 
0.3282151271071442 
0.27860862271187126 
-0.26236553047451006 
0.5035726298626446 
0.40975626849951974 
-0.12114076609329272 
0.43747889342415713 
-0.09353196733248309 
-0.07268297926887546 
0.40194395568284047 
-0.11817449282233458 
0.36330981488722736 
0.4446628644071555 
0.4693339463891719 
-0.1575719194560774 
-0.3785735187201297 
-0.02860461610464981 
-0.21213431008705452 
0.1757298526243798 
0.09423300417974756 
-0.0033367239257824513 
-0.07766103753656636 
0.28893813927097256 
0.1496834697879691 
-0.3072946979338117 
0.09890280018197456 
0.20510527997904004 
0.042732358523129746 
0.30632627322010464 
0.2553559595524316 
0.10253501109077576 
0.4449050023539235 
0.1955571787103404 
0.232851940918349 
0.13419611279476137 
-0.13046890654619558 
0.3498242402641143 
0.28361434773713845 
0.12407259355777447 
-0.12380887130561852 
-0.34727126545939935 
-0.0871941045180549 
0.22970291809444693 
0.09422994911103941 
-0.01954928345250042 
-0.0319104076961618 
0.3355567386557179 
0.06870400756593834 
0.02976254421544257 
-0.048257729286625764 
-0.10740318219863215 
-0.339359735404276 
0.06548734848058752 
0.4549470571905515 
-0.052243092017986575 
-0.2837981158355296 
-0.3881419568909368 
-0.2794384758518731 
-0.4522183645516943 
0.39135121540555373 
-0.16839360146304272 
0.11873100431380451 
0.43580204421967494 
0.26695611839845934 
-0.2455669804348486 
0.16842171536925243 
0.46765544294600747 
-0.07358651545733319 
-0.19970193794288693 
-0.2828113660294589 
0.47615022776221505 
0.4489984506637772 
-0.36072247870506957 
0.129093655612656 
0.13507857905250115 
-0.09004413802300029 
-0.16258056450678926 
-0.49910675374700464 
-0.2832313811656837 
0.11010217589123722 
-0.4008359131404655 
-0.463998794702012 
0.28527476205996194 
0.41164346213358316 
-0.031129926755664443 
0.397168676167415 
-0.42428225891229043 
-0.2654082283062513 
0.0033014507864826126 
-0.06429016225090767 
0.38326537380616177 
0.4315887726068379 
0.2789787382547747 
0.2776891882002557 
0.3284750765628207 
0.350161038199859 
0.20506967984660462 
0.10479897939778754 
0.1610526616105027 
-0.3688207635299706 
-0.3668475678880646 
0.3682612475687449 
0.3664400169705305 
-0.25342925179338255 
-0.29187713163509965 
-0.3695463146668565 
0.11395595263883257 
0.34323015285956104 
0.5318291604974268 
-0.026079606132090878 
-0.15489416628935998 
-0.19689708015769303 
0.04106988529916768 
-0.479914493496744 
0.44913565489339025 
-0.419839609570568 
-0.4665722721723573 
0.48483762784941764 
0.2616971736987237 
-0.2622723548592216 
-0.06467537735432015 
0.4206354905397858 
-0.4368915449101576 
0.4250090424824349 
0.1808354665288609 
0.050565268628174814 
-0.43259668018685293 
-0.2193342882736648 
-0.3548138553612429 
-0.4140947593337714 
0.04202539650071857 
0.13311506448116417 
0.3496298346503124 
-0.20722078140562794 
-0.2917848321995917 
-0.4328664216124105 
0.197013158455836 
-0.042759884500181186 
0.33856357079794774 
-0.15481256861296694 
-0.230249728399674 
-0.41833420507453767 
0.03903025948625671 
0.026243352023547245 
-0.18850681670743952 
0.45905156093954713 
0.004240109739258379 
-0.09431310756206307 
-0.28940781630543844 
-0.30851001371857556 
0.3818350657792985 
0.1268151595866604 
0.07583930619368032 
-0.14012801264448982 
-0.06222328108418894 
0.4383680422388292 
0.3486536893480314 
0.20776705760384145 
0.11240383273691734 
-0.3518114099917441 
-0.4951731970145824 
0.02803709054559033 
-0.0515493102404066 
0.27812995909788474 
-0.4851742220857559 
0.07554398519939164 
0.09472732567861072 
-0.0832011220602081 
-0.1665541905444458 
-0.0015880580382897878 
-0.07972224901184599 
0.3979019367957791 
0.33764230133811923 
-0.1968396519519155 
0.04280197138272619 
-0.24981309436793914 
0.19725005182952038 
0.39451817467025085 
0.1249736690966892 
-0.13137415313895817 
-0.20768921357468634 
0.24119956009183002 
-0.4833049227414059 
0.04385560630212794 
0.16836377267405955 
0.12728835640882954 
-0.4376743101255034 
-0.43014105802110814 
0.44453380231208706 
-0.013180616596313706 
-0.2676034992293346 
-0.2925526191179303 
-0.27167432551645465 
-0.3705632078072326 
0.37238759671545063 
0.22272112146164846 
-0.3096157013646904 
-0.4886916046181268 
0.44149890621804233 
-0.07924585087348382 
0.32158610576629865 
0.27251709200425556 
-0.3366284620045632 
0.4286826259271601 
0.33173091743801897 
-0.1272322818997484 
0.3629472165774891 
-0.09935475272348387 
-0.05611042591676013 
0.39298583806698806 
-0.12722220711155569 
0.35721828417961166 
0.43857131879837863 
0.39444394245368397 
-0.1406410390151437 
-0.36191139849697207 
-0.03469613191110431 
-0.2841577122131449 
0.1696383219167641 
0.1075806286336436 
-0.07822672786127066 
-0.1501323485236829 
0.3062273318995651 
0.16948093713713963 
-0.3130279015526075 
0.08985508589275598 
0.19901374927142435 
-0.03188890009574333 
0.3234363172054483 
0.24926441394365526 
0.027555440284244025 
0.46201503143810596 
0.1898239601903834 
0.15796195188402223 
0.1283733274037622 
-0.116404642815821 
0.3440014697742746 
0.3033222482152651 
0.1411826226419577 
-0.12963164179545994 
-0.3505857612286609 
-0.07545895196384836 
0.1550816743767351 
0.11142957486858804 
-0.022774227251879407 
-0.0376436262161189 
0.32955478972030716 
0.0858140366501208 
0.02429808591326167 
-0.03177477260787799 
-0.28593522547902617 
-0.34500337215202803 
0.08241822892152134 
0.45163254652012874 
-0.0580658923101485 
-0.290337540503009 
-0.3684340415116488 
-0.265732509407996 
-0.4578619863982851 
0.4081924991731213 
-0.2465981011677933 
0.043841030180640235 
0.4526433279872426 
0.26077500591863817 
-0.32054656614253574 
0.18239639732742208 
0.48727374675076807 
-0.07958846439274392 
-0.18707096766663067 
-0.2631034655513321 
0.4701482788268043 
0.4429069199561615 
-0.3432541225320672 
0.12336045199385752 
0.15209904126563983 
-0.0990022705400139 
-0.1428726640286626 
-0.4863862165997046 
-0.28905418145784567 
0.10401066008478271 
-0.4066586985314663 
0.46173828866909605 
0.3020264789564858 
0.40555191652480627 
-0.10593034891894751 
0.41159125208544844 
-0.40753054201576655 
-0.2529564215744035 
0.023278096581224046 
-0.047180133166726076 
0.40037540289034423 
0.44878838346322536 
0.29617834911116214 
0.20306794448254972 
-0.38137097887558835 
0.34684652752943623 
0.13053801790109776 
0.09870744869017173 
0.17744605141820669 
-0.3519794648612419 
-0.35448534292842326 
0.3624384621777441 
0.3601693376196661 
-0.23954415160742776 
-0.30092484592431823 
-0.37518993651344734 
0.10822274902003676 
0.3372282039241503 
-0.44873169924221523 
-0.012463251262741209 
-0.13778413720517751 
-0.20236153845987392 
0.04769890664001321 
-0.4631627915013814 
-0.2585604529132607 
-0.40299832580300043 
-0.44964142153374587 
0.30926178305179064 
0.2559639700799279 
-0.24543107109165313 
-0.047923660457797446 
0.4145439598321701 
-0.4234543386840566 
0.3469837063220953 
0.17519184468227006 
0.04160713611116121 
-0.4384194804790149 
-0.2254258189812805 
-0.3611741313854735 
-0.4204550204568408 
-0.029997990724209597 
0.12702354867470966 
0.3438070492593115 
-0.19011075232144548 
-0.2745852213432043 
-0.41602513784484285 
0.12248148160916827 
-0.04822434280236208 
0.3551361092489004 
-0.16108327776615378 
-0.21627503154034317 
-0.4014929064058088 
0.056229885243805344 
0.0202414030881366 
-0.19459834741505522 
0.4761616049248909 
-0.0018514209683573079 
-0.07738222712112935 
-0.2954097652408493 
-0.31460155932735245 
0.39867634954686604 
0.140879423317035 
0.09268060486240917 
-0.14935489047811845 
-0.06831482669296532 
0.4321869297590085 
0.3430100526002794 
0.20167552689622575 
0.12951387672225945 
-0.35709671965067624 
-0.5011751459499831 
0.04290760512697091 
-0.12643931417589604 
0.27230717370688395 
-0.4909074257045518 
0.06613792892019182 
0.38667289078313805 
-0.08902392235237008 
-0.14971290677687815 
-0.007410843429290596 
-0.06261221992766357 
0.3889438042787655 
0.33146120375945975 
-0.1826858064493359 
-0.029221415842203217 
-0.2332405410158253 
0.21409135049824912 
0.38878497105145504 
0.11888213838907166 
-0.20590581508446504 
-0.28544580441841316 
0.23501844761200935 
-0.46933022588207507 
0.03812240268333213 
0.18565298020381316 
0.1212864074734194 
-0.4436762590609141 
-0.43909917563696055 
0.4614646678518596 
-0.019361714174973697 
-0.24807476229561903 
-0.2986441647267072 
-0.27776585622407035 
-0.07816973384167814 
0.3894976407007944 
0.2360687459155445 
-0.3154384867556912 
-0.4944248082369226 
0.3693859372209085 
-0.06204624001709649 
0.338964880167096 
0.2893583906729843 
-0.3401221213182347 
0.4254576970289423 
0.3491992885121825 
0.16193624826642694 
0.35685570077103457 
-0.17424474175781185 
-0.06157488421894182 
0.4101854340222143 
-0.11002259625516572 
0.2825970404618998 
0.4559501081003372 
0.38835242664722947 
-0.14449304031879628 
-0.36800292920458777 
-0.017854863044697737 
-0.2901596611485556 
0.18665878412990278 
0.10086202552059309 
-0.08404949835111025 
-0.15631346100350357 
0.2996879072320857 
0.16329980975615777 
-0.38791789058693427 
0.1067859514325285 
0.2164821203455879 
-0.037890849031154014 
0.3202113734060693 
0.2660161457413398 
0.04135095869800416 
0.45565475541387535 
0.20370906037634806 
0.1545578594413945 
-0.04469424267328717 
-0.0996529259192972 
0.36084275354184225 
0.29776819323971804 
0.13509110683550318 
-0.11287993980009481 
-0.33419237142095704 
-0.08343168498660727 
0.14934847075793928 
0.1057859530219972 
-0.00593292858315044 
-0.21089034493641595 
0.3463960883890359 
0.07981208771471007 
-0.050591918022227 
-0.03535802859491567 
-0.2690939268102974 
-0.32574338053492624 
0.07346009640450774 
0.4683842783178137 
-0.04086626655259992 
-0.27313794454778273 
-0.37416726003160583 
-0.24915998585820381 
0.46715842789402195 
0.4021009684655056 
-0.22930890853919983 
0.03765990279965839 
0.4469101243684468 
0.18624332907197133 
-0.32923595334293443 
0.17666319370862626 
0.48118223094431356 
-0.0624784204074007 
-0.19486453714497964 
-0.2691949962589478 
0.4868104139511231 
0.36864400332726954 
-0.3493456532396829 
0.04847046295953139 
0.14573876524140922 
-0.08180267458478765 
-0.1489642096374395 
-0.49104443895204075 
-0.27212330101691196 
0.11798534204295236 
-0.38945908767507886 
0.45851334486971707 
0.29835364119724317 
-0.5773380394898509 
-0.1117531194087871 
0.40675386618870235 
-0.4137116693967485 
-0.2576146439267412 
0.01691782055699343 
-0.03320545120855636 
0.3946421992715484 
0.4454738727928026 
0.29295342021294435 
0.19697641377493402 
-0.36721713337300876 
-0.36102874382162453 
0.124356890520119 
0.020950857846446888 
0.1716232511260447 
-0.3580709955688576 
-0.43116696740684946 
0.3791901790742679 
0.37978764142442656 
-0.24563568231504346 
-0.2865918219761675 
-0.35843821961692346 
0.12174953701834274 
0.3539799208206741 
-0.45419614264323493 
-0.08744282206927345 
-0.14387566791279321 
-0.27725154239535865 
0.062211094132573946 
-0.46880641334797224 
-0.2649207140363301 
-0.40908985651061613 
-0.4552850433803367 
0.30343899766078986 
0.27280525384749543 
-0.2519704957591328 
-0.05105900758381027 
0.4312060949564889 
-0.42963545116387725 
0.3415192629210755 
0.18907692996707354 
0.05844841987872887 
-0.424713528936299 
-0.2086741169859178 
-0.34370577521247114 
-0.4954346061645337 
-0.03573119434300609 
0.14386481754111602 
0.3607379147990841 
-0.1932460994474583 
-0.2806767371496588 
-0.42220625032466363 
0.11638993600039113 
-0.0314726259058385 
0.3496716509467195 
-0.14424199399858623 
-0.22245612911900264 
-0.4076740188856295 
0.05013833963502845 
0.03735143217231862 
-0.17748830342971156 
0.470070059316114 
0.015258608115825249 
-0.08320501251213014 
-0.3703893509485422 
-0.2974019335698037 
0.39258481883925034 
0.13505663792603423 
0.08658905925363228 
-0.13224484649277468 
-0.05120478270762267 
0.45198441200934014 
0.35976176949680316 
0.21556064198335162 
0.12351192778685027 
-0.33980751212092264 
-0.4839755201924445 
0.03690565619156018 
-0.13217250289353066 
-0.43619515514845053 
-0.47406614193698415 
-0.008304151253109225 
0.38120844738211834 
-0.07191387836702642 
-0.15580442258333266 
0.009340858566071964 
-0.06861416886307425 
0.40578508804633306 
0.3483920543980712 
-0.18886691892915658 
-0.034685874144384385 
-0.23879459599137237 
0.20799980488947223 
0.4056262697201838 
0.1357234370578025 
-0.21199736069324204 
-0.2686045206508456 
-0.4730359872834584 
-0.47551135326305694 
-0.0368571681231996 
0.1819801424445705 
0.1380381094687816 
-0.42656622997673166 
-0.4219891465527781 
0.4553731371442439 
-0.09425171811046162 
-0.25416630790439476 
-0.28180286605797844 
-0.3523870999417822 
-0.08426126454929384 
0.3836748553097935 
0.2306042727122024 
-0.2985076212159187 
0.4338205349536023 
0.3635631518299077 
-0.06822735249691705 
0.3358295330410832 
0.2836251721530273 
-0.32301209223405225 
0.44265732278649095 
0.3431077578045668 
0.1790462922517706 
0.37656358634800013 
-0.18024669069322258 
-0.04760018735961026 
0.4040043364435548 
-0.11629327560603017 
0.2765950915264891 
0.4498585773927215 
0.40537287395920696 
-0.12702468414579393 
-0.3482950287264611 
-0.021169373715120503 
-0.2729600353910069 
0.20018555722704756 
0.11994285359328506 
-0.06711863281133773 
-0.13911383524595494 
0.31688751808847315 
0.08832023894962654 
-0.39400943619571116 
0.10096316604152772 
0.21012182942019608 
-0.021139147035791186 
0.33705265717363686 
0.26261205329871196 
0.03525942799038846 
0.3813918238838222 
0.19761754456989356 
0.17166788852557696 
-0.05015870097546797 
-0.10565487485470793 
0.3548408046064315 
0.31434074659183187 
0.06020110290001203 
-0.09935315180178883 
-0.3403734839007777 
-0.06874034885079786 
0.165652263892277 
0.0309855308587145 
-0.01148696865753632 
-0.21707147231739782 
0.3405733029980351 
0.007699133618736937 
-0.056683433828681504 
-0.11033759940144769 
-0.27482713042909324 
-0.331566165925927 
0.36522649796462914 
0.46220315093683184 
-0.04695779726021562 
-0.27922946035423724 
-0.3573259613628771 
-0.2546244292592248 
0.46106689718640625 
0.3275692916188375 
-0.2354900210190205 
0.05494911032941194 
0.46366184126497056 
0.1831079819459585 
-0.31212590935759077 
0.19350447747619381 
0.4980235296130423 
-0.06856995111501596 
-0.17650036324992746 
-0.3437266731056159 
0.48376464859731527 
0.3622837273030389 
-0.4245044024917858 
0.062445144917701506 
0.4384009845235767 
-0.08798377216344713 
-0.13176458387989087 
-0.47653225145947997 
-0.2783044134967326 
0.13518495289934085 
-0.39268401657329666 
0.4753546435384458 
0.3155532669547918 
-0.5834295552963055 
-0.09491183564121955 
0.41768278279306414 
-0.39400376891862177 
-0.24328163487974747 
0.03438617672999657 
-0.03929698191617202 
0.41148349794027717 
0.4624047532337363 
0.3097947188816731 
0.21354896712704785 
-0.3562882018674858 
-0.3668515292126253 
0.1384211691516517 
0.015486384643104586 
0.18559794798537554 
-0.3409609664846751 
-0.4360939499769617 
0.3730986483666522 
0.37369611071681086 
-0.22879438364631471 
-0.272258812929178 
-0.36237980269278103 
0.1161059151717519 
0.3482467172018783 
0.4709138534212771 
-0.09102607805631113 
-0.12703436924406447 
-0.28334305820181316 
0.07869405081132103 
0.45585568875667615 
-0.2474523727644869 
-0.39162150033761367 
-0.43853332648381294 
0.3203698632005624 
0.26671372313987973 
-0.23486046667494953 
-0.0339489784996278 
0.4250249973778294 
-0.4124358403074898 
0.35836054668864314 
0.18298541416061903 
0.052715216259932945 
-0.40724517276329664 
-0.21431773883250876 
-0.35266390772948475 
-0.5046614839981579 
-0.019158655892052776 
0.13804204705127643 
0.35455681722042465 
-0.1762256521354808 
-0.26383545338209125 
-0.405364966557096 
0.1332312346691198 
-0.038012080375640064 
0.36651294961544834 
-0.15024394293399695 
-0.3977632435011783 
-0.4821161139600926 
-0.02475164939929808 
0.03125990146470309 
-0.18349025236512229 
0.48718010330145767 
0.009167092309370748 
-0.06636372874456248 
-0.376122554567338 
-0.3035830460496244 
0.3183219022103584 
0.15189793659476297 
0.10405743032779582 
-0.13896344960582518 
-0.05729631341523833 
0.44616161171717816 
0.35367023878918746 
0.1405810711768199 
0.048532327177995466 
-0.34554071573971845 
-0.48917124807917167 
0.05410526704794762 
-0.11864571489522333 
-0.44192835876724634 
-0.48015767264459985 
-0.01448526373292961 
0.3980497162485247 
-0.07800540907464212 
-0.23033609943000072 
0.003607654947276196 
-0.051772870194346024 
0.40032062974415217 
0.3425692690070703 
-0.172115216933794 
-0.018113335693432563 
-0.22195329732264363 
0.22546817596363578 
0.3995347390125681 
0.12999021853784548 
-0.1951560620245132 
-0.27433770936848023 
-0.45906130532528866 
0.45004655166248 
-0.04285911705861033 
0.19917976820211913 
0.13230490584998567 
-0.43265776068434736 
-0.4279910954881888 
-0.5275168337715638 
-0.1004328305902823 
-0.23732500923566718 
-0.28753606967677425 
-0.3583890488771929 
-0.06741998078172629 
0.4033827408867591 
0.24744557138093115 
-0.30468871879457815 
0.4274602589293717 
0.38040445049863647 
-0.14589436156843555 
0.352581249937607 
0.211153890968234 
-0.32883489252621423 
0.4361178832178504 
0.35994904157213437 
0.17286517977194993 
0.37065121918479427 
-0.1631366616090401 
-0.053691732968387154 
-0.30387093490750594 
-0.19109369776931595 
0.29334679352185167 
0.2713265490134916 
0.39928132835043006 
-0.13338496017002455 
-0.3537595019298032 
-0.1968347853837933 
-0.27887241745537383 
0.19436277183604678 
0.11358257756905443 
-0.053233532625372615 
-0.1456532897157567 
0.31366260409141655 
0.0826766171030357 
-0.37439113239095057 
0.025625268146175148 
0.03472516306814019 
-0.026872335753425854 
0.33131945355484105 
-0.4452632180523488 
0.05210071175795601 
0.3753003080773677 
0.21436924656525613 
0.16557635781796126 
-0.03331741720790052 
-0.08854484577052546 
0.3719508485917752 
0.3085179462996699 
0.05446789928121622 
-0.1055342642816095 
-0.0512049388334406 
-0.054228176259398464 
0.1624273349940592 
0.025252327239918687 
-0.08628737591965815 
-0.1998718465598492 
0.36028120347616177 
0.001965915098779778 
-0.03948383787345526 
-0.11589162457467247 
-0.25807541353256935 
-0.40636658808921 
0.35913496725701344 
0.4790444496055606 
-0.03011651349264793 
-0.25952157477727167 
-0.3634174920704928 
-0.23787272726385794 
0.4750415791445759 
0.3214777609112218 
-0.21864872235029176 
0.051276272570169285 
0.45757029565619367 
0.19994928061468725 
-0.3181278582930015 
0.18741294676857811 
0.4922903110930853 
-0.04886205063689003 
-0.16198820555968918 
-0.3498182038132317 
-0.49948364940732215 
0.3819916128800044 
-0.4299688458928055 
0.05626403243788036 
0.4351760407241977 
-0.07105289172251342 
-0.13785611458750657 
-0.46434919004424857 
-0.3525673301256246 
0.12909342219172512 
-0.3758427179045678 
0.46962143991965 
0.3094617362471761 
-0.566588286429899 
-0.09813674963827615 
0.3399261919493395 
-0.3996473907652126 
-0.228411135199528 
0.02829464602238016 
-0.021828625743170134 
0.4078106750821957 
0.4565819678427355 
0.3039719334906723 
0.20423250752121436 
-0.3424926834537261 
-0.35001024544505777 
0.15553119823583417 
0.03205893799521857 
0.17950641727775984 
-0.4186279755561948 
-0.4214026138411523 
0.29471497021633153 
0.2994331940879189 
-0.2346171690373155 
-0.258373697842052 
-0.4372697917271079 
0.041126329464057275 
0.3650880009694458 
0.4648223227136614 
-0.07355770698214759 
-0.13276758776402148 
-0.2661434622465869 
0.0749316461810346 
0.45003290336567536 
-0.25641050528150255 
-0.3979817763618444 
-0.44749145900082654 
0.31141173068354877 
0.2834654251352424 
-0.23808541047432852 
-0.0400405092072435 
0.4448224647269998 
-0.4182586256984906 
0.35226901598102744 
0.1997371161559816 
0.069466933156457 
-0.41333668856975114 
-0.1974764401637799 
-0.4275538967638115 
-0.4877306035572285 
-0.025339768371873447 
0.15488334572000517 
0.3717564280768121 
-0.18195884085311542 
-0.26929991168427214 
-0.4110085735025256 
0.127408449278119 
-0.02090203639029671 
0.36042140400667144 
-0.2248651866517088 
-0.40430268306981887 
-0.4685893259617866 
-0.030574434790298866 
-0.04363008756962378 
-0.26133643988221067 
0.4810885576926808 
0.026008376076938115 
-0.07245525945217829 
-0.35928127079977035 
-0.28960836409145474 
0.3320278388519131 
0.1453584970261224 
0.09509929781078222 
-0.21089725505854906 
-0.043232034783702564 
0.4630029103859069 
0.370511522556755 
0.13493744933022905 
0.04279912355919965 
-0.32852026842774096 
-0.47188205545057926 
0.04819289988474186 
-0.10135652226663092 
-0.4222204731902808 
-0.4630476435604174 
0.002356034935798912 
0.41202441310785554 
-0.15289541301013138 
-0.21609267215521616 
0.022867646564377855 
-0.05759567048650813 
0.3251618804920493 
0.26767927997274354 
-0.1782067327402485 
-0.023936121084432202 
-0.22562613508188628 
0.21910789993940516 
0.22440678817480042 
0.14683151720657434 
-0.19847057269493595 
-0.2574964405020739 
-0.4651528211317433 
0.44395503585602547 
-0.025749087974428056 
0.19308822259334224 
0.14914618961755333 
-0.4158164769167798 
-0.41123939349282623 
-0.5135421369122328 
-0.08323320483273366 
-0.24278948243900927 
-0.362426058711101 
-0.3444143669190233 
-0.07324276617272707 
0.3975599554957583 
0.24144362244552042 
-0.012295259730184523 
0.4417037011053174 
0.3741337562466108 
-0.12878433248425308 
0.3460418103689664 
0.20497277848841333 
-0.3119935938574855 
0.4534070758464428 
0.35421583795333855 
0.18970647844067867 
0.38740293608131815 
-0.1692281923166558 
-0.1282233949138925 
-0.3101416291595317 
-0.19691648316031685 
0.28761358990305586 
0.28852617477104037 
0.41639137233577384 
-0.11654367640245686 
-0.42873907273633494 
-0.20247840723038413 
-0.26212070055885006 
0.21120405560361433 
0.401855290013181 
-0.05896673624416854 
-0.1283640821860031 
0.3305038878589841 
0.09620340510134168 
-0.3804826481974052 
0.02240032434679616 
0.02899194454818348 
-0.007164450176460203 
0.3481607522235698 
-0.4514443454333307 
0.046636253455775115 
0.39500819365433315 
0.20827771585764043 
0.1827759686743488 
-0.039408933014355024 
-0.09463637647814116 
0.3658593029829983 
-0.39917816150698104 
0.06871134145716129 
-0.1801555229004851 
-0.057117305996646356 
-0.0592447257005545 
0.17953737897940297 
0.022923216063750612 
-0.09237892152843516 
-0.2059633772674649 
0.3541896578673849 
0.018807213767508282 
-0.045575353679909766 
-0.10245443324973255 
-0.2640773624679802 
-0.4125477005690307 
0.3762449963411959 
0.4735799764022185 
-0.03593928398248766 
-0.26534436016827256 
-0.3463074629863103 
-0.24109764126091454 
0.49224120490212453 
0.34118566138934847 
-0.22196323302071452 
0.06838630165435079 
0.4750386667303572 
0.19421607699589144 
-0.3013761562976389 
0.20488131784274177 
0.5090420279896056 
-0.05459526915684701 
-0.17202130444200125 
-0.33297692004566404 
0.4945144016572671 
0.3765271545778235 
-0.41026096031584003 
0.0731053311066085 
0.45201733939292643 
-0.0768756920146754 
-0.21274611852299452 
-0.5404037570183994 
-0.35865887573440147 
0.145934720860454 
-0.3816655181967298 
0.4863731419150126 
0.32630302001474365 
-0.5720527298309187 
-0.0809371536830499 
0.3539008888086703 
-0.4746269764729055 
0.06102615518442296 
0.04513592978994853 
-0.027920156450785865 
-0.29979586585341145 
0.4734232516103031 
0.32090279903044483 
0.22134253660539682 
-0.34930085343782036 
-0.35610177615267347 
0.14943968242937966 
0.02623613770305675 
0.1966164463619423 
-0.42480908803601547 
-0.4107424276522442 
0.31191459597388016 
0.2933416633803032 
-0.30941759120058865 
-0.2669735181714069 
-0.44309259201926987 
0.03503479875644166 
0.356129853551271 
0.4819323517978439 
-0.07964925259092448 
-0.3055664125244544 
-0.2722349780530414 
-0.0020187236140058107 
0.4640076002250062 
-0.23956920661277176 
-0.47546962188895414 
0.4776185370636855 
0.32852177466889254 
0.2778218032886516 
-0.3129753995086567 
-0.02319922543967599 
0.43899967933599904 
-0.3987298887647739 
0.3694686417385761 
0.1942726578538007 
0.06579409539721434 
-0.4882266925052391 
-0.20079095083420267 
-0.4332871152837685 
-0.49337422540381937 
-0.01136507151254263 
0.15174798369283116 
0.3656648973691964 
-0.16511755708554787 
-0.2527273583321588 
-0.39712347331656095 
0.14711634975624566 
-0.007823157253015297 
0.28239606784633176 
-0.2280901006487654 
-0.38701349044122646 
-0.4744121113527874 
-0.010776967441128098 
-0.0490945458718047 
-0.2670696435010065 
0.40324238507675114 
0.02027517245814238 
-0.2510768696036111 
-0.36250619969798825 
-0.29534156771025055 
0.3259363081442974 
0.16246854101146607 
0.019940548558679428 
-0.2165408769051399 
-0.04905483507586454 
0.45691136477713 
0.36495748248236914 
0.15133082423677174 
0.0596404222279284 
-0.33425348694769796 
-0.477794422613785 
0.3410342827113222 
-0.10753763474645159 
-0.4283120038978966 
-0.4666308846462939 
-0.003735510672978028 
0.40620162771685475 
-0.15620990877939295 
-0.22245293327828558 
0.017224024717787088 
-0.12961905771143883 
0.3193391100022097 
0.25872114745572994 
0.11669501594588283 
-0.006736510228046043 
-0.3001577970273924 
0.23335132721418983 
0.23838148503413126 
0.16080619916474398 
-0.1816292740262072 
-0.2635879563085284 
-0.4479532251765169 
0.46070673785138805 
-0.03470723539260266 
0.20992952126207098 
0.07138959877382917 
-0.4215496805355756 
-0.41697259711162205 
-0.5196336676198486 
-0.09237050089415721 
-0.3179482018887886 
-0.3656509876093188 
-0.3506850611710489 
-0.05926806931339369 
0.414490835936692 
0.16655363341119367 
-0.015520188628402199 
0.45514089243025724 
0.38810843820478047 
-0.13460710297409267 
0.2714205666512546 
0.22217238934480077 
-0.3180851245651012 
0.4472259782677833 
0.37096755484986244 
0.18603364068143602 
0.38131139047254126 
-0.15525349545732497 
-0.13440450739371318 
-0.29043374358256613 
-0.17720858268219009 
0.3015882867623867 
0.28243462916226336 
0.41029982672699683 
-0.12200811980347662 
-0.43474102167174566 
-0.18572670523502155 
-0.2678539041776459 
0.20511252489599863 
0.42093613298703403 
-0.042125437575439684 
-0.11447896709887548 
0.3246811024679833 
0.09047020148254586 
-0.36319345556881266 
0.03951036833214147 
0.04296662650635283 
-0.0132559808840758 
0.3420692364171153 
-0.43424471967578204 
0.06320880680788885 
0.38927499003553734 
0.22798561633576708 
0.17659487109568922 
-0.022209337059129117 
-0.1666597786042311 
0.38556720346112494 
-0.40526967731343555 
0.06235106543293058 
-0.18633662047914457 
-0.03839481991393559 
-0.13601591705002475 
0.17344584827178727 
0.04021240869234313 
-0.07526887754309139 
-0.19171994999268033 
0.3713892836249335 
0.012715683059892888 
-0.03160067172174009 
-0.085613149482165 
-0.24696733338379467 
-0.3950793443960283 
0.37257215858195325 
0.48755467326154933 
-0.016141816633316767 
-0.24841347972733713 
-0.352398993693926 
-0.3160772418697724 
0.48606007752114266 
0.3353628759983477 
-0.20449487684771206 
0.06229477094673612 
0.4718137378321394 
0.21096777899125402 
-0.30710935991643473 
0.19852102691734985 
0.4313750189180894 
-0.03820187934914315 
-0.24583631220986896 
-0.33879969053550363 
-0.4883755543573891 
0.39336845324655223 
-0.4164420727956607 
0.06746170926001765 
0.4462841208729694 
-0.06003439334594818 
-0.21821056192401422 
0.4509964375534051 
-0.34468419377623183 
0.13975360838063333 
-0.36473463775579607 
-0.500100070086682 
0.32048023462374287 
0.3499219191075814 
-0.07144151563164527 
0.36787557076683997 
-0.48071849227936014 
0.05260551330063834 
0.039402726171152605 
-0.10307889080172616 
-0.30588739656102715 
0.4673317209026874 
0.31472168655062416 
0.2149822605811662 
-0.422667982146985 
-0.33890215039512483 
0.16583305733592235 
0.04334618168839969 
0.1908832427431465 
-0.40760946227846684 
-0.4160277224100152 
0.3060917956817182 
0.30991421673241704 
-0.31264252009880644 
-0.344371796827473 
-0.4259825480339261 
0.05187609742517032 
0.3728815853489561 
0.4758408359913894 
-0.06280795392219572 
-0.3116579283309089 
-0.2582602960948718 
-0.005154070740018748 
0.48084888399257375 
-0.24530242513272876 
-0.4582700110325666 
0.4718853483460509 
0.3225198257334817 
0.2917965001479824 
-0.3187086031274525 
-0.028932429058471803 
0.3638409300838962 
-0.40455268905693587 
0.3632875143575942 
0.21084521120591465 
0.08299372115476297 
-0.4939598961240349 
0.09124419604253084 
-0.41653539838724474 
-0.47680168695286673 
-0.01709827513133842 
0.16885801277701362 
0.29364151014426754 
-0.17120908779316357 
-0.2556835419137612 
-0.4720134772520489 
0.14111440082083493 
-0.011048101052394245 
0.2992373665150606 
-0.21098007156458293 
-0.390417567982693 
-0.4573916491396487 
-0.016958065019787482 
-0.03511986391363503 
-0.25022835973343843 
0.4200836688443187 
0.034249854416311565 
-0.23423557093488678 
-0.34575448280146437 
-0.37067946560560217 
0.3434046643172999 
0.15933317898429206 
0.014476090256498918 
-0.1998787566819823 
-0.0322135364071358 
0.38237971773278434 
-0.3401407688314988 
0.14559762061797593 
0.07361511908725993 
-0.3165163705569195 
-0.4605947968562364 
0.33539064596357016 
-0.09069635097888404 
-0.411201974813714 
-0.4497896008787263 
0.013464115084570589 
0.4230429114844223 
-0.1393686250118254 
-0.20498459200644442 
0.0339757267131497 
-0.13571057351789334 
0.33653870595743596 
0.2759207732132787 
0.11096179742592582 
-0.012828040935661148 
-0.3063389095072131 
0.22761812359539402 
0.23202120900990064 
0.1549834286749044 
-0.18727289587279805 
-0.24620918190772864 
-0.45404474098297143 
0.45748182385433145 
-0.017865936723874154 
0.204106720969909 
0.06476057743298311 
-0.49330432244388955 
-0.49186260104711 
0.40610341575124964 
-0.07579796244320458 
-0.3037047895151652 
-0.3489888673861612 
-0.33384377740348137 
-0.0652700182488069 
0.40830972345687133 
0.16332868961181468 
0.0013211100403264875 
0.44904936172264154 
0.38201690749716477 
-0.1177658192065262 
0.262462434134241 
0.21608087353834626 
-0.30088551370871375 
0.46120066022595296 
0.3678322077238495 
0.20323325153782346 
0.3952860873318721 
-0.16071796866066707 
-0.11514451577661433 
-0.29652527429018183 
-0.18330012829096698 
0.295496756054771 
0.2992759278309922 
0.4238266147253029 
-0.19689812373896465 
-0.417630977686402 
-0.19181823594263725 
-0.2543271161793393 
0.13058086295049176 
0.41126134629238065 
-0.04821695338189419 
-0.12057049780649134 
-0.38319416888307756 
0.10731148525011341 
-0.36937456804863333 
0.03350841939673074 
0.05980792517508175 
0.0040332266456776745 
0.26780628998590095 
-0.440067519967944 
0.060252623226286064 
0.4061162738031049 
0.2221628309447663 
0.19065913482606395 
-0.028300852865583433 
-0.1723929673218657 
0.37983398494116793 
-0.39174288931512957 
0.07981942160593303 
-0.16707664376320397 
-0.025226344103288022 
-0.12374328876374921 
0.19028713203935482 
0.0343000415291374 
-0.084227010060105 
-0.1745203242351317 
0.3652977529173178 
0.030184039232895657 
-0.014490642637556984 
-0.09134635310096081 
-0.2501922622820151 
-0.401170875103644 
0.38932386057731583 
0.4126646693260614 
-0.022322929113137435 
-0.2545946071083206 
-0.4300660027654457 
-0.3217208637163632 
-0.4970090420379235 
0.35220415976591524 
-0.21085515287194267 
0.07913606961546354 
-0.23615111529112615 
0.2049658300558433 
-0.28784936829933294 
0.49369153582125946 
0.4255522186259274 
-0.043845501195733994 
-0.2318616302516987 
-0.3259895716159986 
-0.4944670850650048 
0.38727692253893653 
-0.39969035589913693 
0.08421341125538023 
0.4631254195416983 
-0.06325932224416445 
-0.2045046252824595 
-0.5308185371947898 
-0.3274845680186832 
0.0676406393834984 
-0.37091576513677793 
-0.5058332737054827 
0.24281321065106784 
0.36676321777631016 
-0.07726431592380725 
0.3598132410707149 
-0.4638772085117925 
0.06478857471587005 
-0.03844346134593822 
-0.10854334910390706 
-0.2890460978922984 
-0.24027480513176097 
0.24019002460511343 
0.2322714681109198 
-0.4326114992570921 
-0.3248378866647502 
0.16001025704376037 
0.03967335883031823 
0.11590367193661516 
-0.41370100788724373 
-0.4016051315908207 
0.322664349033832 
0.30444974352907495 
-0.2955324761134628 
-0.3295012971472535 
-0.4321636605137468 
0.046142893806374506 
0.36723794860120396 
0.4899050997217641 
-0.06854115754099155 
-0.2949062263355463 
-0.24115026701069242 
0.011597646156505124 
0.47511568037377794 
-0.2285506933350438 
-0.4643615417401824 
0.48863705034141347 
0.3392715277288444 
0.28561538766816175 
-0.3018673044587238 
-0.10713692876322009 
0.3576598176040755 
0.19505761402088367 
0.3828162512913109 
0.20762028230769686 
0.07690219044714727 
-0.47461032273472814 
0.08515265043375395 
-0.42253734732265547 
-0.4801161976232895 
-2.569913637708451E-4 
0.16303524228717403 
0.28746038276328567 
-0.24583034641203674 
-0.43099065629593436 
-0.4781049930585034 
0.1582244299050175 
-0.08593807518555935 
0.29341456622289863 
-0.2168028718567449 
-0.37357628421512534 
-0.4634831947484256 
2.4156073776086286E-4 
-0.041480139937865645 
-0.25631989044105463 
0.4139921530378642 
-0.0406401495191764 
-0.24014795299925373 
-0.3513981046480552 
-0.37677099631321787 
0.3373131485108454 
0.08435360817775872 
0.031317374024066424 
-0.205970287389598 
-0.03830508201591269 
0.37655691744062236 
-0.3462322995391145 
0.1653055061949414 
0.06815064588391784 
-0.32251831949233023 
-0.46614885183178345 
0.3525902717211188 
-0.09678788168649974 
-0.4172934906201685 
-0.455881131586342 
0.010239186186352781 
