0.224723
0.134723
0.134723
0.124723
0.194723
-0.135277
0.164723
0.0347226
0.224723
0.184723
-0.195277
-0.115277
0.264723
-0.00527736
-0.0252774
0.264723
-0.0652774
-0.225277
0.0347226
0.194723
0.244723
0.0847226
0.0147226
-0.0952774
0.224723
0.0647226
0.0547226
0.154723
-0.185277
0.144723
0.264723
-0.185277
0.204723
-0.195277
0.0547226
0.0447226
-0.165277
0.174723
0.234723
0.264723
-0.185277
0.0447226
0.244723
0.254723
0.184723
0.254723
-0.185277
-0.185277
-0.0652774
0.0447226
-0.125277
0.124723
-0.135277
0.144723
-0.0852774
0.244723
-0.0352774
0.0347226
-0.175277
-0.225277
-0.0252774
0.184723
-0.0452774
-0.0652774
0.0347226
0.244723
0.134723
0.164723
0.0547226
0.254723
-0.105277
0.114723
0.0647226
0.0147226
-0.125277
-0.185277
0.164723
-0.0352774
-0.0452774
0.174723
0.144723
0.0947226
-0.115277
0.264723
-0.0852774
-0.0252774
0.104723
-0.0752774
-0.0152774
0.0747226
0.194723
0.144723
0.0447226
-0.145277
-0.195277
0.0747226
0.214723
0.164723
-0.0652774
0.104723
-0.0452774
0.0647226
0.154723
-0.0252774
-0.105277
0.254723
0.264723
-0.205277
-0.0852774
-0.175277
0.174723
0.104723
-0.0352774
-0.00527736
-0.125277
-0.155277
0.264723
0.264723
0.00472264
-0.115277
-0.0852774
-0.155277
0.254723
-0.0152774
-0.225277
0.194723
0.0147226
0.0347226
-0.135277
-0.0552774
0.124723
0.244723
-0.145277
-0.165277
0.224723
-0.205277
0.174723
-0.205277
0.194723
0.144723
-0.165277
0.114723
-0.0852774
-0.205277
0.234723
-0.225277
0.144723
0.184723
0.0347226
0.104723
0.264723
-0.0552774
0.0147226
0.174723
0.264723
0.184723
-0.00527736
0.124723
-0.0152774
0.0347226
0.234723
0.114723
-0.00527736
0.0147226
0.194723
0.104723
-0.0252774
-0.195277
-0.125277
0.234723
0.264723
0.254723
0.0747226
0.174723
0.0247226
0.174723
-0.0652774
0.114723
0.214723
0.154723
0.0347226
-0.145277
0.224723
0.0147226
-0.185277
-0.115277
-0.125277
-0.0952774
0.144723
0.194723
-0.195277
0.0647226
0.174723
-0.145277
-0.0552774
0.0647226
0.234723
0.254723
-0.105277
0.0747226
-0.0674895
0.27251
-0.15749
-0.0974895
-0.11749
0.13251
0.20251
-0.0674895
-0.0174895
-0.10749
-0.20749
-0.10749
0.27251
-0.19749
0.25251
-0.0874895
-0.17749
0.28251
0.28251
0.23251
0.00251047
0.27251
-0.0574895
0.16251
0.0125105
0.0425105
-0.14749
0.19251
0.14251
0.0225105
0.11251
-0.16749
0.0425105
0.15251
0.23251
-0.0974895
-0.0374895
-0.0974895
0.15251
-0.0574895
0.0425105
-0.10749
0.10251
-0.0774895
0.0725105
0.0325105
-0.10749
0.0125105
0.26251
0.14251
-0.00748953
-0.0774895
0.0425105
0.22251
0.0525105
0.24251
-0.20749
0.28251
0.11251
0.15251
0.0525105
0.0725105
0.0825105
-0.0474895
0.0125105
0.0325105
0.00251047
0.0225105
-0.17749
-0.0374895
-0.0374895
-0.12749
-0.20749
-0.18749
-0.0874895
0.0125105
0.20251
-0.15749
0.26251
0.26251
0.18251
0.0825105
0.0925105
-0.12749
-0.0774895
0.23251
-0.0374895
0.00251047
0.0525105
0.27251
0.20251
0.18251
0.18251
-0.0774895
0.0325105
-0.20749
0.12251
0.15251
0.0925105
-0.0874895
0.21251
-0.0974895
-0.0674895
-0.0674895
0.27251
-0.20749
0.22251
-0.14749
0.21251
0.14251
0.15251
-0.11749
0.10251
-0.12749
0.00251047
0.0125105
0.0425105
-0.17749
-0.0774895
0.0425105
-0.19749
-0.19749
-0.0574895
-0.0674895
0.0925105
0.0925105
0.18251
0.22251
0.10251
0.15251
0.26251
0.16251
0.21251
-0.0174895
0.0625105
0.26251
0.22251
-0.0274895
-0.00748953
0.18251
-0.0574895
-0.12749
0.22251
0.11251
0.27251
0.27251
0.0325105
0.0225105
0.26251
0.13251
-0.15749
0.17251
0.11251
-0.14749
0.0125105
0.10251
0.24251
-0.0974895
-0.0474895
0.24251
0.10251
0.10251
-0.15749
0.22251
-0.0374895
0.26251
0.00251047
0.21251
0.11251
0.14251
0.11251
0.14251
-0.16749
0.0825105
0.00251047
0.00251047
0.26251
0.23251
0.0225105
0.19251
0.23251
0.00251047
0.0125105
0.16251
0.18251
-0.14749
0.26251
-0.19749
0.22251
0.0225105
-0.18749
0.23251
-0.0974895
0.0825105
0.0125105
-0.0174895
0.11251
-0.17749
-0.0174895
0.23251
0.282178
-0.0278216
-0.127822
-0.107822
-0.147822
0.242178
0.262178
0.322178
-0.0278216
0.322178
0.0421784
0.0521784
0.272178
0.302178
-0.0478216
0.00217841
0.252178
0.182178
0.192178
0.0921784
0.282178
0.122178
0.292178
0.0121784
0.272178
0.0421784
-0.137822
-0.0778216
0.0821784
0.272178
-0.0278216
-0.117822
0.162178
-0.0178216
0.222178
0.0921784
0.0421784
0.302178
0.322178
0.302178
0.202178
0.212178
0.0421784
0.0721784
-0.0578216
0.0521784
-0.0978216
-0.00782159
0.292178
-0.0378216
0.142178
0.292178
0.122178
0.0921784
0.152178
-0.147822
0.142178
0.282178
0.0421784
-0.00782159
0.302178
0.0521784
0.312178
0.312178
0.282178
0.302178
0.0521784
0.182178
0.0921784
-0.147822
-0.157822
0.202178
0.282178
0.00217841
0.192178
-0.0478216
-0.00782159
0.272178
0.312178
0.132178
0.0921784
-0.137822
0.282178
-0.0378216
0.102178
0.0921784
-0.00782159
0.0621784
0.332178
0.0721784
0.202178
0.162178
0.102178
-0.0778216
-0.127822
0.0621784
0.282178
0.192178
0.162178
-0.0478216
0.262178
0.0921784
0.162178
0.182178
0.0521784
0.222178
0.252178
0.0721784
0.0221784
0.242178
0.242178
0.122178
-0.0178216
0.282178
0.132178
0.142178
-0.107822
0.222178
0.0521784
0.152178
-0.0678216
0.0921784
0.302178
-0.0578216
-0.0878216
-0.0978216
0.132178
0.0421784
0.0321784
0.232178
0.242178
-0.0878216
0.0321784
-0.117822
0.102178
0.282178
-0.0478216
-0.0978216
-0.127822
0.0321784
0.0421784
0.212178
0.122178
0.0521784
0.0721784
-0.0178216
-0.117822
0.162178
-0.00782159
0.102178
-0.0578216
0.00217841
0.272178
-0.117822
0.192178
0.0621784
0.0621784
0.162178
-0.0178216
-0.137822
0.0421784
0.142178
0.332178
0.152178
0.0621784
0.0621784
0.212178
-0.0578216
0.0821784
-0.0778216
0.272178
-0.0978216
0.252178
0.132178
-0.0778216
-0.0678216
0.102178
0.332178
0.292178
-0.0978216
0.192178
0.162178
0.00217841
0.312178
0.172178
0.122178
0.0621784
0.332178
0.0321784
0.0721784
0.312178
0.0921784
0.282178
0.0121784
-0.127822
-0.157822
0.272178
0.142178
0.0921784
0.162178
-0.0877546
0.0522454
0.0922454
0.0422454
-0.127755
-0.137755
0.132245
-0.0277546
0.0422454
-0.147755
0.222245
-0.0677546
0.182245
0.232245
-0.167755
0.0522454
-0.0077546
-0.0377546
-0.0477546
0.282245
-0.127755
0.0522454
0.0222454
-0.0277546
-0.0877546
-0.0377546
0.252245
0.192245
0.122245
-0.0977546
-0.0377546
-0.147755
0.172245
0.232245
-0.157755
0.0622454
0.212245
0.0822454
0.162245
0.242245
0.0822454
-0.187755
-0.0977546
0.202245
0.0222454
-0.147755
0.0622454
0.122245
-0.157755
0.282245
0.202245
0.282245
-0.137755
0.0222454
-0.167755
0.252245
0.232245
-0.0177546
-0.137755
0.262245
-0.127755
0.0722454
0.0322454
-0.0677546
-0.107755
0.0622454
0.252245
-0.0077546
-0.0977546
0.112245
0.0622454
0.252245
0.102245
0.0722454
0.102245
0.0822454
0.292245
0.172245
0.0722454
-0.137755
0.172245
0.0622454
-0.117755
0.162245
0.262245
-0.0877546
-0.147755
-0.157755
0.162245
0.0422454
-0.127755
0.0422454
0.232245
-0.0877546
-0.0577546
-0.0877546
-0.0477546
-0.147755
-0.0177546
0.162245
-0.0977546
0.192245
-0.0977546
-0.0277546
0.282245
0.282245
-0.117755
0.282245
0.262245
0.0922454
0.122245
0.192245
0.0622454
0.242245
0.172245
0.0222454
0.0222454
0.172245
-0.0377546
-0.107755
0.0822454
-0.0177546
0.282245
0.172245
0.0722454
-0.107755
-0.117755
-0.0677546
-0.0077546
0.272245
0.192245
-0.0577546
0.272245
0.192245
-0.0077546
-0.0577546
0.112245
0.142245
0.262245
0.0122454
0.242245
0.132245
-0.157755
-0.0377546
0.222245
-0.0177546
-0.0677546
0.0522454
0.0022454
-0.0577546
0.0222454
0.152245
0.212245
-0.177755
0.0122454
-0.127755
-0.117755
0.112245
0.272245
-0.0877546
0.282245
0.252245
0.262245
0.0022454
0.0422454
0.142245
-0.177755
0.0922454
0.142245
0.142245
0.0122454
0.282245
-0.117755
0.0122454
-0.0877546
-0.0677546
0.142245
0.0422454
0.0222454
0.152245
0.0422454
-0.187755
-0.0177546
-0.0677546
0.192245
-0.127755
0.182245
-0.127755
0.0822454
0.192245
-0.127755
-0.0577546
-0.127755
0.0822454
-0.0677546
0.0122454
0.192245
0.222245
0.252245
0.132245
0.0966089
0.0966089
-0.0733911
0.286609
-0.0933911
-0.113391
0.166609
0.0866089
0.0766089
0.216609
0.0466089
-0.163391
-0.103391
0.216609
-0.0633911
-0.0433911
0.256609
-0.0633911
0.226609
0.196609
-0.0933911
0.236609
0.126609
0.0666089
0.0866089
-0.143391
0.286609
-0.0633911
-0.0833911
-0.0433911
-0.0233911
0.286609
-0.0533911
0.146609
-0.183391
0.186609
0.0266089
-0.0533911
0.186609
0.176609
-0.0733911
-0.0733911
0.286609
0.146609
0.126609
0.0866089
0.236609
-0.143391
0.136609
-0.133391
-0.153391
0.116609
0.0366089
-0.183391
0.0466089
0.0566089
0.176609
0.00660894
0.126609
-0.193391
-0.0333911
-0.163391
0.116609
0.0766089
0.136609
-0.0533911
0.196609
-0.153391
-0.143391
0.0366089
-0.0933911
0.00660894
-0.153391
0.126609
0.226609
0.266609
0.256609
-0.00339106
0.0466089
-0.00339106
0.136609
-0.0733911
-0.103391
-0.0733911
-0.103391
-0.00339106
0.146609
-0.0933911
-0.0933911
-0.183391
-0.193391
0.186609
0.286609
-0.143391
-0.0733911
0.0666089
0.176609
0.266609
0.116609
0.0366089
0.0266089
-0.0433911
0.0966089
0.266609
-0.193391
0.186609
0.0366089
-0.143391
0.0366089
0.00660894
0.0766089
-0.193391
0.206609
-0.103391
0.0966089
0.216609
-0.113391
-0.143391
-0.183391
0.206609
0.0666089
0.146609
0.00660894
0.0766089
-0.0233911
-0.183391
-0.0933911
-0.113391
0.246609
0.0666089
0.146609
-0.0733911
0.206609
0.0166089
-0.0633911
-0.0733911
0.156609
-0.133391
-0.0533911
0.0566089
0.0466089
0.0166089
0.266609
0.136609
0.0366089
0.0566089
-0.113391
0.266609
0.196609
-0.0333911
-0.0133911
-0.203391
-0.0233911
0.256609
0.116609
0.236609
0.246609
-0.133391
0.206609
0.276609
-0.0633911
-0.0533911
0.0766089
0.126609
0.216609
0.186609
-0.0933911
0.0166089
0.276609
0.216609
0.186609
-0.103391
0.286609
-0.0933911
-0.143391
0.0766089
0.126609
0.186609
0.0566089
-0.193391
0.0966089
-0.153391
0.286609
0.0466089
0.186609
0.00660894
0.236609
0.116609
0.0666089
0.286609
0.246609
0.00660894
0.146609
0.146609
0.196609
0.286609
-0.153391
-0.0733911
0.256609
-0.0433911
0.356741
-0.123259
0.106741
0.0367407
-0.0132593
0.116741
0.266741
0.356741
0.176741
-0.0732593
0.326741
0.00674067
-0.0932593
0.116741
-0.0932593
0.186741
-0.0432593
0.0567407
0.226741
0.0467407
0.146741
-0.0532593
-0.0432593
0.336741
-0.0532593
0.346741
0.116741
0.226741
0.186741
0.256741
0.146741
-0.00325933
0.306741
0.216741
0.0167407
0.166741
0.0367407
0.196741
0.336741
0.0667407
-0.0832593
0.216741
0.0767407
0.236741
0.176741
-0.0432593
0.0567407
0.0867407
-0.0732593
0.246741
0.236741
0.126741
0.166741
-0.0532593
0.0167407
0.246741
0.296741
-0.0532593
0.346741
0.256741
-0.0832593
-0.0632593
0.186741
-0.123259
0.0467407
-0.00325933
0.176741
-0.0632593
-0.103259
0.206741
0.156741
0.0567407
-0.0832593
0.0167407
-0.0832593
0.186741
0.276741
0.166741
0.206741
-0.0432593
-0.0732593
0.0167407
-0.103259
0.136741
-0.0832593
-0.0232593
0.246741
-0.0532593
0.346741
-0.0532593
-0.103259
0.176741
0.246741
0.166741
0.0967407
0.0267407
-0.103259
0.246741
-0.0532593
0.316741
0.0167407
0.366741
-0.00325933
0.0567407
-0.0132593
-0.113259
0.116741
0.326741
0.106741
-0.123259
0.0867407
0.126741
0.136741
0.236741
-0.103259
0.346741
-0.0332593
0.0967407
0.0167407
-0.113259
0.0867407
-0.123259
0.176741
-0.0732593
0.206741
0.0167407
-0.103259
0.146741
0.0967407
0.306741
0.216741
0.216741
0.326741
0.296741
0.276741
0.186741
0.346741
-0.103259
0.116741
-0.0732593
0.216741
0.0967407
-0.0332593
0.0267407
0.0167407
0.206741
0.336741
0.116741
-0.113259
0.0667407
0.0267407
0.176741
0.176741
0.0967407
0.166741
0.216741
-0.0232593
0.0467407
0.296741
0.366741
0.176741
0.166741
0.266741
0.0867407
0.186741
-0.00325933
0.296741
-0.0432593
0.0267407
0.0467407
-0.103259
-0.0532593
0.236741
0.126741
-0.0132593
0.0167407
0.00674067
0.266741
0.296741
-0.00325933
0.0267407
0.0867407
-0.00325933
-0.0732593
0.326741
0.326741
0.346741
0.296741
0.336741
0.156741
0.0167407
0.0567407
-0.0632593
0.146741
0.0567407
0.136741
-0.0732593
0.266741
0.366741
-0.0232593
0.27856
0.0385599
0.12856
0.0985599
-0.0714401
0.27856
0.14856
0.10856
-0.0614401
-0.12144
-0.0614401
0.31856
0.16856
-0.10144
0.31856
0.21856
0.0485599
0.22856
0.0685599
0.16856
0.0185599
0.19856
-0.00144005
0.30856
-0.0414401
0.0485599
-0.12144
0.10856
-0.0614401
-0.0914401
-0.13144
0.0385599
0.25856
0.0485599
0.0285599
-0.13144
0.16856
-0.13144
0.34856
0.18856
0.19856
-0.12144
0.11856
0.14856
0.22856
-0.11144
0.0185599
0.28856
0.18856
0.33856
0.25856
0.10856
-0.11144
0.26856
-0.11144
0.00855995
0.32856
0.18856
-0.0314401
-0.11144
0.13856
0.0485599
0.0385599
-0.0514401
0.24856
0.27856
0.33856
-0.0514401
-0.0314401
0.31856
0.29856
-0.0714401
-0.00144005
0.0485599
-0.14144
0.29856
0.20856
0.23856
-0.0914401
0.0985599
0.12856
0.31856
0.32856
-0.0914401
0.23856
-0.13144
0.17856
0.0585599
0.17856
0.00855995
-0.14144
-0.12144
-0.00144005
0.28856
0.10856
0.15856
0.29856
0.18856
-0.0114401
0.0885599
0.0785599
0.0885599
0.0885599
-0.0214401
-0.12144
0.32856
0.23856
0.27856
-0.0814401
0.11856
-0.0214401
0.11856
0.24856
0.30856
0.0385599
-0.0314401
0.13856
0.33856
0.0785599
-0.0514401
-0.0714401
0.29856
0.30856
0.25856
0.30856
-0.10144
-0.12144
-0.12144
0.25856
0.0985599
0.29856
0.15856
0.0485599
0.0785599
-0.14144
0.32856
-0.14144
0.15856
0.17856
-0.10144
0.10856
0.24856
0.29856
0.13856
0.0185599
-0.0514401
-0.11144
-0.0814401
-0.0514401
0.0285599
-0.0314401
0.0885599
0.29856
0.12856
0.25856
0.21856
-0.0714401
0.11856
0.16856
-0.0714401
0.0485599
0.15856
0.22856
-0.11144
0.0485599
0.0785599
-0.0514401
0.28856
-0.13144
0.29856
0.15856
0.15856
0.28856
0.0785599
-0.0414401
-0.0314401
0.0485599
0.0685599
0.0785599
0.27856
0.12856
-0.0614401
0.0885599
0.26856
0.13856
-0.0414401
0.0385599
-0.0714401
0.21856
0.21856
-0.0114401
-0.0214401
0.14856
0.16856
0.34856
0.26856
0.17856
-0.0314401
-0.14144
0.00855995
0.298388
0.338388
0.348388
0.148388
-0.0616118
0.308388
-0.111612
0.198388
0.0383882
-0.0716118
0.128388
0.188388
-0.0316118
0.228388
-0.0616118
-0.121612
0.0383882
0.178388
0.148388
-0.0716118
0.288388
-0.0816118
-0.111612
-0.0216118
-0.0416118
-0.111612
0.0383882
0.0483882
-0.141612
0.318388
0.138388
0.0983882
0.128388
0.0183882
-0.0816118
0.0383882
0.318388
0.228388
0.0983882
0.128388
0.138388
0.138388
-0.0416118
0.298388
0.298388
0.188388
0.138388
0.188388
0.0883882
0.188388
0.298388
0.158388
0.188388
0.108388
0.288388
-0.0616118
-0.101612
0.108388
-0.101612
0.348388
0.0783882
-0.141612
0.248388
0.0183882
0.188388
-0.101612
0.278388
0.218388
-0.0216118
0.298388
0.0683882
0.298388
-0.0416118
0.168388
0.348388
0.0583882
-0.0416118
-0.0416118
0.228388
-0.0716118
-0.0616118
-0.111612
-0.0916118
-0.0116118
-0.0516118
-0.0116118
0.128388
0.288388
-0.0616118
-0.0716118
-0.121612
-0.121612
0.308388
0.128388
0.0883882
0.338388
0.00838824
-0.141612
0.00838824
0.198388
0.228388
-0.0116118
0.198388
0.158388
0.0583882
0.238388
0.0983882
0.288388
0.0383882
0.338388
-0.0916118
0.308388
0.0483882
0.318388
0.0783882
0.338388
0.348388
-0.0516118
0.0483882
0.158388
-0.131612
-0.0716118
0.128388
-0.0716118
0.268388
0.328388
0.188388
-0.131612
0.108388
-0.0416118
0.0783882
-0.0116118
0.178388
0.238388
0.0483882
0.0883882
0.0883882
0.288388
-0.111612
0.208388
-0.0716118
0.248388
0.0983882
0.218388
0.318388
0.0183882
-0.0616118
0.218388
0.308388
0.168388
-0.111612
0.318388
-0.111612
0.0283882
0.188388
0.328388
0.00838824
0.138388
-0.141612
-0.0216118
-0.0416118
0.218388
0.308388
-0.101612
0.00838824
0.338388
0.228388
0.178388
0.0183882
0.0483882
0.0883882
0.148388
0.268388
-0.0116118
0.258388
0.0383882
0.278388
0.0283882
0.00838824
0.0283882
0.188388
0.178388
0.178388
0.198388
0.0383882
0.278388
0.0983882
0.0283882
-0.0216118
0.0783882
0.178388
0.278388
0.128388
0.158388
0.198388
-0.0316118
0.258388
0.0283882
0.208388
0.118388
0.145243
-0.0147573
0.165243
0.225243
-0.0547573
0.0452427
-0.0747573
0.175243
-0.0247573
-0.224757
-0.0947573
-0.154757
0.0252427
0.0552427
-0.0947573
-0.214757
-0.164757
-0.00475726
0.0352427
0.115243
-0.164757
0.0752427
0.125243
0.0452427
0.0552427
0.0452427
0.235243
0.0252427
0.105243
-0.0247573
0.255243
0.0352427
-0.174757
-0.154757
0.0752427
0.215243
-0.184757
-0.184757
-0.0147573
-0.154757
-0.0147573
-0.0947573
0.175243
0.0552427
0.245243
-0.214757
-0.144757
0.0252427
0.195243
-0.104757
-0.0847573
0.145243
0.135243
0.105243
-0.194757
0.185243
0.0552427
0.0452427
-0.174757
0.255243
0.0952427
0.255243
-0.134757
-0.0547573
0.0852427
0.0552427
0.0152427
0.265243
-0.00475726
-0.00475726
0.0152427
0.115243
0.265243
0.0252427
0.00524274
0.195243
-0.0347573
-0.0547573
0.225243
0.185243
0.195243
0.235243
0.0152427
0.195243
-0.104757
0.0852427
-0.224757
-0.194757
-0.214757
0.0752427
0.165243
0.165243
-0.154757
0.195243
0.225243
-0.184757
-0.154757
-0.00475726
-0.0147573
-0.0747573
0.255243
-0.0447573
0.265243
0.155243
0.115243
-0.0347573
0.185243
0.135243
-0.174757
-0.144757
-0.154757
0.0352427
-0.0247573
0.0652427
-0.0247573
-0.204757
0.265243
-0.0347573
-0.144757
0.125243
-0.0247573
0.0952427
-0.104757
-0.104757
0.135243
0.145243
-0.0947573
-0.0647573
-0.214757
0.00524274
0.0152427
-0.0947573
0.165243
0.235243
-0.154757
-0.224757
-0.204757
0.165243
-0.104757
-0.0347573
0.105243
-0.214757
-0.0847573
0.225243
-0.194757
0.0752427
-0.134757
-0.224757
0.255243
0.225243
-0.0547573
-0.204757
0.0552427
0.245243
0.185243
0.185243
0.185243
0.185243
-0.144757
0.205243
0.215243
0.105243
0.165243
0.105243
-0.0947573
-0.104757
0.235243
0.125243
-0.154757
-0.214757
0.135243
0.0852427
-0.154757
0.0252427
-0.164757
0.00524274
-0.164757
0.245243
0.0652427
-0.0347573
-0.154757
-0.0347573
-0.0747573
0.205243
-0.154757
0.165243
0.0852427
0.135243
0.0352427
0.165243
-0.0747573
0.195243
-0.134757
-0.0447573
0.175243
0.0152427
0.115243
-0.0647573
0.0752427
-0.174757
-0.027765
0.132235
0.032235
0.232235
-0.107765
-0.077765
-0.117765
-0.087765
0.112235
-0.037765
-0.107765
-0.137765
0.212235
-0.147765
-0.037765
0.032235
-0.097765
0.00223497
-0.137765
0.042235
-0.157765
-0.027765
-0.157765
-0.157765
0.192235
0.082235
0.042235
-0.117765
-0.087765
0.282235
0.282235
0.212235
0.022235
0.092235
0.202235
0.012235
-0.047765
0.132235
0.282235
-0.097765
0.302235
-0.057765
-0.097765
0.222235
0.292235
0.212235
0.062235
0.192235
-0.047765
-0.057765
0.042235
0.072235
0.102235
-0.127765
0.072235
0.102235
0.212235
0.062235
0.182235
0.102235
0.212235
0.162235
0.00223497
0.112235
-0.097765
0.122235
0.182235
-0.147765
0.122235
0.122235
0.202235
0.142235
-0.017765
-0.127765
0.152235
0.162235
0.132235
-0.137765
0.272235
0.022235
-0.147765
0.132235
-0.027765
0.112235
0.072235
0.072235
0.052235
0.212235
-0.107765
0.042235
0.142235
0.082235
-0.097765
-0.037765
-0.137765
0.052235
-0.047765
0.142235
0.272235
-0.097765
-0.107765
0.292235
-0.147765
0.00223497
-0.027765
-0.117765
0.162235
0.012235
0.192235
-0.157765
0.132235
0.022235
0.292235
-0.177765
0.122235
0.112235
0.032235
-0.107765
-0.057765
0.242235
0.132235
-0.167765
-0.027765
0.092235
0.212235
0.012235
0.00223497
0.222235
0.142235
0.072235
-0.00776503
0.032235
0.042235
0.242235
0.262235
-0.087765
0.192235
-0.087765
-0.017765
0.182235
-0.127765
0.242235
-0.147765
-0.057765
-0.037765
0.232235
-0.107765
0.212235
0.262235
0.312235
-0.157765
-0.177765
-0.077765
-0.117765
0.082235
0.162235
0.172235
0.272235
-0.107765
0.272235
0.00223497
-0.037765
0.042235
0.022235
0.00223497
0.152235
0.192235
-0.097765
0.042235
0.092235
0.042235
-0.047765
0.162235
-0.047765
-0.157765
0.082235
-0.037765
0.122235
0.142235
0.00223497
0.112235
-0.027765
0.302235
0.012235
-0.147765
-0.067765
0.082235
0.042235
-0.027765
0.042235
0.222235
-0.117765
0.062235
0.072235
-0.167765
0.242235
0.242235
-0.057765
0.242235
-0.117765
-0.161851
-0.151851
-0.011851
-0.121851
0.028149
0.178149
-0.081851
-0.121851
-0.121851
-0.141851
0.168149
0.118149
0.098149
-0.00185101
-0.151851
0.088149
0.148149
0.128149
-0.061851
0.068149
0.158149
0.288149
-0.121851
0.298149
0.268149
0.108149
-0.011851
0.278149
-0.071851
0.308149
-0.101851
0.00814899
0.198149
-0.091851
0.128149
0.078149
-0.121851
-0.051851
0.208149
0.278149
0.198149
-0.171851
-0.131851
0.268149
-0.021851
0.158149
0.038149
0.078149
0.148149
0.158149
0.168149
-0.031851
-0.021851
-0.061851
0.288149
0.198149
-0.151851
0.238149
0.298149
0.138149
0.278149
0.238149
-0.171851
-0.161851
0.168149
-0.121851
0.138149
0.048149
-0.111851
0.108149
0.238149
0.318149
0.068149
0.038149
-0.051851
0.078149
0.278149
-0.091851
0.178149
0.268149
0.128149
0.128149
0.298149
0.038149
-0.081851
0.098149
-0.121851
-0.151851
-0.00185101
-0.141851
-0.081851
-0.101851
0.138149
0.288149
0.228149
0.188149
0.268149
0.148149
0.258149
0.078149
0.198149
0.198149
-0.141851
-0.051851
0.068149
0.208149
0.068149
-0.081851
-0.161851
-0.171851
0.048149
0.148149
0.308149
-0.071851
0.068149
-0.171851
-0.101851
0.208149
0.118149
0.038149
-0.131851
0.308149
0.058149
0.208149
-0.00185101
-0.051851
0.00814899
0.248149
0.118149
0.258149
0.228149
0.318149
0.238149
0.208149
0.188149
-0.131851
-0.131851
-0.151851
0.278149
-0.111851
0.298149
-0.161851
0.158149
0.128149
0.208149
0.278149
0.248149
-0.031851
-0.161851
-0.161851
-0.121851
-0.171851
-0.151851
-0.071851
0.138149
-0.061851
0.108149
-0.121851
0.268149
-0.00185101
0.268149
0.098149
-0.00185101
0.178149
0.018149
0.108149
0.288149
0.308149
-0.041851
-0.061851
-0.161851
-0.00185101
-0.161851
0.158149
0.208149
-0.141851
-0.021851
0.028149
-0.041851
-0.011851
-0.091851
0.218149
-0.131851
0.198149
-0.041851
-0.111851
-0.101851
0.078149
-0.171851
-0.101851
0.308149
0.268149
0.258149
0.058149
0.038149
-0.021851
0.198149
-0.081851
-0.151851
0.128149
-0.0994607
0.110539
0.160539
-0.0494607
-0.0294607
-0.139461
-0.109461
0.240539
0.130539
0.0305393
-0.169461
0.110539
0.0105393
0.0605393
-0.0694607
0.140539
-0.149461
0.120539
-0.0494607
0.280539
-0.0394607
0.290539
-0.0894607
0.140539
0.000539341
-0.0694607
0.000539341
0.240539
-0.159461
0.220539
0.140539
-0.149461
-0.0694607
0.0805393
0.280539
0.150539
-0.129461
-0.139461
0.0305393
0.0705393
0.0805393
-0.129461
0.290539
0.0805393
0.290539
0.290539
-0.0694607
0.150539
-0.179461
-0.139461
0.170539
0.0405393
-0.0294607
-0.0994607
0.0305393
-0.159461
-0.0194607
-0.189461
-0.159461
-0.0294607
0.210539
0.210539
-0.0694607
0.190539
0.180539
0.120539
0.000539341
0.100539
-0.109461
0.0105393
0.230539
0.0605393
0.280539
0.0205393
0.0305393
0.100539
-0.119461
-0.0794607
-0.0494607
0.230539
-0.139461
0.000539341
-0.129461
0.0205393
0.0305393
-0.179461
0.160539
-0.109461
0.0205393
-0.00946066
0.0705393
0.170539
0.250539
-0.0194607
0.270539
0.170539
0.260539
-0.149461
-0.149461
-0.0494607
-0.0894607
0.000539341
0.140539
-0.169461
-0.0194607
-0.199461
-0.189461
0.160539
0.260539
0.150539
-0.0194607
0.110539
0.150539
-0.139461
0.130539
-0.179461
0.170539
-0.159461
-0.0894607
-0.199461
0.100539
0.150539
-0.189461
0.130539
0.260539
-0.0494607
-0.0994607
0.0805393
0.0205393
-0.109461
-0.0694607
-0.109461
0.200539
-0.129461
0.110539
0.210539
0.200539
0.220539
0.0605393
0.160539
0.160539
0.160539
0.230539
-0.0194607
-0.0394607
0.0505393
0.0305393
0.230539
-0.0494607
0.200539
-0.0994607
0.100539
0.150539
0.0805393
0.0305393
0.000539341
-0.0794607
0.0605393
-0.0294607
0.270539
-0.00946066
0.180539
0.160539
0.230539
-0.129461
0.280539
0.210539
0.120539
0.0905393
-0.0994607
-0.0394607
0.0505393
0.290539
-0.0194607
0.100539
-0.119461
0.160539
0.140539
0.0105393
-0.159461
-0.0194607
-0.159461
-0.0494607
0.110539
0.190539
0.110539
0.0405393
0.0505393
0.100539
-0.0894607
0.140539
0.190539
0.0705393
-0.199461
0.000539341
-0.0294607
0.250539
0.230539
0.0305393
-0.0994607
0.284921
0.0149213
0.204921
0.0649213
-0.0350787
0.254921
0.0349213
0.164921
0.284921
0.114921
0.254921
0.304921
-0.105079
0.0249213
0.0949213
0.0249213
0.254921
0.0449213
0.104921
0.304921
0.0949213
0.254921
0.104921
-0.115079
0.204921
0.0449213
0.144921
0.224921
0.204921
-0.0950787
-0.155079
-0.0050787
0.264921
0.304921
0.124921
0.0849213
-0.105079
0.284921
0.0949213
0.314921
-0.115079
0.314921
0.224921
-0.0350787
0.304921
0.104921
0.154921
-0.0750787
0.184921
0.124921
0.194921
0.0849213
0.244921
0.264921
0.0749213
-0.145079
0.0049213
0.104921
0.244921
0.104921
-0.0950787
-0.105079
-0.0650787
0.124921
0.0349213
0.234921
-0.0150787
0.0049213
0.144921
0.0649213
-0.175079
0.304921
0.214921
-0.155079
-0.0250787
0.284921
0.104921
-0.0150787
0.254921
0.164921
-0.0750787
0.314921
0.294921
-0.105079
-0.105079
0.204921
-0.0450787
0.304921
-0.0550787
-0.115079
0.204921
0.0549213
0.284921
0.204921
-0.155079
0.214921
0.0549213
0.0549213
0.234921
0.234921
-0.125079
0.234921
0.0449213
0.0049213
-0.0450787
0.244921
0.284921
0.114921
0.314921
0.0649213
-0.165079
0.174921
0.124921
0.0549213
0.174921
0.104921
0.0449213
-0.0650787
0.214921
-0.0250787
0.244921
-0.0550787
0.294921
0.194921
-0.0250787
0.294921
0.114921
-0.105079
0.204921
0.234921
-0.145079
-0.0550787
0.144921
0.224921
-0.0150787
0.174921
0.234921
-0.0850787
0.214921
0.234921
0.244921
-0.135079
0.214921
0.264921
0.0749213
0.244921
0.164921
0.174921
-0.0850787
-0.175079
0.0149213
-0.0450787
0.104921
-0.155079
0.124921
0.264921
0.264921
-0.0650787
-0.0150787
-0.135079
-0.0350787
-0.175079
-0.0050787
0.0249213
-0.125079
-0.155079
0.244921
0.144921
0.104921
-0.105079
0.254921
0.134921
0.284921
0.254921
-0.125079
-0.155079
0.294921
0.144921
-0.0450787
0.114921
0.0249213
0.0849213
-0.145079
-0.165079
0.304921
0.244921
-0.125079
0.0349213
-0.165079
-0.115079
0.204921
0.0349213
0.294921
0.234921
-0.125079
-0.0450787
-0.115079
0.184921
-0.0950787
-0.165079
0.0917657
0.171766
-0.0882343
-0.118234
0.111766
0.221766
0.0117657
0.191766
-0.178234
-0.0382343
0.0817657
0.181766
0.161766
0.191766
0.101766
0.181766
-0.0782343
-0.128234
0.171766
0.201766
-0.148234
-0.0982343
0.271766
-0.0982343
0.0917657
-0.148234
-0.118234
-0.0682343
0.241766
0.301766
0.121766
0.201766
0.171766
-0.178234
0.0517657
-0.188234
0.231766
-0.00823434
-0.0982343
0.221766
-0.0682343
0.131766
-0.178234
-0.0982343
0.261766
0.181766
-0.148234
-0.118234
0.00176566
-0.118234
-0.0282343
0.221766
0.141766
0.121766
0.0217657
-0.0782343
-0.108234
0.251766
-0.0282343
0.121766
0.231766
-0.158234
-0.0882343
-0.148234
-0.0882343
-0.00823434
0.0717657
-0.0182343
0.0317657
0.0117657
0.111766
0.201766
0.0317657
0.161766
0.271766
-0.00823434
0.0217657
0.201766
-0.118234
0.191766
-0.168234
0.121766
0.141766
-0.0782343
0.211766
0.0517657
0.131766
-0.108234
0.291766
0.121766
0.0917657
0.0117657
-0.178234
-0.178234
-0.0182343
-0.118234
0.201766
0.151766
-0.0882343
0.0117657
0.251766
0.121766
-0.0382343
0.161766
-0.188234
0.101766
0.0817657
-0.0682343
-0.0882343
-0.0982343
-0.00823434
0.261766
-0.168234
0.0917657
-0.178234
0.0517657
0.261766
0.131766
0.191766
-0.138234
0.0317657
0.161766
0.241766
-0.128234
-0.0282343
0.161766
0.0717657
0.00176566
-0.00823434
0.171766
0.191766
-0.0682343
-0.188234
0.281766
0.101766
0.0117657
0.0517657
0.141766
0.101766
-0.0482343
-0.128234
-0.0782343
-0.138234
-0.148234
-0.128234
0.0717657
-0.0282343
0.261766
0.251766
0.0717657
-0.0482343
-0.0182343
-0.0182343
0.211766
0.271766
0.0517657
-0.0782343
-0.0982343
-0.0582343
-0.00823434
0.0417657
-0.188234
-0.118234
-0.158234
0.0317657
-0.0282343
0.231766
0.261766
-0.158234
-0.0582343
-0.148234
-0.168234
0.0917657
0.201766
0.00176566
0.251766
0.101766
-0.118234
0.0817657
0.281766
0.221766
-0.118234
-0.138234
0.111766
-0.0782343
-0.0282343
0.101766
0.131766
-0.158234
0.241766
-0.0982343
0.0217657
0.241766
0.231766
-0.118234
0.271766
0.261766
0.121766
0.0717657
-0.0182343
-0.0609852
-0.0509852
0.179015
0.189015
0.119015
-0.0509852
-0.100985
-0.0809852
0.00901476
0.229015
0.129015
0.309015
-0.0409852
0.369015
0.159015
0.109015
0.0490148
-0.0109852
0.179015
-0.0109852
-0.0509852
0.289015
0.0190148
0.239015
-0.0309852
0.259015
-0.0709852
0.369015
-0.100985
-0.0609852
0.279015
0.229015
0.349015
-0.0209852
-0.000985238
0.299015
0.129015
0.289015
0.179015
0.349015
0.369015
-0.100985
0.0190148
-0.0709852
0.259015
0.229015
-0.110985
0.329015
0.199015
0.289015
0.179015
0.369015
0.149015
0.249015
-0.000985238
0.179015
0.349015
0.239015
0.0290148
-0.0109852
0.0790148
0.179015
0.179015
-0.0809852
0.229015
0.269015
-0.100985
0.259015
0.0390148
-0.110985
0.0390148
-0.0209852
0.359015
0.0990148
-0.0609852
-0.0209852
0.139015
0.209015
0.179015
0.289015
0.299015
-0.0809852
0.149015
0.149015
-0.0909852
0.369015
0.159015
0.149015
0.0190148
0.149015
-0.0109852
0.269015
0.249015
0.0290148
-0.000985238
-0.0809852
-0.0609852
0.119015
0.179015
0.319015
0.0290148
0.329015
0.299015
0.0690148
0.299015
-0.110985
0.00901476
0.119015
0.269015
0.149015
0.279015
0.139015
0.0790148
-0.000985238
0.0990148
0.0490148
0.349015
0.309015
0.259015
-0.0409852
-0.0309852
0.0890148
0.159015
0.179015
0.259015
0.0590148
0.229015
-0.0809852
0.329015
0.339015
0.209015
0.139015
0.209015
0.0390148
0.159015
-0.0609852
-0.120985
-0.120985
0.239015
-0.0209852
0.289015
0.189015
0.309015
-0.0509852
-0.0609852
0.0190148
-0.0709852
-0.0209852
0.219015
-0.100985
0.0690148
0.299015
-0.0409852
0.119015
0.0190148
0.0890148
0.209015
0.00901476
0.259015
0.0290148
0.309015
0.0290148
0.0690148
-0.0709852
0.299015
-0.100985
0.329015
0.219015
0.279015
0.289015
-0.0209852
0.199015
0.299015
-0.0109852
0.229015
0.209015
0.189015
0.219015
0.359015
0.149015
0.0590148
-0.0809852
-0.0509852
0.139015
-0.0909852
0.339015
0.129015
-0.0409852
0.339015
-0.0709852
0.349015
-0.0809852
-0.0809852
0.289015
0.329015
0.329015
-0.0109852
0.119015
0.239015
0.0290148
0.0427288
-0.207271
0.212729
0.282729
0.242729
-0.0772712
-0.177271
0.0327288
0.0127288
-0.0272712
0.0927288
-0.127271
0.102729
0.112729
-0.207271
0.242729
0.0627288
0.182729
-0.187271
-0.107271
-0.0772712
0.272729
0.192729
0.0927288
0.242729
-0.00727116
0.222729
0.142729
0.142729
-0.157271
-0.0672712
0.192729
0.0727288
0.242729
0.182729
-0.147271
-0.197271
0.282729
-0.0372712
0.0427288
-0.197271
0.192729
0.262729
0.172729
0.132729
0.282729
0.162729
0.0527288
-0.117271
0.242729
-0.147271
0.142729
0.0827288
0.262729
0.0827288
0.0527288
0.0827288
-0.127271
0.202729
0.162729
0.172729
0.102729
-0.127271
0.172729
0.102729
0.132729
-0.207271
0.0727288
-0.197271
0.132729
0.132729
0.0127288
-0.177271
0.0727288
0.142729
0.162729
0.252729
-0.0772712
-0.0872712
-0.00727116
0.0327288
0.272729
0.132729
-0.187271
-0.207271
0.152729
-0.207271
0.102729
0.0427288
0.262729
0.252729
-0.207271
0.0227288
0.0127288
-0.157271
0.272729
0.122729
-0.0372712
-0.147271
-0.127271
0.122729
0.0327288
-0.0472712
0.0727288
-0.157271
-0.177271
0.0827288
0.192729
0.122729
-0.187271
0.132729
-0.0372712
0.182729
-0.0272712
-0.197271
0.142729
0.252729
-0.187271
0.0127288
-0.127271
-0.0172712
-0.0972712
-0.107271
-0.177271
-0.0172712
-0.0972712
0.0527288
0.262729
0.0427288
0.272729
-0.147271
-0.0472712
0.282729
-0.0872712
0.202729
0.202729
0.0827288
-0.167271
-0.00727116
0.122729
-0.127271
0.222729
0.142729
0.112729
0.132729
0.0427288
0.252729
0.102729
0.272729
0.0627288
0.152729
0.0927288
-0.157271
0.182729
0.0427288
-0.0872712
0.132729
-0.0572712
0.0527288
0.152729
-0.137271
0.0727288
0.202729
-0.0772712
0.202729
0.222729
-0.107271
-0.177271
0.0727288
-0.157271
-0.187271
-0.0972712
0.202729
0.0427288
0.282729
0.0127288
0.122729
-0.0272712
-0.127271
0.102729
0.102729
-0.0772712
0.132729
-0.117271
-0.127271
-0.0372712
0.152729
0.132729
0.0227288
0.132729
0.152729
-0.127271
0.0627288
0.202729
-0.197271
0.102729
0.282729
0.00272884
-0.0972712
0.232729
0.223507
-0.146493
0.133507
0.033507
0.113507
0.00350704
0.233507
-0.096493
-0.146493
0.233507
0.063507
-0.116493
-0.106493
0.143507
0.083507
0.043507
-0.106493
-0.076493
-0.146493
-0.086493
0.073507
0.253507
0.103507
0.253507
0.223507
0.113507
0.243507
-0.236493
-0.146493
0.143507
-0.076493
0.013507
0.023507
-0.036493
0.173507
0.00350704
0.093507
-0.126493
-0.046493
0.073507
0.173507
0.193507
0.013507
0.213507
0.213507
-0.056493
0.193507
0.243507
0.083507
0.153507
-0.136493
0.063507
0.123507
-0.156493
-0.016493
0.063507
-0.236493
0.163507
0.233507
-0.126493
-0.086493
-0.106493
-0.076493
-0.036493
-0.066493
-0.036493
0.103507
-0.026493
-0.126493
0.183507
0.193507
0.243507
-0.206493
-0.00649296
-0.146493
0.183507
0.123507
-0.056493
-0.166493
-0.056493
0.163507
0.123507
0.203507
0.173507
-0.156493
0.153507
-0.196493
0.083507
-0.066493
0.163507
0.243507
-0.126493
-0.186493
0.113507
-0.136493
-0.206493
-0.206493
-0.106493
-0.026493
-0.00649296
0.103507
-0.026493
0.063507
-0.056493
-0.056493
0.233507
0.103507
-0.216493
0.143507
0.053507
0.023507
0.233507
-0.016493
0.193507
-0.236493
0.093507
0.223507
-0.196493
-0.066493
0.043507
0.033507
-0.126493
0.133507
-0.166493
-0.066493
-0.156493
-0.106493
-0.056493
-0.186493
0.073507
0.213507
0.053507
0.093507
0.083507
-0.236493
0.093507
-0.046493
0.053507
0.143507
0.123507
0.113507
-0.086493
0.193507
0.083507
0.203507
0.00350704
0.183507
-0.066493
-0.126493
0.073507
-0.176493
0.233507
-0.226493
-0.086493
-0.166493
-0.156493
-0.096493
-0.066493
0.193507
0.243507
0.063507
-0.176493
-0.076493
-0.086493
0.093507
0.053507
-0.206493
0.183507
-0.116493
-0.116493
0.243507
0.173507
0.163507
0.113507
-0.176493
0.063507
0.073507
-0.126493
-0.116493
0.203507
0.163507
0.223507
0.113507
0.183507
-0.046493
-0.096493
0.083507
-0.176493
-0.206493
0.043507
-0.016493
-0.026493
-0.016493
-0.036493
-0.216493
-0.016493
-0.036493
0.043507
0.063507
0.123507
0.0591985
0.209198
-0.110802
-0.100802
0.209198
-0.0308015
-0.0708015
-0.170802
0.179198
0.0091985
0.139198
0.0491985
-0.0108015
0.229198
-0.160802
0.0391985
0.0991985
0.159198
0.259198
-0.170802
0.0291985
-0.0908015
0.0791985
0.169198
0.269198
-0.160802
-0.160802
0.0691985
0.0391985
0.299198
0.219198
0.0791985
0.159198
0.199198
-0.0308015
-0.180802
0.119198
0.109198
0.0891985
0.159198
-0.110802
-0.0808015
0.159198
-0.140802
-0.130802
-0.110802
-0.0708015
-0.120802
0.309198
-0.0208015
0.239198
0.229198
0.299198
0.0791985
0.149198
-0.180802
0.149198
-0.0408015
0.219198
0.309198
-0.000801501
-0.0108015
-0.0708015
0.179198
0.199198
0.299198
0.0391985
0.0591985
0.289198
-0.0108015
-0.0908015
-0.120802
0.0391985
0.279198
0.239198
0.0591985
-0.110802
-0.0208015
0.129198
0.0091985
0.309198
-0.0208015
0.269198
-0.150802
-0.0808015
0.0691985
0.219198
0.249198
0.0191985
0.179198
-0.140802
0.269198
-0.0908015
0.179198
0.0891985
0.279198
0.0791985
0.0891985
-0.180802
-0.130802
0.229198
-0.0108015
0.129198
0.139198
-0.000801501
-0.150802
-0.000801501
-0.0508015
0.0891985
0.0491985
0.219198
0.249198
0.0391985
0.259198
0.249198
0.289198
0.259198
0.0391985
0.309198
0.179198
-0.0208015
0.0791985
-0.110802
0.219198
-0.0708015
-0.180802
-0.120802
-0.140802
0.289198
0.289198
-0.110802
0.119198
-0.180802
-0.170802
-0.130802
0.229198
0.279198
0.249198
0.0291985
-0.0508015
0.0791985
-0.150802
-0.180802
0.309198
-0.0808015
-0.160802
-0.0608015
-0.130802
-0.0108015
0.0991985
0.139198
-0.0808015
0.0891985
0.0991985
0.109198
-0.170802
-0.170802
-0.150802
-0.000801501
0.219198
-0.180802
0.119198
0.179198
0.0891985
0.189198
-0.100802
0.269198
0.279198
-0.0108015
0.0591985
0.179198
-0.0508015
0.0791985
-0.140802
0.0591985
-0.140802
0.279198
0.279198
-0.0408015
0.289198
-0.150802
0.0291985
0.269198
0.169198
-0.170802
0.139198
0.0391985
-0.180802
-0.180802
0.0891985
0.0491985
0.169198
0.0391985
-0.0608015
-0.180802
-0.0708015
0.0491985
0.0391985
-0.150802
0.199198
0.120235
0.140235
0.240235
-0.179765
-0.219765
-0.0597651
0.250235
0.190235
0.230235
-0.109765
-0.0697651
-0.199765
-0.129765
0.220235
0.0902349
0.120235
0.120235
-0.0797651
0.150235
-0.0397651
0.180235
-0.0997651
0.270235
-0.0497651
-0.219765
0.0702349
-0.209765
0.190235
-0.0897651
-0.119765
0.240235
-0.0797651
-0.0497651
-0.0297651
0.190235
0.0102349
0.0302349
0.160235
0.0502349
0.0302349
0.240235
-0.219765
0.260235
-0.159765
-0.219765
0.200235
-0.159765
0.220235
-0.0397651
0.0702349
0.270235
0.210235
-0.219765
-0.0397651
0.0402349
0.0902349
0.0802349
0.140235
0.190235
0.0802349
-0.0297651
-0.129765
0.270235
0.230235
0.0402349
-0.0897651
0.0602349
-0.129765
0.210235
-0.189765
0.120235
0.0102349
-0.209765
-0.0697651
-0.199765
0.160235
0.170235
-0.169765
-0.199765
0.000234868
0.110235
-0.0797651
-0.0297651
-0.00976513
0.130235
-0.179765
0.180235
-0.0397651
-0.0197651
0.230235
0.210235
0.130235
-0.0497651
-0.0697651
-0.159765
-0.129765
-0.0197651
0.0102349
-0.00976513
-0.0597651
0.0202349
0.230235
0.260235
-0.0997651
0.0302349
-0.169765
0.150235
0.240235
0.240235
-0.149765
-0.169765
0.270235
-0.109765
0.190235
0.180235
-0.189765
0.210235
0.200235
0.210235
0.170235
0.190235
0.0302349
-0.0297651
-0.0497651
0.230235
-0.0997651
0.0902349
0.190235
-0.219765
0.110235
-0.0597651
0.0202349
0.270235
0.0702349
-0.0697651
-0.139765
0.210235
-0.199765
-0.0897651
0.0102349
0.0102349
0.160235
0.0102349
-0.0597651
0.210235
0.0702349
0.250235
-0.199765
0.000234868
-0.159765
-0.119765
0.110235
-0.159765
-0.129765
-0.0897651
0.270235
0.0902349
0.250235
-0.00976513
0.140235
0.220235
0.270235
0.260235
0.200235
0.0702349
-0.209765
-0.189765
0.120235
0.0302349
-0.159765
0.210235
-0.199765
0.110235
0.140235
0.270235
-0.199765
0.0802349
0.260235
-0.109765
0.100235
-0.0897651
-0.219765
-0.0597651
-0.129765
0.0102349
0.190235
-0.139765
0.0102349
0.170235
-0.0697651
0.100235
0.190235
0.0702349
-0.0297651
0.150235
0.0802349
0.110235
0.190235
0.260235
-0.169765
-0.149882
0.270118
0.290118
-0.159882
-0.0298819
0.200118
-0.0798819
-0.0698819
0.0101181
0.140118
-0.00988189
0.0101181
-0.0298819
-0.0598819
0.270118
-0.139882
0.310118
-0.129882
0.210118
0.220118
0.180118
0.120118
0.000118112
0.310118
-0.119882
0.270118
0.0701181
0.250118
0.240118
0.0901181
0.0601181
-0.0798819
0.180118
0.150118
0.0901181
0.220118
0.200118
-0.0298819
0.0501181
-0.139882
-0.159882
0.110118
0.100118
0.100118
0.0701181
-0.0798819
-0.0698819
-0.0998819
0.290118
-0.0798819
0.120118
0.0901181
0.0501181
-0.169882
0.0201181
0.230118
-0.109882
0.250118
-0.139882
0.0401181
0.0201181
-0.149882
-0.109882
0.260118
0.110118
0.300118
0.0601181
0.0101181
0.140118
0.170118
0.0601181
-0.0198819
0.150118
-0.129882
-0.159882
-0.0298819
-0.159882
-0.0398819
0.150118
-0.139882
0.110118
-0.169882
0.200118
-0.0298819
0.270118
0.220118
0.0201181
0.220118
0.0501181
0.110118
0.0501181
0.0201181
-0.169882
0.110118
-0.0698819
0.0801181
-0.0298819
-0.179882
0.140118
0.140118
0.200118
0.150118
0.0101181
0.200118
0.0701181
-0.0898819
0.230118
0.230118
0.120118
0.0601181
0.170118
-0.0198819
-0.0298819
0.220118
0.240118
-0.0698819
-0.139882
-0.149882
0.120118
0.220118
0.230118
-0.0198819
0.110118
0.120118
-0.119882
-0.0498819
0.150118
0.170118
-0.139882
-0.179882
-0.0598819
-0.00988189
-0.0898819
0.0701181
0.290118
0.210118
-0.129882
0.190118
0.110118
0.280118
-0.109882
0.0601181
0.250118
0.230118
-0.119882
-0.179882
0.0501181
-0.0598819
0.0201181
0.160118
-0.149882
0.100118
-0.0698819
0.140118
-0.0598819
0.140118
-0.0798819
0.120118
-0.0798819
0.210118
0.000118112
0.0201181
-0.179882
-0.0498819
-0.0898819
0.250118
0.0601181
-0.0998819
0.0901181
0.160118
0.170118
-0.119882
0.240118
0.100118
-0.149882
0.150118
0.280118
0.0501181
0.150118
0.0501181
0.0201181
-0.149882
0.100118
0.140118
0.230118
0.220118
0.0801181
-0.0298819
-0.139882
0.180118
-0.0198819
0.0901181
0.0701181
-0.149882
-0.0398819
-0.109882
0.120118
0.170118
-0.0798819
-0.0998819
0.203369
-0.0666308
-0.176631
-0.136631
0.183369
0.153369
-0.0766308
0.203369
-0.126631
0.133369
0.213369
0.193369
-0.0866308
0.163369
0.253369
-0.156631
0.183369
0.143369
0.273369
-0.0866308
-0.156631
-0.176631
0.0333692
-0.0466308
0.153369
-0.136631
0.233369
0.163369
0.233369
-0.0466308
0.223369
-0.0666308
0.193369
-0.0366308
0.203369
0.193369
0.253369
0.193369
0.193369
0.0633692
-0.106631
-0.0166308
-0.106631
0.253369
-0.0766308
0.153369
0.123369
-0.0266308
0.133369
-0.106631
-0.156631
0.0433692
-0.116631
-0.186631
-0.0766308
-0.0966308
0.0433692
-0.0466308
0.273369
0.293369
-0.0666308
-0.0566308
-0.116631
-0.196631
-0.0966308
-0.166631
0.293369
0.0133692
0.183369
0.0233692
-0.116631
0.203369
0.253369
-0.176631
-0.106631
0.153369
-0.196631
0.0233692
-0.146631
0.0233692
0.0133692
0.0233692
-0.0566308
0.293369
0.203369
-0.186631
0.273369
0.0633692
0.223369
0.00336916
0.0233692
-0.0266308
0.143369
0.0233692
0.0933692
0.173369
-0.136631
0.283369
0.233369
0.203369
-0.156631
-0.0966308
-0.106631
0.243369
0.203369
-0.00663084
0.223369
0.0633692
0.293369
-0.196631
0.263369
0.213369
0.0533692
0.253369
0.0933692
0.0133692
0.123369
0.203369
0.283369
0.283369
-0.0266308
0.203369
0.113369
0.173369
-0.0866308
-0.176631
-0.166631
0.173369
0.163369
0.0533692
0.233369
-0.0666308
0.253369
0.113369
0.00336916
0.123369
0.0833692
0.193369
0.203369
-0.126631
0.273369
-0.0266308
0.0433692
0.00336916
0.0733692
0.0133692
0.173369
-0.0466308
0.143369
-0.196631
0.123369
-0.126631
-0.126631
0.243369
0.103369
0.0833692
0.233369
-0.0466308
-0.116631
0.143369
-0.116631
-0.106631
-0.106631
0.243369
0.00336916
0.0633692
0.183369
0.163369
0.213369
0.123369
-0.126631
0.0933692
0.193369
0.253369
-0.0366308
0.123369
0.0533692
0.183369
-0.0766308
0.123369
-0.166631
-0.186631
-0.0866308
-0.146631
0.143369
-0.196631
-0.166631
0.293369
-0.106631
0.293369
0.253369
-0.186631
0.193369
-0.0166308
0.0933692
0.0833692
0.163369
0.00336916
-0.0466308
-0.106631
-0.150028
-0.0300282
0.149972
-0.0700282
-2.81945e-05
0.279972
0.279972
0.209972
-0.100028
0.159972
-2.81945e-05
-0.0400282
0.0799718
0.219972
0.0899718
-0.0300282
0.0799718
0.0499718
-0.0900282
-0.140028
-0.0500282
0.299972
-0.0200282
-0.150028
0.239972
0.239972
0.0199718
-0.180028
0.0699718
0.0299718
-0.130028
-0.180028
-0.0100282
0.0199718
0.0699718
-0.160028
0.0199718
0.0199718
-0.0600282
0.0599718
0.249972
0.119972
-0.180028
-0.110028
-0.0200282
0.129972
0.0899718
0.189972
0.229972
-0.0300282
0.0999718
0.119972
0.0499718
0.139972
0.109972
0.299972
0.0699718
0.299972
-0.0700282
0.0299718
0.159972
-2.81945e-05
0.119972
-0.0800282
-0.0500282
0.0999718
-0.180028
0.189972
0.0999718
0.289972
-0.0500282
-0.0200282
0.0999718
0.259972
0.0899718
-0.170028
-0.170028
0.219972
-0.0500282
0.299972
-2.81945e-05
-0.120028
0.209972
-0.0600282
-2.81945e-05
-0.0900282
0.249972
0.289972
-0.140028
0.0599718
-0.0800282
0.239972
0.169972
0.129972
0.0199718
-2.81945e-05
-0.170028
-0.120028
0.0199718
0.279972
-0.0300282
-0.0900282
-0.150028
0.279972
0.199972
0.259972
-0.150028
0.0499718
0.159972
0.269972
0.0199718
0.0999718
0.0199718
-0.100028
-0.0800282
0.209972
-0.110028
0.139972
0.169972
0.199972
-0.0600282
0.189972
0.169972
0.189972
-0.0300282
0.139972
-0.140028
-0.0800282
-2.81945e-05
-0.0400282
0.229972
-0.0800282
-0.130028
0.149972
-0.160028
0.229972
0.219972
-0.0600282
0.179972
-0.0700282
0.289972
-0.100028
0.0599718
-0.0400282
0.229972
0.00997181
0.269972
0.219972
0.209972
-0.150028
0.239972
0.139972
-0.120028
0.0199718
0.109972
-0.150028
0.149972
0.229972
-0.0500282
0.239972
0.279972
-0.0200282
-0.0400282
0.0299718
0.279972
-0.0500282
0.0299718
-0.0600282
-0.180028
-0.160028
-0.170028
0.249972
-0.170028
0.209972
0.129972
-0.150028
0.0199718
0.149972
-0.170028
0.0299718
-0.0800282
-0.110028
0.279972
0.289972
0.0699718
0.0299718
0.199972
0.299972
-0.0100282
-0.100028
0.179972
-0.0300282
-0.0600282
0.0499718
0.00997181
0.149972
-0.0300282
-0.100028
0.0399718
0.159972
-0.0515408
0.0884592
0.318459
0.188459
-0.151541
0.158459
-0.101541
0.318459
0.0384592
0.278459
0.218459
-0.0915408
0.148459
0.318459
0.0284592
0.278459
-0.0315408
-0.111541
-0.0415408
0.168459
-0.141541
0.188459
0.288459
0.0284592
0.228459
-0.0515408
0.158459
0.128459
0.0284592
0.118459
0.0284592
-0.131541
-0.0815408
0.128459
0.248459
0.128459
-0.0315408
0.128459
-0.0115408
-0.0815408
-0.131541
0.128459
-0.151541
0.178459
-0.141541
-0.0915408
-0.111541
0.198459
0.0084592
0.0184592
0.168459
-0.0215408
0.178459
0.0684592
0.158459
-0.151541
0.248459
0.208459
-0.161541
0.138459
0.0684592
-0.0215408
0.148459
0.198459
-0.0915408
-0.0515408
-0.151541
0.258459
0.158459
0.0384592
0.268459
-0.131541
0.0984592
-0.0415408
0.118459
-0.0315408
-0.101541
-0.161541
-0.0215408
0.168459
0.198459
-0.0915408
0.238459
-0.0015408
-0.101541
-0.161541
0.0984592
0.158459
0.148459
0.128459
0.108459
0.198459
0.238459
0.0784592
-0.0315408
-0.0315408
-0.161541
0.328459
0.178459
0.298459
0.158459
-0.0415408
0.318459
0.218459
0.208459
0.178459
0.328459
0.258459
0.178459
0.248459
0.268459
0.318459
-0.0815408
-0.0015408
0.0784592
0.278459
0.0684592
0.0084592
-0.0515408
-0.0915408
0.158459
0.0984592
0.328459
0.248459
-0.0815408
0.128459
0.228459
-0.141541
0.118459
0.198459
0.328459
0.0584592
-0.0415408
0.268459
0.0184592
0.148459
0.168459
0.0184592
0.248459
0.298459
0.0784592
0.128459
0.138459
0.188459
0.238459
0.0484592
0.128459
-0.131541
0.318459
0.208459
0.208459
-0.0315408
0.108459
0.0184592
0.0684592
0.0184592
0.128459
0.328459
0.0484592
0.258459
0.218459
0.178459
0.278459
-0.111541
0.208459
0.188459
0.198459
0.218459
-0.131541
-0.141541
-0.0415408
-0.121541
0.0884592
0.238459
0.268459
-0.0915408
0.218459
0.318459
0.0484592
0.118459
0.248459
-0.121541
-0.0715408
0.278459
-0.0415408
0.0684592
0.288459
0.248459
-0.0015408
0.0684592
0.0684592
0.198459
-0.0715408
-0.151541
0.148459
-0.0715408
-0.0515408
0.238459
0.298459
-0.121541
0.101139
0.211139
0.0311393
0.181139
-0.0988607
0.161139
-0.148861
-0.0488607
0.141139
0.201139
-0.0488607
0.0611393
-0.128861
-0.0688607
-0.0188607
0.261139
0.0611393
0.281139
-0.0988607
-0.0988607
0.231139
-0.0188607
0.0811393
-0.168861
0.0911393
-0.118861
0.261139
-0.188861
0.00113932
0.0911393
-0.00886068
-0.00886068
0.111139
0.0211393
0.211139
-0.0688607
-0.138861
0.101139
0.271139
-0.138861
-0.118861
-0.168861
0.121139
0.0611393
0.101139
0.0411393
0.0811393
-0.0688607
0.0411393
0.261139
0.171139
-0.0188607
0.101139
0.191139
0.211139
0.231139
0.141139
0.141139
0.111139
0.231139
0.271139
0.141139
-0.108861
0.0411393
0.241139
0.0911393
0.131139
0.261139
0.0711393
-0.0688607
0.281139
-0.0788607
-0.0188607
0.241139
0.271139
-0.178861
0.151139
0.121139
-0.00886068
0.251139
-0.0188607
-0.198861
0.241139
0.0711393
0.0311393
0.131139
-0.0188607
0.241139
0.131139
0.281139
0.0511393
-0.0388607
0.271139
-0.118861
0.201139
0.231139
0.191139
0.121139
0.191139
0.121139
-0.0288607
0.221139
0.201139
0.201139
0.0911393
-0.198861
-0.0188607
-0.0488607
0.101139
0.221139
0.201139
0.0811393
-0.208861
-0.0888607
0.191139
0.241139
-0.0688607
0.161139
-0.168861
-0.0388607
0.151139
0.171139
-0.128861
0.251139
0.0711393
-0.198861
-0.148861
-0.0588607
-0.0788607
0.101139
-0.0388607
-0.00886068
-0.208861
0.241139
-0.108861
-0.128861
-0.148861
0.0711393
0.0411393
-0.0388607
0.101139
0.241139
0.111139
0.0711393
-0.168861
0.101139
0.281139
-0.0388607
0.181139
-0.0988607
0.221139
0.241139
-0.108861
0.0411393
0.211139
0.0811393
0.101139
0.0211393
0.00113932
0.0111393
0.201139
-0.148861
0.221139
-0.168861
0.201139
-0.138861
-0.208861
-0.0188607
-0.188861
-0.108861
0.121139
-0.198861
-0.0388607
0.0911393
0.281139
0.0711393
0.0811393
0.171139
-0.198861
-0.0788607
0.271139
-0.148861
-0.198861
-0.148861
-0.0488607
0.0511393
0.251139
0.161139
-0.0188607
0.0411393
0.151139
-0.118861
0.221139
0.0111393
0.101139
0.251139
0.161139
-0.0288607
-0.208861
0.00113932
0.096446
0.036446
0.176446
0.216446
0.146446
0.226446
0.046446
0.116446
-0.123554
0.346446
0.326446
-0.023554
0.026446
0.036446
-0.113554
-0.123554
0.356446
-0.023554
0.096446
0.026446
0.326446
-0.123554
0.066446
0.056446
-0.113554
-0.023554
0.056446
-0.083554
0.316446
-0.133554
0.096446
0.046446
0.346446
0.016446
0.256446
0.126446
0.006446
-0.133554
0.066446
0.216446
0.106446
0.126446
-0.113554
0.306446
0.156446
0.236446
0.326446
0.236446
0.106446
0.326446
0.006446
0.246446
0.136446
0.336446
0.336446
0.126446
0.116446
-0.123554
0.096446
0.126446
0.206446
0.246446
0.046446
-0.103554
0.056446
-0.073554
0.036446
-0.063554
-0.063554
-0.053554
0.096446
0.236446
0.006446
0.176446
-0.043554
0.246446
-0.073554
0.186446
0.326446
0.316446
-0.043554
0.016446
0.356446
0.306446
0.256446
-0.063554
-0.023554
0.286446
0.226446
0.246446
-0.113554
0.166446
0.346446
0.206446
0.256446
0.156446
0.086446
0.066446
0.116446
0.026446
0.326446
-0.003554
-0.023554
-0.043554
0.336446
0.266446
0.106446
0.306446
0.246446
0.276446
-0.013554
0.166446
0.316446
0.356446
-0.093554
0.236446
0.076446
0.096446
0.256446
-0.083554
0.176446
0.006446
-0.133554
0.156446
0.186446
-0.073554
0.106446
0.236446
0.246446
0.096446
0.156446
-0.133554
0.046446
-0.003554
0.276446
-0.013554
0.316446
-0.123554
-0.023554
-0.133554
0.356446
0.286446
0.146446
0.086446
-0.123554
-0.023554
0.346446
-0.063554
-0.073554
0.076446
0.036446
0.096446
0.276446
-0.053554
0.326446
0.256446
-0.113554
0.246446
0.166446
0.146446
-0.013554
0.326446
0.196446
0.326446
0.086446
0.296446
0.256446
0.096446
0.106446
0.056446
0.346446
-0.093554
-0.083554
-0.063554
0.296446
-0.053554
0.136446
0.176446
0.036446
0.066446
-0.073554
0.296446
-0.023554
0.176446
-0.103554
0.286446
0.266446
-0.073554
0.116446
-0.013554
0.236446
-0.043554
-0.013554
0.176446
-0.083554
0.176446
0.146446
0.036446
-0.133554
0.196446
0.255158
0.165158
-0.144842
0.0651575
-0.0048425
0.0851575
0.265158
0.105158
-0.194842
-0.154842
-0.184842
-0.0248425
0.0551575
0.245158
0.0851575
0.0151575
-0.0248425
0.215158
0.165158
0.0751575
0.205158
0.0651575
-0.104842
0.235158
-0.144842
-0.104842
0.0151575
0.205158
0.265158
-0.174842
0.0451575
0.155158
0.135158
0.245158
-0.154842
0.275158
-0.0748425
0.0751575
-0.0648425
0.0651575
-0.134842
-0.114842
0.0651575
0.245158
-0.194842
0.265158
-0.0848425
-0.0948425
0.265158
0.105158
-0.144842
0.0851575
-0.144842
-0.114842
0.275158
0.155158
-0.0148425
-0.124842
0.235158
-0.0348425
-0.154842
0.225158
0.255158
0.125158
-0.0048425
-0.0648425
0.165158
-0.0248425
0.0151575
0.0451575
-0.154842
-0.184842
0.105158
-0.164842
-0.164842
0.185158
-0.114842
-0.144842
0.175158
-0.0248425
0.255158
0.255158
0.195158
0.0151575
0.295158
0.0451575
0.195158
0.135158
0.215158
0.295158
0.115158
0.225158
0.265158
0.135158
-0.174842
-0.184842
-0.184842
0.295158
0.225158
-0.0648425
0.0251575
0.225158
-0.0248425
-0.134842
0.115158
-0.0648425
-0.194842
0.245158
0.215158
0.0151575
0.0251575
0.0551575
-0.194842
0.0651575
0.0051575
-0.0548425
0.145158
-0.0348425
0.0451575
0.0051575
-0.144842
0.0751575
0.215158
0.0451575
0.0651575
0.175158
0.0151575
0.0551575
0.155158
0.0251575
-0.144842
0.145158
0.225158
0.115158
0.0051575
-0.0648425
-0.0248425
0.105158
-0.0248425
-0.0448425
0.145158
-0.194842
0.125158
0.175158
0.0451575
0.0451575
0.235158
-0.0348425
0.0951575
0.0951575
-0.194842
0.0451575
0.0351575
-0.0348425
0.205158
-0.104842
0.265158
0.265158
-0.0848425
0.105158
0.205158
0.145158
0.0551575
0.0251575
-0.0348425
0.225158
-0.0548425
-0.154842
0.175158
-0.0948425
0.235158
0.0651575
-0.0348425
0.0451575
0.215158
0.285158
-0.114842
-0.114842
0.265158
0.275158
0.175158
0.195158
-0.104842
0.0951575
-0.0248425
0.175158
0.155158
-0.0048425
-0.0748425
-0.154842
0.0251575
0.255158
0.255158
-0.144842
-0.134842
0.0751575
-0.114842
0.265158
-0.114842
0.285158
0.0842886
-0.0257114
0.0642886
0.154289
0.00428859
0.324289
0.264289
-0.0357114
-0.105711
0.194289
0.364289
-0.105711
0.194289
0.0742886
0.254289
-0.0457114
0.274289
0.0142886
-0.0957114
0.204289
0.214289
0.224289
0.0742886
0.324289
0.294289
0.0742886
0.0642886
0.0642886
0.124289
-0.0757114
-0.00571141
-0.0557114
-0.0457114
0.0342886
0.304289
0.314289
-0.0157114
0.154289
-0.0957114
0.184289
0.104289
0.124289
0.304289
0.364289
-0.0557114
0.174289
0.264289
0.174289
0.0642886
0.194289
0.114289
-0.0957114
-0.0157114
0.174289
0.134289
0.124289
0.234289
0.124289
0.294289
0.314289
0.0842886
0.244289
0.254289
0.0542886
0.204289
0.364289
-0.0357114
0.114289
0.304289
-0.0757114
0.344289
0.0142886
0.314289
-0.0557114
-0.0557114
0.304289
0.144289
0.304289
-0.105711
0.184289
-0.00571141
0.324289
0.0142886
0.0942886
0.0942886
-0.0157114
0.354289
0.0942886
0.254289
0.244289
-0.0957114
0.104289
0.164289
0.244289
-0.0957114
-0.0657114
0.134289
-0.00571141
-0.0857114
0.244289
0.204289
0.254289
-0.0757114
0.164289
0.0642886
0.0942886
0.104289
0.244289
0.0942886
0.144289
0.0542886
-0.0457114
0.0842886
0.264289
0.294289
-0.0357114
0.274289
0.354289
0.334289
0.164289
0.144289
0.244289
0.244289
0.0442886
0.264289
-0.105711
-0.0157114
0.254289
-0.00571141
-0.0757114
0.0142886
0.00428859
0.224289
-0.0357114
0.184289
-0.0257114
0.0142886
-0.0857114
-0.0757114
0.0342886
0.0242886
0.114289
0.234289
0.364289
-0.0157114
0.334289
0.164289
0.254289
0.364289
0.184289
0.184289
0.364289
0.0642886
0.0942886
-0.0257114
-0.0357114
0.294289
-0.00571141
-0.125711
0.104289
0.134289
0.334289
0.344289
0.274289
0.184289
0.314289
0.174289
0.164289
-0.0857114
0.164289
-0.0157114
0.00428859
0.284289
-0.0957114
0.0842886
0.0242886
0.264289
-0.105711
-0.0857114
-0.0657114
0.174289
-0.00571141
0.284289
0.294289
0.0542886
0.224289
0.00428859
0.144289
0.204289
-0.0257114
0.144289
0.0942886
0.0342886
0.0542886
0.344289
0.304289
-0.125711
0.264289
0.344289
0.164289
0.0922721
0.262272
0.262272
0.282272
0.272272
0.272272
0.0422721
0.0522721
-0.107728
-0.157728
0.242272
0.162272
0.202272
0.222272
-0.107728
0.0222721
-0.0377279
0.212272
-0.147728
-0.187728
0.252272
0.0522721
-0.107728
-0.0877279
0.0622721
-0.187728
0.242272
-0.0977279
0.0922721
0.152272
-0.0877279
0.302272
0.162272
-0.0877279
0.162272
0.122272
0.222272
0.222272
0.132272
-0.177728
0.162272
0.132272
0.0922721
0.222272
-0.0477279
0.192272
0.222272
0.0722721
0.142272
-0.0677279
0.0822721
0.182272
-0.0877279
0.0722721
0.202272
0.142272
-0.127728
-0.0877279
0.0122721
0.252272
0.152272
0.0622721
-0.157728
0.122272
-0.177728
-0.177728
-0.0777279
-0.0377279
0.212272
-0.167728
0.232272
-0.0577279
0.232272
0.00227208
-0.0777279
0.0422721
-0.177728
-0.0177279
-0.0577279
0.0622721
0.00227208
0.0722721
-0.0377279
0.00227208
-0.00772792
0.252272
0.202272
0.252272
-0.117728
0.222272
-0.0677279
0.292272
0.0822721
-0.0277279
-0.0677279
-0.0977279
-0.187728
-0.0877279
0.0322721
0.0722721
0.112272
-0.0577279
0.0822721
-0.167728
-0.157728
0.0622721
0.112272
0.122272
-0.0977279
-0.0577279
-0.127728
-0.0177279
0.182272
0.232272
0.172272
0.122272
-0.0977279
-0.187728
0.262272
-0.177728
0.202272
0.0422721
-0.0777279
-0.0877279
0.132272
-0.187728
0.0522721
0.0722721
-0.0277279
0.0922721
0.0222721
-0.0577279
0.292272
0.192272
0.192272
-0.0677279
-0.177728
0.102272
-0.0977279
0.102272
-0.107728
0.0122721
-0.187728
0.00227208
0.232272
0.302272
0.252272
0.202272
0.242272
0.132272
-0.0177279
0.252272
0.0322721
-0.187728
-0.0977279
0.0922721
0.122272
-0.0777279
0.302272
0.132272
0.0622721
-0.0877279
0.302272
0.142272
0.172272
-0.117728
-0.0977279
-0.187728
0.242272
-0.117728
0.252272
0.262272
-0.0477279
0.00227208
0.302272
-0.0377279
0.152272
0.00227208
0.0922721
0.0522721
-0.00772792
0.112272
0.302272
-0.107728
-0.117728
0.292272
-0.177728
0.0422721
-0.127728
0.232272
0.302272
-0.0677279
0.00227208
0.112272
0.272272
-0.177728
0.202272
0.292272
0.252272
-0.0677279
0.0269826
-0.153017
0.116983
0.256983
0.176983
0.0669826
0.0469826
0.266983
-0.0630174
0.0569826
-0.173017
-0.0430174
-0.0330174
0.276983
-0.133017
0.136983
0.186983
0.0669826
0.0169826
0.196983
0.106983
0.0769826
-0.133017
-0.173017
0.136983
0.216983
-0.0830174
0.0369826
-0.0130174
0.226983
0.166983
0.146983
-0.183017
-0.113017
-0.00301737
0.296983
0.266983
-0.0530174
0.276983
0.296983
0.266983
-0.00301737
0.246983
-0.0530174
-0.0930174
0.166983
-0.173017
-0.00301737
0.176983
0.206983
-0.163017
0.236983
0.156983
-0.00301737
0.166983
-0.183017
0.0769826
0.106983
0.0169826
0.226983
0.266983
0.286983
0.206983
0.216983
0.226983
0.266983
0.116983
0.216983
0.226983
0.236983
0.136983
-0.0630174
-0.133017
0.0169826
0.196983
0.0369826
-0.00301737
-0.0730174
-0.103017
-0.0430174
0.186983
0.296983
-0.173017
0.116983
-0.133017
-0.0130174
0.256983
0.196983
-0.0730174
0.276983
0.106983
0.246983
0.0169826
0.216983
-0.103017
-0.0230174
0.176983
-0.143017
0.0169826
0.0769826
0.166983
-0.103017
0.256983
-0.00301737
0.186983
0.136983
0.196983
0.256983
0.206983
-0.0630174
0.146983
0.226983
-0.00301737
-0.123017
0.246983
0.146983
0.116983
0.226983
0.0469826
-0.183017
0.0269826
0.106983
-0.0630174
0.0669826
-0.143017
0.276983
0.196983
-0.143017
0.306983
0.216983
-0.0130174
0.126983
0.126983
0.156983
0.146983
-0.123017
0.306983
0.186983
-0.0130174
0.136983
0.126983
-0.163017
0.0169826
-0.0530174
0.196983
-0.00301737
0.206983
0.0769826
-0.0530174
0.206983
-0.173017
0.266983
-0.00301737
-0.0930174
0.0469826
0.166983
-0.163017
0.0269826
0.146983
0.166983
0.286983
0.0369826
-0.0130174
-0.0830174
-0.0230174
-0.0930174
0.176983
-0.103017
-0.0630174
0.176983
-0.163017
0.00698263
0.276983
0.106983
0.146983
0.106983
-0.0630174
-0.143017
-0.153017
0.0669826
-0.143017
-0.0930174
0.196983
0.0669826
0.296983
0.176983
0.0369826
0.296983
0.306983
0.0469826
-0.173017
0.136983
-0.00301737
0.0369826
-0.163017
-0.143017
0.306983
0.226983
0.0869826
-0.123017
0.237392
0.257392
-0.112608
0.0573916
0.177392
0.0973916
0.0373916
0.0073916
0.247392
0.187392
-0.122608
-0.0026084
0.267392
0.307392
0.227392
0.297392
0.287392
0.0873916
0.137392
-0.0026084
0.0773916
0.0773916
0.0173916
0.0873916
-0.0126084
-0.0626084
0.0973916
0.187392
0.0673916
-0.142608
0.0173916
0.167392
0.0873916
0.0673916
0.0773916
0.0073916
-0.122608
-0.132608
0.0073916
0.0973916
0.117392
0.267392
0.127392
0.127392
0.0273916
-0.152608
0.0373916
0.0473916
0.0973916
0.217392
-0.0926084
-0.102608
0.337392
-0.0726084
0.287392
0.177392
0.0173916
0.157392
0.267392
0.0573916
0.187392
-0.0626084
0.207392
-0.142608
0.0473916
0.0373916
-0.0226084
-0.0826084
0.0873916
-0.0826084
0.127392
-0.0226084
0.127392
-0.0326084
0.0073916
-0.152608
0.297392
0.327392
-0.102608
0.0573916
0.137392
0.0573916
0.107392
0.197392
-0.0526084
0.327392
-0.0226084
-0.132608
-0.152608
-0.0726084
0.297392
0.327392
0.0273916
-0.142608
0.0073916
-0.0926084
0.107392
0.0073916
-0.0526084
-0.132608
-0.0026084
0.167392
-0.152608
-0.0426084
0.0573916
0.0873916
-0.0326084
0.247392
-0.142608
0.197392
-0.0726084
0.137392
0.177392
-0.112608
0.147392
0.0773916
0.0673916
-0.0326084
0.307392
0.187392
0.0173916
-0.122608
-0.0426084
0.237392
0.137392
0.137392
0.287392
-0.0026084
0.0273916
-0.122608
-0.0826084
0.0273916
0.197392
0.0473916
0.267392
0.267392
-0.142608
0.327392
-0.0126084
0.0373916
0.0873916
0.177392
0.227392
0.297392
0.147392
-0.0126084
-0.0626084
-0.0126084
0.237392
0.0273916
0.297392
0.0473916
0.337392
0.147392
0.267392
0.217392
0.217392
-0.0326084
0.107392
0.157392
-0.122608
-0.0526084
0.0173916
0.107392
-0.112608
-0.0026084
0.227392
0.207392
-0.102608
-0.0426084
0.227392
-0.0626084
0.157392
-0.102608
0.127392
0.147392
-0.132608
0.287392
0.307392
0.127392
-0.132608
0.167392
0.0573916
0.277392
0.257392
0.227392
0.197392
0.177392
0.247392
-0.0126084
-0.0926084
0.227392
-0.0326084
0.127392
0.0473916
0.0773916
0.267392
0.0873916
0.0373916
0.107392
0.106702
0.086702
0.166702
0.076702
0.146702
0.206702
0.286702
0.00670202
-0.143298
0.156702
-0.133298
0.196702
0.196702
0.176702
-0.00329798
0.096702
0.256702
-0.143298
-0.023298
-0.00329798
0.106702
-0.00329798
-0.063298
0.036702
-0.113298
0.306702
-0.183298
-0.183298
0.256702
0.026702
-0.083298
0.076702
-0.00329798
-0.123298
0.126702
0.246702
0.016702
0.256702
0.00670202
-0.153298
-0.183298
0.226702
-0.103298
0.296702
-0.103298
0.096702
-0.183298
0.016702
0.076702
-0.123298
0.206702
0.266702
0.066702
0.036702
0.226702
-0.063298
0.076702
-0.073298
0.126702
0.306702
0.126702
-0.073298
0.00670202
0.016702
-0.093298
-0.063298
0.146702
0.236702
0.246702
-0.123298
0.156702
0.296702
0.206702
-0.103298
0.226702
0.086702
0.306702
0.036702
-0.00329798
-0.083298
-0.053298
0.206702
-0.173298
0.206702
-0.083298
-0.133298
0.116702
0.246702
0.056702
0.196702
-0.00329798
-0.113298
0.216702
0.296702
0.196702
0.306702
0.016702
0.00670202
-0.133298
0.236702
-0.033298
0.296702
-0.133298
-0.093298
-0.103298
0.026702
-0.033298
0.236702
-0.093298
0.296702
0.096702
-0.083298
0.086702
-0.063298
0.296702
0.146702
-0.093298
-0.053298
0.166702
-0.073298
0.076702
0.176702
0.046702
0.136702
0.286702
0.186702
-0.173298
0.276702
0.086702
0.00670202
0.106702
-0.123298
0.236702
0.046702
-0.043298
-0.173298
0.246702
0.156702
0.066702
0.136702
-0.043298
0.306702
0.00670202
-0.153298
-0.00329798
0.136702
0.106702
0.00670202
0.266702
-0.103298
0.276702
0.286702
0.066702
0.206702
-0.103298
-0.073298
0.276702
0.116702
0.216702
0.146702
0.00670202
-0.143298
0.216702
-0.173298
-0.093298
0.146702
0.266702
0.086702
-0.113298
0.016702
-0.133298
0.216702
0.186702
-0.153298
-0.153298
0.166702
0.296702
-0.123298
-0.00329798
-0.103298
-0.023298
-0.033298
-0.093298
-0.093298
0.016702
-0.153298
0.056702
0.136702
0.026702
0.096702
0.056702
0.236702
0.306702
0.116702
0.076702
0.196702
0.126702
0.276702
0.00670202
-0.043298
0.0513272
0.0813272
0.0313272
0.0413272
0.271327
0.171327
0.0813272
-0.0986728
-0.118673
0.0813272
-0.148673
0.0413272
0.171327
-0.0686728
0.171327
0.291327
0.0913272
0.261327
0.251327
0.101327
0.181327
0.311327
-0.0586728
-0.0786728
0.251327
-0.148673
0.291327
0.141327
0.301327
0.291327
0.261327
-0.178673
0.0913272
0.0613272
0.101327
0.171327
0.121327
-0.138673
0.211327
-0.0886728
0.271327
0.0913272
0.251327
-0.0886728
-0.128673
0.201327
0.121327
-0.0386728
-0.158673
0.291327
0.181327
0.181327
0.151327
-0.0886728
-0.0386728
0.131327
0.0813272
0.261327
0.121327
0.241327
-0.0286728
-0.0186728
0.301327
0.0813272
0.171327
0.291327
-0.158673
-0.0286728
-0.00867279
0.00132721
0.261327
-0.108673
0.241327
0.311327
0.181327
0.00132721
0.261327
-0.168673
-0.0586728
-0.0986728
-0.178673
0.261327
-0.0586728
-0.118673
-0.0186728
0.0413272
-0.0786728
0.241327
-0.0286728
-0.108673
0.0413272
0.141327
-0.0486728
0.161327
0.101327
0.241327
0.181327
0.251327
-0.128673
0.201327
0.211327
0.151327
0.131327
0.0613272
0.191327
0.241327
0.301327
0.281327
0.301327
0.221327
-0.138673
-0.0286728
-0.178673
-0.148673
0.201327
-0.148673
0.291327
0.181327
0.131327
0.181327
-0.0886728
-0.0886728
-0.0786728
0.211327
0.301327
-0.168673
-0.178673
0.0313272
0.0113272
0.241327
0.311327
0.311327
0.221327
0.181327
0.0913272
0.0313272
0.0113272
0.101327
0.301327
0.0513272
-0.118673
-0.0686728
-0.168673
-0.0286728
0.121327
0.161327
0.0613272
-0.108673
-0.118673
0.301327
0.311327
0.261327
-0.0586728
0.0313272
0.271327
-0.0586728
0.261327
-0.0586728
0.171327
0.111327
-0.0286728
-0.0786728
-0.148673
0.231327
0.291327
0.301327
0.0913272
0.181327
-0.0386728
0.211327
-0.0986728
-0.0886728
0.191327
-0.178673
0.311327
0.0513272
-0.0886728
0.0113272
0.0813272
0.191327
-0.0486728
0.171327
0.161327
0.251327
0.121327
0.0813272
0.0213272
0.00132721
0.141327
0.111327
0.231327
-0.148673
-0.168673
-0.0886728
-0.158673
0.0813272
-0.0886728
0.231327
0.141327
0.301327
-0.162196
0.0778044
0.187804
-0.142196
0.0478044
0.277804
0.147804
0.137804
0.0278044
0.187804
-0.0121956
-0.00219562
0.147804
0.257804
0.117804
-0.0521956
0.247804
0.0378044
0.287804
0.187804
0.0578044
0.267804
0.247804
-0.0921956
0.277804
-0.162196
-0.112196
-0.112196
0.227804
0.147804
0.247804
0.0778044
0.297804
0.187804
0.117804
0.0978044
0.147804
0.107804
-0.142196
-0.0921956
-0.122196
0.137804
0.167804
-0.0521956
0.237804
0.317804
0.147804
-0.0921956
0.237804
-0.112196
-0.0121956
0.317804
0.227804
0.0278044
0.177804
0.257804
-0.00219562
0.267804
0.0778044
-0.0521956
-0.0321956
-0.122196
0.117804
0.247804
0.187804
0.00780438
0.0178044
0.0878044
0.217804
0.0178044
-0.0121956
-0.0921956
-0.122196
0.117804
0.107804
0.137804
0.117804
0.0778044
0.217804
0.277804
0.127804
0.287804
-0.162196
0.167804
-0.0321956
-0.0621956
0.187804
0.217804
0.247804
-0.162196
0.197804
0.267804
-0.152196
-0.0721956
0.0178044
-0.0121956
-0.102196
0.177804
-0.122196
0.207804
0.0378044
0.147804
-0.00219562
0.287804
-0.0121956
-0.112196
0.107804
0.0178044
-0.0221956
0.317804
-0.162196
0.227804
0.0778044
0.177804
0.177804
0.187804
0.0578044
-0.0521956
0.307804
-0.0521956
-0.0821956
0.107804
-0.0821956
0.117804
0.157804
0.137804
0.227804
0.0278044
0.167804
-0.152196
-0.0621956
0.237804
-0.102196
0.0178044
0.317804
-0.0621956
0.197804
0.197804
-0.00219562
0.297804
0.217804
0.257804
0.237804
0.197804
0.0178044
-0.152196
0.247804
-0.0121956
0.237804
0.257804
-0.0621956
0.177804
-0.152196
-0.0121956
-0.0621956
0.297804
-0.152196
-0.0321956
0.0778044
0.0178044
0.147804
-0.0821956
0.257804
0.00780438
0.127804
-0.0821956
0.287804
-0.0521956
-0.122196
0.107804
0.167804
-0.0521956
0.287804
-0.0421956
0.157804
0.227804
-0.162196
0.0778044
-0.0321956
0.187804
0.177804
-0.0421956
0.137804
0.0878044
0.00780438
-0.112196
0.317804
0.267804
-0.0521956
-0.102196
0.0478044
-0.00219562
0.267804
0.187804
-0.0321956
0.147804
0.247804
0.307804
-0.0921956
0.0478044
0.0260827
0.186083
0.0360827
-0.0139173
-0.00391731
-0.0439173
0.216083
0.206083
-0.163917
-0.0239173
0.286083
0.136083
-0.153917
0.226083
-0.123917
0.226083
-0.0739173
0.00608269
-0.0339173
0.276083
-0.0839173
0.216083
0.0360827
0.256083
0.0860827
0.236083
0.186083
0.116083
0.166083
-0.0139173
-0.0939173
0.136083
-0.0439173
-0.0239173
0.206083
-0.0139173
0.166083
-0.0339173
0.0560827
-0.0139173
0.156083
0.266083
0.0460827
-0.0139173
0.286083
-0.0539173
0.136083
0.0760827
0.306083
-0.0939173
-0.143917
0.0960827
0.216083
0.0260827
0.286083
-0.173917
-0.0639173
-0.173917
0.246083
0.316083
0.0960827
0.0560827
0.0260827
0.226083
-0.103917
-0.153917
0.306083
0.306083
0.00608269
0.00608269
0.0160827
0.266083
-0.153917
-0.103917
0.266083
0.0660827
0.226083
0.296083
0.0960827
-0.163917
0.116083
0.116083
-0.0139173
0.146083
0.0560827
-0.0639173
0.0460827
-0.0239173
0.106083
0.186083
0.226083
0.0760827
0.216083
-0.0439173
0.0660827
0.0560827
-0.153917
-0.00391731
0.176083
0.0260827
0.236083
-0.0739173
-0.0539173
0.206083
0.0560827
0.0660827
0.316083
-0.173917
0.116083
0.296083
0.136083
0.266083
0.246083
0.306083
0.176083
0.286083
0.266083
-0.103917
0.156083
0.0360827
-0.0239173
-0.133917
-0.0139173
0.0960827
-0.0439173
0.296083
-0.0239173
-0.0439173
0.156083
-0.0639173
0.0160827
0.276083
0.146083
0.236083
0.0960827
0.0160827
0.116083
0.00608269
0.126083
-0.103917
0.196083
-0.0439173
-0.173917
0.256083
-0.103917
0.176083
-0.00391731
-0.0139173
0.286083
-0.0539173
0.256083
0.256083
0.236083
0.266083
0.136083
-0.0139173
-0.133917
-0.0539173
0.286083
-0.173917
0.0160827
0.166083
0.0560827
0.306083
0.146083
0.256083
-0.0939173
0.296083
0.226083
-0.0639173
-0.0239173
0.0660827
0.176083
-0.0839173
0.276083
0.0460827
0.216083
0.216083
0.186083
0.0460827
-0.153917
-0.133917
0.206083
0.126083
-0.153917
0.256083
0.316083
0.296083
0.286083
0.186083
-0.143917
0.0960827
0.146083
0.196083
-0.0839173
-0.133917
0.116083
0.146083
0.0160827
0.0760827
0.252403
0.0524027
0.0124027
0.282403
-0.157597
-0.167597
0.152403
0.122403
0.282403
-0.0675973
0.0324027
0.0824027
0.122403
0.202403
0.0924027
0.202403
0.0424027
-0.137597
-0.147597
-0.0575973
-0.147597
-0.107597
0.112403
0.162403
0.0424027
0.0124027
-0.137597
-0.127597
0.0524027
0.202403
0.222403
0.312403
0.142403
0.0424027
-0.107597
0.102403
-0.167597
-0.147597
0.0824027
0.0824027
0.282403
-0.0475973
-0.157597
0.232403
0.0624027
0.00240272
-0.167597
0.122403
0.182403
0.272403
0.272403
-0.0575973
0.112403
0.272403
0.302403
0.282403
0.0924027
0.0824027
0.212403
-0.0875973
0.0124027
0.222403
0.252403
0.282403
0.322403
0.112403
0.182403
0.142403
-0.0175973
0.0924027
-0.0475973
-0.107597
0.0424027
0.242403
0.112403
-0.127597
-0.0775973
0.142403
-0.117597
0.252403
0.232403
-0.167597
-0.0675973
0.202403
-0.0775973
0.212403
0.0624027
-0.0275973
0.192403
0.0324027
0.192403
0.322403
0.222403
0.172403
0.152403
0.102403
0.152403
-0.117597
0.122403
-0.0475973
0.132403
-0.167597
-0.167597
0.262403
-0.167597
-0.0575973
-0.107597
-0.00759728
-0.147597
-0.0275973
-0.0875973
0.202403
0.102403
0.0224027
-0.0375973
0.0324027
0.0724027
-0.107597
-0.107597
0.172403
-0.167597
-0.0175973
0.152403
0.192403
0.0124027
0.322403
-0.167597
0.0824027
0.272403
0.0524027
0.122403
0.122403
-0.127597
0.192403
0.152403
0.00240272
0.0224027
0.152403
0.0824027
0.302403
0.0124027
0.212403
0.102403
0.322403
-0.157597
0.182403
0.302403
0.312403
0.322403
0.0124027
0.172403
0.172403
0.0924027
0.0524027
-0.127597
0.0124027
0.322403
0.252403
-0.0675973
0.0924027
-0.0775973
-0.0675973
0.0224027
0.00240272
0.272403
0.102403
0.0324027
0.122403
0.122403
-0.167597
0.122403
0.0524027
0.122403
-0.147597
-0.167597
0.202403
-0.0875973
0.112403
-0.0675973
0.212403
0.182403
-0.107597
-0.0675973
0.0824027
0.212403
0.182403
-0.0475973
0.0324027
0.202403
0.242403
0.252403
0.112403
0.00240272
0.152403
0.122403
0.0224027
-0.0275973
0.122403
-0.0275973
0.232403
-0.0972965
-0.0572965
0.342704
0.332704
-0.0572965
0.0827035
-0.117296
0.202704
0.282704
0.332704
-0.107296
0.262704
-0.0172965
0.0927035
0.322704
-0.117296
0.0527035
0.132704
-0.0872965
-0.107296
0.352704
0.0427035
0.0327035
-0.137296
0.172704
0.0427035
0.322704
0.00270354
0.142704
0.212704
-0.117296
0.0427035
-0.117296
0.142704
0.332704
-0.0272965
-0.137296
0.342704
0.172704
0.332704
-0.0672965
0.202704
0.0227035
0.0327035
0.112704
0.172704
0.232704
-0.117296
-0.00729646
-0.0572965
0.0327035
-0.0572965
-0.00729646
0.192704
0.0627035
-0.117296
0.142704
0.312704
0.322704
0.152704
-0.0572965
0.0327035
-0.127296
0.242704
0.272704
0.222704
0.332704
0.0127035
0.342704
0.142704
0.0127035
-0.0672965
0.212704
0.0727035
0.252704
0.222704
0.272704
0.152704
0.0127035
0.0827035
0.282704
-0.117296
-0.0972965
0.302704
0.222704
0.0827035
0.312704
0.222704
-0.00729646
0.132704
-0.137296
0.102704
0.242704
0.182704
-0.0472965
0.352704
-0.00729646
0.0827035
0.232704
0.182704
-0.0672965
0.122704
0.0927035
0.0527035
0.0627035
0.00270354
0.0127035
0.262704
-0.0272965
0.00270354
0.00270354
0.332704
-0.0572965
0.152704
0.0727035
0.182704
0.0427035
0.0927035
-0.117296
0.292704
0.222704
0.242704
0.122704
0.0827035
0.162704
-0.137296
-0.137296
-0.0772965
0.302704
0.262704
0.102704
-0.0272965
-0.0672965
0.232704
0.292704
-0.0172965
-0.117296
-0.0472965
0.302704
-0.0172965
0.292704
0.00270354
0.272704
0.222704
0.0827035
-0.00729646
0.0127035
0.342704
0.102704
0.122704
0.0727035
0.102704
0.0927035
0.0627035
-0.117296
0.0427035
0.302704
0.112704
0.112704
-0.0872965
0.202704
-0.0172965
0.112704
0.0927035
0.282704
-0.0872965
0.00270354
-0.0972965
0.312704
-0.0172965
0.122704
0.122704
-0.0472965
0.272704
0.222704
0.122704
-0.0572965
-0.0772965
0.0127035
0.0927035
0.132704
0.342704
0.242704
-0.127296
0.172704
0.0127035
0.172704
0.152704
0.302704
0.272704
0.0327035
0.0627035
0.152704
0.282704
0.0327035
0.332704
0.212704
-0.0672965
0.0227035
0.102704
0.124391
-0.0156093
0.114391
0.264391
0.0843907
0.204391
0.274391
0.0443907
-0.135609
0.114391
0.204391
0.194391
-0.0456093
0.0643907
-0.125609
-0.145609
0.284391
-0.0456093
0.204391
-0.00560927
0.134391
-0.145609
-0.0256093
-0.0556093
0.204391
-0.0456093
0.0443907
-0.145609
0.00439073
-0.125609
0.104391
0.0443907
0.274391
0.224391
0.104391
0.0543907
0.0243907
0.294391
-0.0156093
-0.125609
0.194391
-0.0256093
0.00439073
0.134391
0.0843907
0.194391
0.114391
0.0143907
0.254391
-0.155609
0.0943907
0.284391
-0.0656093
0.224391
0.254391
0.274391
0.264391
-0.0456093
0.254391
0.174391
0.174391
0.0343907
0.314391
0.194391
0.0543907
0.0643907
0.324391
0.0543907
0.124391
0.264391
0.304391
0.154391
0.154391
0.154391
0.164391
0.154391
0.274391
0.214391
0.0343907
0.264391
-0.0456093
0.184391
0.264391
0.0543907
0.194391
0.184391
-0.0656093
-0.00560927
0.294391
0.0443907
0.214391
0.0543907
0.0843907
0.284391
0.324391
-0.145609
-0.0556093
0.0643907
-0.105609
0.294391
0.0543907
0.174391
-0.0556093
0.154391
0.0843907
-0.0356093
-0.115609
-0.155609
-0.115609
-0.0856093
-0.0656093
0.294391
-0.0956093
0.184391
0.0543907
-0.0256093
-0.105609
-0.105609
-0.165609
0.0643907
0.204391
0.0643907
-0.135609
0.294391
-0.115609
-0.135609
0.0343907
-0.0756093
0.194391
-0.105609
-0.0256093
-0.115609
0.284391
0.234391
0.164391
-0.0756093
-0.0156093
0.0743907
-0.165609
0.0943907
0.0343907
0.284391
-0.0556093
-0.145609
0.0843907
0.204391
0.264391
0.0843907
0.304391
0.144391
0.294391
-0.0856093
-0.145609
0.314391
0.184391
0.0143907
0.234391
-0.00560927
-0.145609
-0.165609
0.294391
-0.0856093
-0.0556093
0.154391
-0.135609
-0.155609
-0.115609
-0.105609
-0.0456093
-0.0556093
-0.00560927
-0.155609
-0.155609
0.284391
0.144391
0.294391
0.214391
-0.0756093
0.304391
0.194391
-0.0456093
0.0743907
-0.00560927
-0.155609
-0.0856093
-0.0456093
0.00439073
-0.0356093
0.184391
0.204391
0.104391
0.324391
-0.0856093
-0.0156093
0.174391
0.0143907
0.314391
-0.105609
-0.105609
0.274391
-0.117501
-0.0575007
0.112499
0.132499
-0.0875007
0.232499
0.102499
-0.107501
0.222499
-0.107501
-0.0575007
0.0224993
-0.0975007
0.352499
-0.107501
0.122499
0.332499
-0.0275007
0.0824993
-0.0175007
-0.0475007
0.242499
0.312499
0.372499
0.322499
0.112499
-0.0375007
0.182499
-0.0175007
0.0924993
-0.0575007
0.172499
0.0324993
0.0724993
0.292499
-0.0275007
-0.0475007
0.322499
0.152499
0.202499
-0.0075007
0.0124993
0.0124993
0.0824993
-0.0475007
0.302499
0.162499
-0.0575007
0.0724993
-0.107501
0.242499
0.172499
-0.0575007
0.362499
0.232499
0.242499
0.302499
0.0724993
0.352499
0.102499
0.182499
-0.107501
0.252499
0.162499
0.372499
0.162499
0.172499
0.0624993
0.122499
0.0424993
0.142499
0.162499
0.292499
0.292499
0.232499
0.112499
0.0524993
-0.0875007
0.312499
0.0624993
0.0224993
0.212499
-0.0475007
0.372499
-0.0975007
0.292499
0.122499
0.232499
0.0524993
0.352499
0.0324993
-0.0475007
0.312499
0.162499
-0.0375007
0.0124993
-0.0775007
0.322499
0.222499
0.302499
0.142499
0.142499
0.212499
-0.0875007
0.362499
-0.0875007
-0.0875007
0.0224993
-0.107501
0.112499
0.0024993
0.222499
0.272499
0.172499
0.352499
0.0824993
0.0824993
-0.117501
0.102499
0.332499
0.322499
-0.0775007
0.362499
-0.0575007
0.0224993
0.232499
-0.0175007
-0.0975007
0.222499
0.312499
-0.0875007
0.172499
0.0224993
0.362499
0.0524993
0.122499
-0.0075007
0.122499
-0.0875007
0.312499
0.0624993
0.282499
0.0924993
0.122499
0.222499
0.362499
-0.0675007
-0.0875007
-0.0875007
-0.0675007
0.0924993
-0.0475007
-0.0075007
0.242499
0.192499
0.182499
0.212499
0.262499
-0.0475007
0.322499
0.0424993
0.342499
0.0724993
0.0324993
0.0224993
-0.0775007
0.0324993
-0.0875007
0.152499
0.0824993
0.292499
0.0324993
0.122499
0.352499
-0.0475007
0.0124993
0.352499
0.0524993
-0.117501
0.0224993
0.342499
0.262499
0.242499
0.0624993
0.0724993
0.282499
-0.0275007
0.182499
0.282499
-0.0975007
0.352499
-0.0575007
-0.0675007
0.192499
0.272499
0.0024993
-0.0875007
0.252499
0.0724993
0.142499
0.131185
0.131185
0.111185
0.241185
-0.138815
0.131185
-0.0188154
0.151185
0.0711846
0.201185
0.221185
-0.0788154
-0.158815
0.121185
-0.168815
0.00118458
0.0711846
-0.118815
0.221185
-0.0288154
0.151185
0.191185
0.301185
-0.138815
-0.158815
-0.168815
0.0211846
0.0711846
0.261185
0.131185
0.231185
-0.0388154
0.211185
0.191185
0.261185
-0.0288154
-0.128815
0.281185
-0.118815
-0.128815
0.0711846
0.171185
-0.0288154
0.201185
-0.148815
0.0711846
-0.118815
-0.178815
-0.148815
-0.0388154
0.221185
-0.158815
0.181185
0.0911846
-0.0188154
-0.0388154
0.171185
0.101185
0.191185
0.101185
0.191185
-0.108815
0.271185
0.201185
0.111185
0.101185
0.171185
0.261185
0.141185
0.121185
0.0811846
0.101185
0.131185
0.281185
0.0511846
0.0311846
0.231185
0.181185
-0.108815
0.171185
0.181185
-0.178815
0.0711846
-0.0488154
0.0511846
0.101185
0.0711846
0.211185
0.121185
0.171185
-0.108815
-0.138815
0.0311846
0.0111846
-0.0288154
0.00118458
-0.0788154
-0.0588154
0.0311846
0.301185
0.191185
-0.168815
0.121185
0.0311846
0.0411846
0.0511846
-0.0588154
-0.138815
0.231185
0.0611846
0.291185
0.141185
-0.148815
0.0811846
0.141185
0.291185
-0.0988154
0.201185
0.0311846
0.171185
0.0411846
0.0211846
0.101185
-0.0588154
0.141185
-0.158815
0.181185
0.161185
-0.0688154
0.111185
0.0611846
0.181185
0.181185
-0.0688154
0.0111846
-0.0488154
0.0511846
0.191185
-0.0288154
0.0511846
0.141185
0.271185
0.241185
0.231185
0.241185
0.291185
0.191185
0.0611846
-0.148815
0.271185
0.171185
-0.168815
-0.118815
0.201185
-0.118815
0.151185
0.171185
-0.138815
0.151185
0.0711846
-0.0288154
0.161185
0.0111846
-0.0988154
0.161185
0.251185
0.0211846
0.211185
0.181185
0.0111846
0.211185
0.191185
0.261185
0.241185
-0.118815
0.221185
0.0411846
0.151185
-0.0588154
0.211185
0.121185
-0.0688154
0.141185
0.231185
0.231185
0.0311846
-0.0788154
-0.118815
-0.148815
-0.0688154
-0.178815
0.191185
0.241185
0.151185
0.161185
-0.128815
0.201185
0.101185
0.261185
-0.0988154
0.142105
0.282105
0.152105
0.382105
-0.107895
0.312105
0.152105
0.142105
-0.0678953
0.112105
0.292105
0.0321047
0.112105
0.142105
-0.0778953
-0.0578953
0.0221047
0.272105
0.272105
-0.00789529
-0.0478953
0.242105
0.222105
0.0821047
0.352105
0.342105
-0.0978953
-0.0378953
-0.0178953
0.232105
0.0821047
0.112105
0.382105
0.352105
0.252105
0.0521047
0.0621047
0.212105
0.322105
-0.0878953
0.192105
-0.0978953
0.232105
0.292105
-0.00789529
0.142105
0.0721047
0.312105
0.0921047
-0.0978953
0.372105
-0.107895
0.00210471
0.152105
0.362105
0.232105
0.302105
0.282105
0.262105
0.262105
0.122105
0.132105
0.0221047
0.0721047
0.162105
0.0721047
0.212105
0.0921047
-0.0578953
0.0421047
0.0621047
0.0721047
0.252105
0.272105
0.0721047
0.232105
0.362105
0.222105
0.132105
0.222105
-0.0478953
0.332105
-0.0178953
0.0721047
0.322105
0.182105
0.372105
0.182105
0.362105
0.0621047
0.0121047
-0.0178953
0.102105
0.312105
0.372105
0.362105
0.312105
-0.0578953
0.232105
-0.0978953
0.142105
0.0621047
0.312105
0.162105
0.242105
0.242105
0.332105
0.292105
-0.0578953
-0.0578953
0.222105
0.332105
0.102105
0.322105
0.282105
0.222105
-0.0478953
-0.0578953
0.112105
0.362105
-0.0678953
0.0221047
0.0721047
0.132105
0.362105
-0.0878953
0.0121047
0.0121047
0.262105
-0.0778953
0.0121047
-0.0578953
0.312105
0.262105
0.242105
0.112105
0.0721047
-0.0478953
0.282105
-0.0778953
0.342105
0.302105
0.162105
-0.0978953
0.0621047
0.0321047
-0.0178953
-0.0778953
0.212105
0.232105
0.172105
-0.0978953
0.152105
-0.0278953
0.222105
-0.0178953
0.382105
0.0121047
0.382105
0.152105
0.0321047
-0.0678953
0.282105
0.0721047
0.252105
0.342105
0.212105
-0.0578953
0.292105
0.0721047
0.362105
0.182105
-0.0378953
0.322105
0.00210471
-0.0778953
0.262105
0.0521047
0.362105
0.192105
-0.107895
0.122105
0.192105
0.212105
0.0821047
-0.0978953
0.232105
0.382105
0.362105
0.0721047
-0.0578953
-0.0278953
0.302105
0.122105
0.302105
0.262105
-0.0978953
-0.0178953
0.102105
0.272105
