<?xml version="1.0"?>
<NeuralNetwork layerCount="2">
	<NeuralNetworkLayer neuronCount="60">
		<Neuron>
			<ActivationFunction function="1" param="5" />
			<Bias use="1" weight="-0.7064822476768251" />
			<Inputs inputCount="1024">
				<InputWeight weight="0.033374326252294306" />
				<InputWeight weight="0.64096731409017216" />
				<InputWeight weight="0.32974748521515962" />
				<InputWeight weight="0.43886370739767067" />
				<InputWeight weight="0.21877264758549986" />
				<InputWeight weight="0.10338757490490158" />
				<InputWeight weight="0.020419001496441824" />
				<InputWeight weight="-0.49409511540568496" />
				<InputWeight weight="-0.01112561795852407" />
				<InputWeight weight="-0.41966716107232305" />
				<InputWeight weight="0.10675527755625835" />
				<InputWeight weight="0.61886996459130228" />
				<InputWeight weight="0.034050601626294252" />
				<InputWeight weight="0.15837983542173073" />
				<InputWeight weight="-0.053572436394267897" />
				<InputWeight weight="-0.4315142089025954" />
				<InputWeight weight="0.37564990351188254" />
				<InputWeight weight="0.55521614381119466" />
				<InputWeight weight="0.59478414473983321" />
				<InputWeight weight="-0.49500792601538224" />
				<InputWeight weight="-0.019210905209835039" />
				<InputWeight weight="0.16660555547183242" />
				<InputWeight weight="-0.029400837507019051" />
				<InputWeight weight="-0.34779066786276569" />
				<InputWeight weight="-0.63226131805806396" />
				<InputWeight weight="-0.48097046265203391" />
				<InputWeight weight="0.61854805927591716" />
				<InputWeight weight="-0.26455592817554552" />
				<InputWeight weight="0.91111944193168415" />
				<InputWeight weight="0.20670176930989514" />
				<InputWeight weight="-0.34354484216473002" />
				<InputWeight weight="-0.26725180160809725" />
				<InputWeight weight="0.026014533917003035" />
				<InputWeight weight="-0.28100787340486255" />
				<InputWeight weight="0.031073051001061724" />
				<InputWeight weight="0.51526817422205751" />
				<InputWeight weight="0.76172261901591276" />
				<InputWeight weight="0.48236860657929048" />
				<InputWeight weight="-0.10990990323717043" />
				<InputWeight weight="-0.056234706232605625" />
				<InputWeight weight="-0.067121182957641801" />
				<InputWeight weight="0.45043262909438986" />
				<InputWeight weight="-0.81408223342298303" />
				<InputWeight weight="0.26181702114807659" />
				<InputWeight weight="0.087691458889834761" />
				<InputWeight weight="0.53489521389274053" />
				<InputWeight weight="-0.37295733093886729" />
				<InputWeight weight="0.0312415940317472" />
				<InputWeight weight="0.75446358270709424" />
				<InputWeight weight="0.15941899584635011" />
				<InputWeight weight="0.41495991330198878" />
				<InputWeight weight="0.31396936852911028" />
				<InputWeight weight="-0.33019734426004677" />
				<InputWeight weight="-0.41225019459111312" />
				<InputWeight weight="-0.072255007819910788" />
				<InputWeight weight="-0.34445787434454533" />
				<InputWeight weight="0.11829069950227122" />
				<InputWeight weight="0.54325577899390565" />
				<InputWeight weight="-0.2342399909048376" />
				<InputWeight weight="-0.28894246710500782" />
				<InputWeight weight="-0.20086326915877895" />
				<InputWeight weight="-0.62066799425366415" />
				<InputWeight weight="0.5100840535331268" />
				<InputWeight weight="0.18042085043515721" />
				<InputWeight weight="-0.0776644015473551" />
				<InputWeight weight="0.28770161069491129" />
				<InputWeight weight="0.43152194629209362" />
				<InputWeight weight="-0.56710322725862894" />
				<InputWeight weight="0.24715837549742226" />
				<InputWeight weight="0.70378547989690099" />
				<InputWeight weight="0.81843107410728644" />
				<InputWeight weight="0.70114913706948401" />
				<InputWeight weight="0.83848657837798135" />
				<InputWeight weight="0.18695972208702205" />
				<InputWeight weight="0.21850935236952296" />
				<InputWeight weight="0.27211607469430321" />
				<InputWeight weight="-0.050110738033306013" />
				<InputWeight weight="0.5626122812950558" />
				<InputWeight weight="0.17762957312417438" />
				<InputWeight weight="0.16646019035337578" />
				<InputWeight weight="-0.24160282368367147" />
				<InputWeight weight="0.13485533560172391" />
				<InputWeight weight="-0.36089370676378052" />
				<InputWeight weight="0.67066957906586411" />
				<InputWeight weight="-0.59135289647428524" />
				<InputWeight weight="0.54649618565534852" />
				<InputWeight weight="0.21750412175908673" />
				<InputWeight weight="-0.16752124277908476" />
				<InputWeight weight="0.058415415867671516" />
				<InputWeight weight="0.094500180876491813" />
				<InputWeight weight="-0.11090339523466497" />
				<InputWeight weight="0.34200967744255495" />
				<InputWeight weight="-0.42083447951926756" />
				<InputWeight weight="0.54854755332386107" />
				<InputWeight weight="0.69183329561273865" />
				<InputWeight weight="0.47444922440013926" />
				<InputWeight weight="-0.24281027290446533" />
				<InputWeight weight="-0.20236932929699947" />
				<InputWeight weight="0.18794632689419677" />
				<InputWeight weight="0.56192335194876408" />
				<InputWeight weight="0.5049885464987014" />
				<InputWeight weight="0.54702700880543453" />
				<InputWeight weight="0.13475119093913457" />
				<InputWeight weight="0.095091994053056572" />
				<InputWeight weight="0.69285837616859247" />
				<InputWeight weight="0.79992094035613537" />
				<InputWeight weight="-0.13648736579961251" />
				<InputWeight weight="-0.55462835803145982" />
				<InputWeight weight="-0.64977055653069316" />
				<InputWeight weight="-0.6052728715528084" />
				<InputWeight weight="0.83623328920045692" />
				<InputWeight weight="0.76915447403428949" />
				<InputWeight weight="-0.39593923421312271" />
				<InputWeight weight="0.78523408415096085" />
				<InputWeight weight="0.68727271650510691" />
				<InputWeight weight="0.47036312778454037" />
				<InputWeight weight="-0.15509200679649471" />
				<InputWeight weight="0.45690604492548714" />
				<InputWeight weight="0.67453117688780795" />
				<InputWeight weight="0.14189508321047173" />
				<InputWeight weight="-0.28333668232561693" />
				<InputWeight weight="0.29153758542672548" />
				<InputWeight weight="0.31514001920363421" />
				<InputWeight weight="-0.55964443883409887" />
				<InputWeight weight="0.073208058409191867" />
				<InputWeight weight="0.051478593577484855" />
				<InputWeight weight="0.2071955719371712" />
				<InputWeight weight="-0.29872745963137226" />
				<InputWeight weight="-0.43920735078051309" />
				<InputWeight weight="-0.095726803600359234" />
				<InputWeight weight="-0.44967153951296324" />
				<InputWeight weight="0.054332443420932908" />
				<InputWeight weight="0.52002083497449814" />
				<InputWeight weight="0.90360022562437248" />
				<InputWeight weight="0.91332482302200857" />
				<InputWeight weight="-0.049320825177792793" />
				<InputWeight weight="0.79630155430499006" />
				<InputWeight weight="0.38065252997770127" />
				<InputWeight weight="-0.27722639539423433" />
				<InputWeight weight="0.5895870468194806" />
				<InputWeight weight="-0.68270303746686789" />
				<InputWeight weight="0.15390945215876473" />
				<InputWeight weight="0.37162241699087173" />
				<InputWeight weight="-0.17944059211188801" />
				<InputWeight weight="-0.2203047943772497" />
				<InputWeight weight="0.77048414638594021" />
				<InputWeight weight="-0.25138742168004558" />
				<InputWeight weight="-0.61475745721946329" />
				<InputWeight weight="-0.41632659656693904" />
				<InputWeight weight="0.76453045759491189" />
				<InputWeight weight="-0.035332195834620328" />
				<InputWeight weight="0.13418861416768957" />
				<InputWeight weight="0.77778185367687724" />
				<InputWeight weight="0.87072111183180567" />
				<InputWeight weight="0.71134068166155706" />
				<InputWeight weight="-0.077207246976576771" />
				<InputWeight weight="-0.64081218017380392" />
				<InputWeight weight="0.81764099835316362" />
				<InputWeight weight="-0.32923776252192183" />
				<InputWeight weight="-0.26614048407200963" />
				<InputWeight weight="0.30804654515227758" />
				<InputWeight weight="-0.053579550583367608" />
				<InputWeight weight="-0.018676196729242478" />
				<InputWeight weight="-0.096192194028892786" />
				<InputWeight weight="-0.17143274708145295" />
				<InputWeight weight="0.71921513916979007" />
				<InputWeight weight="-0.57536337855059738" />
				<InputWeight weight="0.58526171639588798" />
				<InputWeight weight="0.72486379987289196" />
				<InputWeight weight="0.044294291085259729" />
				<InputWeight weight="0.72670092395508412" />
				<InputWeight weight="-0.1891163934590594" />
				<InputWeight weight="-0.29905697411053378" />
				<InputWeight weight="-0.77328422068177971" />
				<InputWeight weight="-0.12356253746536561" />
				<InputWeight weight="0.40240665634274819" />
				<InputWeight weight="-0.38189547119844403" />
				<InputWeight weight="-0.49828594363295486" />
				<InputWeight weight="0.62829327142622149" />
				<InputWeight weight="-0.53324548740741173" />
				<InputWeight weight="0.17560777871481625" />
				<InputWeight weight="-0.068550522520483659" />
				<InputWeight weight="-0.34183063018416449" />
				<InputWeight weight="0.26418019289116312" />
				<InputWeight weight="-0.30223568802930678" />
				<InputWeight weight="0.012630044161730858" />
				<InputWeight weight="0.22229470256660511" />
				<InputWeight weight="0.32223904016320759" />
				<InputWeight weight="-0.48789547717891235" />
				<InputWeight weight="0.0092155045982664774" />
				<InputWeight weight="0.67655081090872771" />
				<InputWeight weight="-0.14229983745665631" />
				<InputWeight weight="0.13476029461363814" />
				<InputWeight weight="-0.070853280062757595" />
				<InputWeight weight="-0.46826607453682745" />
				<InputWeight weight="0.8004696865725176" />
				<InputWeight weight="0.90482772725268124" />
				<InputWeight weight="0.56279783403580153" />
				<InputWeight weight="0.71024784008699937" />
				<InputWeight weight="-0.47434094449104158" />
				<InputWeight weight="0.021589907608994707" />
				<InputWeight weight="0.32544845485301543" />
				<InputWeight weight="-0.58683376072644378" />
				<InputWeight weight="-0.55792917028579747" />
				<InputWeight weight="-0.12864493090637052" />
				<InputWeight weight="0.70048548155032253" />
				<InputWeight weight="0.66799393028927678" />
				<InputWeight weight="-0.37148802760505162" />
				<InputWeight weight="0.41682145825273764" />
				<InputWeight weight="0.12445258405509696" />
				<InputWeight weight="-0.62816937231602565" />
				<InputWeight weight="0.197650366435147" />
				<InputWeight weight="0.5859952997420772" />
				<InputWeight weight="0.68849716996289745" />
				<InputWeight weight="0.074082492051585014" />
				<InputWeight weight="-0.019926464912414898" />
				<InputWeight weight="0.25858472845295721" />
				<InputWeight weight="-0.24943145929304822" />
				<InputWeight weight="0.87773105154692299" />
				<InputWeight weight="0.0047778519620309545" />
				<InputWeight weight="-0.40446108281027793" />
				<InputWeight weight="0.67282227682143025" />
				<InputWeight weight="0.73178683838640257" />
				<InputWeight weight="0.37293257907892219" />
				<InputWeight weight="-0.43742484967334427" />
				<InputWeight weight="0.35172413231568944" />
				<InputWeight weight="0.73362865593880699" />
				<InputWeight weight="0.16411095752887839" />
				<InputWeight weight="0.7336648836959907" />
				<InputWeight weight="0.60819100731961262" />
				<InputWeight weight="0.34405288313258175" />
				<InputWeight weight="0.22305422367561012" />
				<InputWeight weight="0.52619269775565369" />
				<InputWeight weight="-0.14817096895345372" />
				<InputWeight weight="0.21771548402114971" />
				<InputWeight weight="0.24432241361963891" />
				<InputWeight weight="0.3295701282915271" />
				<InputWeight weight="-0.56016011292586398" />
				<InputWeight weight="-0.24695767076242758" />
				<InputWeight weight="0.36431409544325399" />
				<InputWeight weight="-0.21180164194788698" />
				<InputWeight weight="-0.24953071514259662" />
				<InputWeight weight="-0.33456102678867594" />
				<InputWeight weight="0.74505572267819531" />
				<InputWeight weight="-0.31195258398734038" />
				<InputWeight weight="-0.015749617998969345" />
				<InputWeight weight="0.91066182598605128" />
				<InputWeight weight="-0.14040085626220866" />
				<InputWeight weight="-0.14218786773652214" />
				<InputWeight weight="-0.2424432007645021" />
				<InputWeight weight="0.93177302479587998" />
				<InputWeight weight="0.15170324048837869" />
				<InputWeight weight="-0.19284672878515963" />
				<InputWeight weight="-0.461109624655057" />
				<InputWeight weight="0.78521505417218629" />
				<InputWeight weight="-0.29458694045953571" />
				<InputWeight weight="0.2396573462976237" />
				<InputWeight weight="0.46791894949115043" />
				<InputWeight weight="0.72567098233701444" />
				<InputWeight weight="0.71240699876285207" />
				<InputWeight weight="-0.098800191433004447" />
				<InputWeight weight="0.68293150910755096" />
				<InputWeight weight="-0.099528861388373357" />
				<InputWeight weight="0.7505188302436463" />
				<InputWeight weight="-0.4061335810478115" />
				<InputWeight weight="0.717646642067443" />
				<InputWeight weight="0.3090866696799206" />
				<InputWeight weight="0.024610329283403898" />
				<InputWeight weight="-0.36866657982756124" />
				<InputWeight weight="-0.63298681824334269" />
				<InputWeight weight="-0.093849512896517884" />
				<InputWeight weight="0.36824218111625417" />
				<InputWeight weight="0.15713077349494053" />
				<InputWeight weight="0.81826284697477014" />
				<InputWeight weight="0.73843568442770735" />
				<InputWeight weight="0.64577463902058962" />
				<InputWeight weight="0.84998252393807694" />
				<InputWeight weight="0.18814159405115838" />
				<InputWeight weight="-0.10207819576445387" />
				<InputWeight weight="-0.36974111940663634" />
				<InputWeight weight="0.25116319243401009" />
				<InputWeight weight="0.65350976078450085" />
				<InputWeight weight="0.71170577934147738" />
				<InputWeight weight="0.6919945420948892" />
				<InputWeight weight="0.5238278902166118" />
				<InputWeight weight="0.04714940200635942" />
				<InputWeight weight="-0.56656542555325395" />
				<InputWeight weight="-0.044184554511618401" />
				<InputWeight weight="-0.11736699428024577" />
				<InputWeight weight="0.7982059348325401" />
				<InputWeight weight="-0.35545627416321979" />
				<InputWeight weight="-0.11271190143188081" />
				<InputWeight weight="-0.0008141623748313398" />
				<InputWeight weight="0.54978819158965964" />
				<InputWeight weight="0.35670011827177461" />
				<InputWeight weight="-0.49783448161836352" />
				<InputWeight weight="0.19683972304424802" />
				<InputWeight weight="-0.45965457053922365" />
				<InputWeight weight="-0.55644973986099133" />
				<InputWeight weight="-0.4424279672592778" />
				<InputWeight weight="-0.24724946376166423" />
				<InputWeight weight="0.15941622749399653" />
				<InputWeight weight="0.0022729769536340427" />
				<InputWeight weight="-0.56397591246480516" />
				<InputWeight weight="-0.095240798895145473" />
				<InputWeight weight="-0.56420867353075099" />
				<InputWeight weight="0.079573195823487763" />
				<InputWeight weight="-0.072455036151617302" />
				<InputWeight weight="0.36955866780843638" />
				<InputWeight weight="-0.21081525434274317" />
				<InputWeight weight="0.47903306833381354" />
				<InputWeight weight="0.55072510337162983" />
				<InputWeight weight="-0.64971980454652911" />
				<InputWeight weight="0.66919894885844999" />
				<InputWeight weight="0.87209502917036841" />
				<InputWeight weight="0.61596677984435488" />
				<InputWeight weight="0.30358138641800281" />
				<InputWeight weight="-0.042519843349448139" />
				<InputWeight weight="0.3733008681091412" />
				<InputWeight weight="0.84562140778913575" />
				<InputWeight weight="-0.43792335782261538" />
				<InputWeight weight="-0.45636155714021798" />
				<InputWeight weight="-0.41567090505052029" />
				<InputWeight weight="-0.57834570713072264" />
				<InputWeight weight="-0.1368099002868578" />
				<InputWeight weight="0.28818775885257586" />
				<InputWeight weight="0.35986311691986694" />
				<InputWeight weight="0.24218449923669993" />
				<InputWeight weight="0.61309555738344557" />
				<InputWeight weight="0.24094861287770364" />
				<InputWeight weight="0.70745736028548745" />
				<InputWeight weight="-0.44903457471700725" />
				<InputWeight weight="-0.060551403713998475" />
				<InputWeight weight="-0.049517093001176127" />
				<InputWeight weight="0.5141075863137563" />
				<InputWeight weight="-0.10825544938430331" />
				<InputWeight weight="-0.31808178733028414" />
				<InputWeight weight="-0.44645924695042771" />
				<InputWeight weight="0.18759218110805342" />
				<InputWeight weight="0.28773697364681916" />
				<InputWeight weight="-0.33253124125977895" />
				<InputWeight weight="0.0079531775548007388" />
				<InputWeight weight="0.31745781379443594" />
				<InputWeight weight="-0.11666307161173217" />
				<InputWeight weight="-0.45241229801675131" />
				<InputWeight weight="0.10603172974754083" />
				<InputWeight weight="-0.2464636181424773" />
				<InputWeight weight="0.074461498878070742" />
				<InputWeight weight="-0.1334799696310528" />
				<InputWeight weight="-0.65913321963289917" />
				<InputWeight weight="-0.37017524171114646" />
				<InputWeight weight="0.35450960109357132" />
				<InputWeight weight="0.16769833942667023" />
				<InputWeight weight="-0.30600588817834307" />
				<InputWeight weight="0.72760586803865346" />
				<InputWeight weight="0.71370299058740994" />
				<InputWeight weight="0.78921668057835825" />
				<InputWeight weight="0.28906605481670589" />
				<InputWeight weight="-0.54286055425591051" />
				<InputWeight weight="-0.39829468202337948" />
				<InputWeight weight="0.31859839953234026" />
				<InputWeight weight="0.046412411255159824" />
				<InputWeight weight="-0.3774654071406609" />
				<InputWeight weight="0.18534705094442017" />
				<InputWeight weight="-0.053545124058966609" />
				<InputWeight weight="-0.18204586350557483" />
				<InputWeight weight="-0.48411718279121474" />
				<InputWeight weight="-0.37043090828403358" />
				<InputWeight weight="-0.40059315619331903" />
				<InputWeight weight="-0.30117517847245734" />
				<InputWeight weight="0.72289689078815655" />
				<InputWeight weight="-0.25387789468754696" />
				<InputWeight weight="0.53810605480556872" />
				<InputWeight weight="0.93761915593455569" />
				<InputWeight weight="-0.38246887386220374" />
				<InputWeight weight="0.29965839702522712" />
				<InputWeight weight="0.81790437836345387" />
				<InputWeight weight="0.080672904883045016" />
				<InputWeight weight="-0.043448021253683522" />
				<InputWeight weight="-0.31347060441907615" />
				<InputWeight weight="-0.099463142292895546" />
				<InputWeight weight="-0.71539177441365309" />
				<InputWeight weight="-0.46995065941259251" />
				<InputWeight weight="-0.35927024171813804" />
				<InputWeight weight="-0.31328022233692643" />
				<InputWeight weight="-0.57259917176675335" />
				<InputWeight weight="0.28301449470865991" />
				<InputWeight weight="0.12479941220002777" />
				<InputWeight weight="-0.19693009976110498" />
				<InputWeight weight="-0.32289922810082372" />
				<InputWeight weight="0.20497670504589305" />
				<InputWeight weight="0.42615860770581371" />
				<InputWeight weight="-0.08726757237932159" />
				<InputWeight weight="0.28546698205594723" />
				<InputWeight weight="0.26437687695837875" />
				<InputWeight weight="0.39334384879136142" />
				<InputWeight weight="-0.004761872065723427" />
				<InputWeight weight="0.022702177681563018" />
				<InputWeight weight="0.50542794291873538" />
				<InputWeight weight="0.64655285726619804" />
				<InputWeight weight="0.11485280224914063" />
				<InputWeight weight="-0.51689568875072334" />
				<InputWeight weight="-0.33703212374038061" />
				<InputWeight weight="0.32319835610218761" />
				<InputWeight weight="0.15244321474304479" />
				<InputWeight weight="0.16761435115151979" />
				<InputWeight weight="0.23393601092372918" />
				<InputWeight weight="0.80455408582942312" />
				<InputWeight weight="-0.48847018820254462" />
				<InputWeight weight="-0.27497477979478002" />
				<InputWeight weight="0.59847542459467706" />
				<InputWeight weight="0.22965201508909328" />
				<InputWeight weight="-0.49521606033809906" />
				<InputWeight weight="-0.22502338218798645" />
				<InputWeight weight="0.59553535381487777" />
				<InputWeight weight="-0.54972886296579415" />
				<InputWeight weight="-0.11502963072351702" />
				<InputWeight weight="0.40958899264650728" />
				<InputWeight weight="0.23677241168172514" />
				<InputWeight weight="0.068111329675196064" />
				<InputWeight weight="0.94726297140471694" />
				<InputWeight weight="-0.15093776136387416" />
				<InputWeight weight="0.73990340347086669" />
				<InputWeight weight="-0.27198136432951059" />
				<InputWeight weight="0.81358957924777098" />
				<InputWeight weight="-0.014897762561598249" />
				<InputWeight weight="0.76667352148363088" />
				<InputWeight weight="0.84070375753423732" />
				<InputWeight weight="0.55666698417123506" />
				<InputWeight weight="-0.15732864824499748" />
				<InputWeight weight="-0.35462990351882118" />
				<InputWeight weight="-0.029131515552668796" />
				<InputWeight weight="-0.27051914808932587" />
				<InputWeight weight="0.151111101626622" />
				<InputWeight weight="0.83351446166973986" />
				<InputWeight weight="0.8319638090889816" />
				<InputWeight weight="0.85232511612297435" />
				<InputWeight weight="-0.19546337066425867" />
				<InputWeight weight="0.73148691384671327" />
				<InputWeight weight="-0.061151969967648712" />
				<InputWeight weight="-0.058408987751842778" />
				<InputWeight weight="0.67267313503292891" />
				<InputWeight weight="-0.32477121751415017" />
				<InputWeight weight="-0.32714603583559787" />
				<InputWeight weight="-0.19502550896096105" />
				<InputWeight weight="-0.31876244706012358" />
				<InputWeight weight="-0.31599634479102712" />
				<InputWeight weight="0.042628827105084977" />
				<InputWeight weight="-0.64999335103459366" />
				<InputWeight weight="0.40415107962357522" />
				<InputWeight weight="0.81785728488306475" />
				<InputWeight weight="0.13573604481951951" />
				<InputWeight weight="-0.0437498024683044" />
				<InputWeight weight="0.60930085417683943" />
				<InputWeight weight="-0.22356973939004787" />
				<InputWeight weight="0.85220331631130231" />
				<InputWeight weight="-0.27640929919497892" />
				<InputWeight weight="0.78917226489379733" />
				<InputWeight weight="0.76794913939801779" />
				<InputWeight weight="-0.61791529868575557" />
				<InputWeight weight="0.5837195871823404" />
				<InputWeight weight="0.51062010823156023" />
				<InputWeight weight="0.15471114505554273" />
				<InputWeight weight="0.40129668061747159" />
				<InputWeight weight="0.46744974449907861" />
				<InputWeight weight="-0.00026470341883055859" />
				<InputWeight weight="-0.24428027582110412" />
				<InputWeight weight="-0.14289145867145925" />
				<InputWeight weight="0.45332436277437571" />
				<InputWeight weight="0.59546409155484481" />
				<InputWeight weight="-0.31516380973710878" />
				<InputWeight weight="0.76218552867347977" />
				<InputWeight weight="0.28654872639573803" />
				<InputWeight weight="-0.24917653393394346" />
				<InputWeight weight="-0.48367420858629251" />
				<InputWeight weight="-0.22815182745545026" />
				<InputWeight weight="0.52023088552801688" />
				<InputWeight weight="-0.26672033846725907" />
				<InputWeight weight="-0.2184028170546648" />
				<InputWeight weight="-0.48862021679111567" />
				<InputWeight weight="-0.22098633882187568" />
				<InputWeight weight="0.89222950494630338" />
				<InputWeight weight="-0.0045635694399466242" />
				<InputWeight weight="0.49231700868263983" />
				<InputWeight weight="0.16627441079084115" />
				<InputWeight weight="0.68388831985803389" />
				<InputWeight weight="-0.3585887413548875" />
				<InputWeight weight="-0.27535496468484599" />
				<InputWeight weight="-0.32793722862197727" />
				<InputWeight weight="0.41806719108813084" />
				<InputWeight weight="0.76362886748707925" />
				<InputWeight weight="0.63675294987047693" />
				<InputWeight weight="0.46849504616651139" />
				<InputWeight weight="0.41906898899968748" />
				<InputWeight weight="-0.36012100590718432" />
				<InputWeight weight="0.13789298925999138" />
				<InputWeight weight="0.41715307496953424" />
				<InputWeight weight="-0.14981311285083343" />
				<InputWeight weight="-0.059126813561115044" />
				<InputWeight weight="0.20041008915020608" />
				<InputWeight weight="-0.024649643206295035" />
				<InputWeight weight="-0.3613334484405567" />
				<InputWeight weight="0.54985613592749649" />
				<InputWeight weight="0.25763732351365398" />
				<InputWeight weight="0.046759150355480283" />
				<InputWeight weight="-0.56264167317697733" />
				<InputWeight weight="0.17498875272118841" />
				<InputWeight weight="-0.49720256545148134" />
				<InputWeight weight="-0.76072295838273096" />
				<InputWeight weight="0.83390467042202254" />
				<InputWeight weight="0.4247188434548077" />
				<InputWeight weight="-0.18338105791397064" />
				<InputWeight weight="-0.16300606764153436" />
				<InputWeight weight="0.64626841502011967" />
				<InputWeight weight="0.15711142588442972" />
				<InputWeight weight="0.43075572627727121" />
				<InputWeight weight="-0.35950746714300885" />
				<InputWeight weight="-0.55491582641522152" />
				<InputWeight weight="0.38448087703101752" />
				<InputWeight weight="0.20922931288426749" />
				<InputWeight weight="-0.2110423076396587" />
				<InputWeight weight="-0.061613629326601527" />
				<InputWeight weight="0.56952794002910423" />
				<InputWeight weight="-0.54779293661954753" />
				<InputWeight weight="-0.58209285730189964" />
				<InputWeight weight="-0.64299536933259815" />
				<InputWeight weight="-0.43342887831339605" />
				<InputWeight weight="0.41916186924081233" />
				<InputWeight weight="0.56152815145778145" />
				<InputWeight weight="-0.18261577016683661" />
				<InputWeight weight="0.38347983402165897" />
				<InputWeight weight="-0.55567520786184188" />
				<InputWeight weight="0.43588349937104431" />
				<InputWeight weight="-0.68518383177851094" />
				<InputWeight weight="0.81566565513097133" />
				<InputWeight weight="-0.88042929031534212" />
				<InputWeight weight="-0.55496825314411447" />
				<InputWeight weight="-0.44720671975433923" />
				<InputWeight weight="-0.17082386246399528" />
				<InputWeight weight="-0.17823532094006378" />
				<InputWeight weight="0.58191879974761251" />
				<InputWeight weight="0.43398618795340305" />
				<InputWeight weight="0.56460696727385828" />
				<InputWeight weight="-0.4321937333602901" />
				<InputWeight weight="-0.23212762870800907" />
				<InputWeight weight="0.20731165148445463" />
				<InputWeight weight="-0.1847795873518242" />
				<InputWeight weight="0.017144975838645049" />
				<InputWeight weight="-0.055651186444766965" />
				<InputWeight weight="-0.045715375285359738" />
				<InputWeight weight="0.75379132627361933" />
				<InputWeight weight="0.50177035557009697" />
				<InputWeight weight="0.88890961064316953" />
				<InputWeight weight="-0.32497966765459585" />
				<InputWeight weight="-0.68799599715578053" />
				<InputWeight weight="0.55200043599029547" />
				<InputWeight weight="-0.54601954796500007" />
				<InputWeight weight="-0.47302574601826641" />
				<InputWeight weight="0.51079514067166709" />
				<InputWeight weight="0.018257767280355219" />
				<InputWeight weight="-0.37769944701070812" />
				<InputWeight weight="-0.39827395456482184" />
				<InputWeight weight="0.49662737039035809" />
				<InputWeight weight="-0.082422885437294702" />
				<InputWeight weight="0.3681196520246881" />
				<InputWeight weight="0.089822635436050957" />
				<InputWeight weight="0.35194173523146377" />
				<InputWeight weight="0.38967114580714313" />
				<InputWeight weight="-0.87684625897576618" />
				<InputWeight weight="-0.71786956424444881" />
				<InputWeight weight="-0.56997146600873261" />
				<InputWeight weight="0.42697802541892638" />
				<InputWeight weight="0.76665699272347743" />
				<InputWeight weight="0.32760148087061092" />
				<InputWeight weight="-0.69910991548316848" />
				<InputWeight weight="0.030334491432247868" />
				<InputWeight weight="-0.28559015066530169" />
				<InputWeight weight="0.10975579722011419" />
				<InputWeight weight="0.25307710634513003" />
				<InputWeight weight="0.90698782560620006" />
				<InputWeight weight="0.30435189019904296" />
				<InputWeight weight="-0.030496372469373534" />
				<InputWeight weight="0.65889502589269666" />
				<InputWeight weight="-0.12291548335486291" />
				<InputWeight weight="0.073263607267742836" />
				<InputWeight weight="-0.51898202847697472" />
				<InputWeight weight="-0.0045305725641883177" />
				<InputWeight weight="0.24841469585204679" />
				<InputWeight weight="0.51001606970085023" />
				<InputWeight weight="-0.21949456834040793" />
				<InputWeight weight="0.81672830718779377" />
				<InputWeight weight="0.39361363988704379" />
				<InputWeight weight="0.83278490867898625" />
				<InputWeight weight="0.57068307316091738" />
				<InputWeight weight="0.39588780773394716" />
				<InputWeight weight="0.77096516382848823" />
				<InputWeight weight="-0.086803711786717419" />
				<InputWeight weight="0.17000238955254576" />
				<InputWeight weight="-0.75446244654946082" />
				<InputWeight weight="-0.51709855178875075" />
				<InputWeight weight="-0.11380363421991713" />
				<InputWeight weight="0.83607859806892426" />
				<InputWeight weight="0.51729790867131253" />
				<InputWeight weight="0.63620839955494257" />
				<InputWeight weight="-0.3321763348617327" />
				<InputWeight weight="0.48722990555387224" />
				<InputWeight weight="-1" />
				<InputWeight weight="0.28101113994666527" />
				<InputWeight weight="-0.49284964061760972" />
				<InputWeight weight="0.83871874505303312" />
				<InputWeight weight="0.88045382087590141" />
				<InputWeight weight="-0.33233380034801596" />
				<InputWeight weight="0.018643109302199035" />
				<InputWeight weight="-0.12267990246926919" />
				<InputWeight weight="0.10451339587507613" />
				<InputWeight weight="0.62212468243373609" />
				<InputWeight weight="-0.048950263794685922" />
				<InputWeight weight="0.18578651239126254" />
				<InputWeight weight="0.76382152475905318" />
				<InputWeight weight="0.4377066389554447" />
				<InputWeight weight="-0.68029122574953482" />
				<InputWeight weight="-0.029647328329943101" />
				<InputWeight weight="0.30889409406478352" />
				<InputWeight weight="0.82106136099970373" />
				<InputWeight weight="0.47006769345325727" />
				<InputWeight weight="-0.11147922879160543" />
				<InputWeight weight="-0.20747961960336203" />
				<InputWeight weight="-0.60325668711492741" />
				<InputWeight weight="0.12392988169549635" />
				<InputWeight weight="0.02520018935406787" />
				<InputWeight weight="-0.29525284319737921" />
				<InputWeight weight="0.44957911468129486" />
				<InputWeight weight="0.41879289729112923" />
				<InputWeight weight="0.3506506034975041" />
				<InputWeight weight="-0.47025977156551479" />
				<InputWeight weight="-0.42785441282091141" />
				<InputWeight weight="0.6045244035317987" />
				<InputWeight weight="0.45126983194065295" />
				<InputWeight weight="-0.51383004536804999" />
				<InputWeight weight="0.72986513173864975" />
				<InputWeight weight="0.80927822247826997" />
				<InputWeight weight="0.85095823174682916" />
				<InputWeight weight="-0.21385893829908209" />
				<InputWeight weight="0.2352726479404561" />
				<InputWeight weight="0.64317076731470335" />
				<InputWeight weight="-0.50399237649547135" />
				<InputWeight weight="0.0081725184107739324" />
				<InputWeight weight="-0.55405647735272912" />
				<InputWeight weight="-0.30331961050365119" />
				<InputWeight weight="0.84616074775545513" />
				<InputWeight weight="1" />
				<InputWeight weight="-0.39408361750170151" />
				<InputWeight weight="0.52760678693211283" />
				<InputWeight weight="0.22487515726803342" />
				<InputWeight weight="0.39819859364788179" />
				<InputWeight weight="-0.24121421344153626" />
				<InputWeight weight="0.41373015317886086" />
				<InputWeight weight="0.65730105661059213" />
				<InputWeight weight="0.49528987602309771" />
				<InputWeight weight="-0.061222887018731686" />
				<InputWeight weight="0.43282386946414375" />
				<InputWeight weight="0.8716900933794054" />
				<InputWeight weight="0.30514332819286261" />
				<InputWeight weight="0.59562229453654902" />
				<InputWeight weight="0.95729979658780873" />
				<InputWeight weight="0.50302629005595989" />
				<InputWeight weight="0.62566367000211365" />
				<InputWeight weight="0.48661191688987215" />
				<InputWeight weight="-0.20877751043459569" />
				<InputWeight weight="-0.0080400114566963055" />
				<InputWeight weight="-0.83243994582748781" />
				<InputWeight weight="0.15169108620236726" />
				<InputWeight weight="-0.2600159802095201" />
				<InputWeight weight="-0.24208370436444648" />
				<InputWeight weight="0.062063982866917833" />
				<InputWeight weight="-0.29621952583427602" />
				<InputWeight weight="0.73772840800332284" />
				<InputWeight weight="0.38442093400702948" />
				<InputWeight weight="0.2796146307231071" />
				<InputWeight weight="-0.41634959341934175" />
				<InputWeight weight="0.16181899083992324" />
				<InputWeight weight="0.44036335116114067" />
				<InputWeight weight="0.50326634746858101" />
				<InputWeight weight="0.048529034713651775" />
				<InputWeight weight="-0.47240197062854028" />
				<InputWeight weight="-0.46779682628313002" />
				<InputWeight weight="0.83164782215270283" />
				<InputWeight weight="0.35718032746014727" />
				<InputWeight weight="0.21662570328882569" />
				<InputWeight weight="0.74503210158638833" />
				<InputWeight weight="0.43577932756387083" />
				<InputWeight weight="0.19716957191335638" />
				<InputWeight weight="-0.34071993385002108" />
				<InputWeight weight="-0.054557453278053059" />
				<InputWeight weight="0.40563003500809636" />
				<InputWeight weight="0.66207539603374777" />
				<InputWeight weight="0.19272324177006928" />
				<InputWeight weight="0.36870905335710602" />
				<InputWeight weight="0.20693480133979492" />
				<InputWeight weight="0.63856988634457146" />
				<InputWeight weight="-0.36548070606963778" />
				<InputWeight weight="0.20766929682656121" />
				<InputWeight weight="0.30841268535891309" />
				<InputWeight weight="-0.62769916073318055" />
				<InputWeight weight="0.13741617957018293" />
				<InputWeight weight="-0.089880202342178306" />
				<InputWeight weight="0.20895539891116321" />
				<InputWeight weight="0.19881885013372513" />
				<InputWeight weight="-0.41894845903089584" />
				<InputWeight weight="0.55165141329466438" />
				<InputWeight weight="-0.093118452927014594" />
				<InputWeight weight="0.71006293625308547" />
				<InputWeight weight="-0.010283189772641421" />
				<InputWeight weight="0.56837963089220667" />
				<InputWeight weight="0.78796008952026808" />
				<InputWeight weight="-0.24155346277259904" />
				<InputWeight weight="0.31458872392756887" />
				<InputWeight weight="0.18428659680153503" />
				<InputWeight weight="-0.57745655178019606" />
				<InputWeight weight="0.053900728832362965" />
				<InputWeight weight="-0.01365470921911538" />
				<InputWeight weight="0.51055630317263256" />
				<InputWeight weight="0.46272599038919471" />
				<InputWeight weight="-0.010785595330490838" />
				<InputWeight weight="0.60704065116206385" />
				<InputWeight weight="-0.022954001051607831" />
				<InputWeight weight="0.56572366980194433" />
				<InputWeight weight="0.58577693301629097" />
				<InputWeight weight="0.67696266380497039" />
				<InputWeight weight="-0.10340349207683097" />
				<InputWeight weight="-0.55535421923622741" />
				<InputWeight weight="0.8168901684866483" />
				<InputWeight weight="-0.56736203016200215" />
				<InputWeight weight="0.045695390663516466" />
				<InputWeight weight="-0.65003920430991879" />
				<InputWeight weight="0.43528739801532579" />
				<InputWeight weight="0.48196561928998549" />
				<InputWeight weight="0.86418144278153397" />
				<InputWeight weight="0.41324186087841008" />
				<InputWeight weight="0.45810905450345496" />
				<InputWeight weight="0.46050238018427803" />
				<InputWeight weight="-0.3294796002129925" />
				<InputWeight weight="0.60652958680680591" />
				<InputWeight weight="-0.27707011192853404" />
				<InputWeight weight="-0.30384925690808873" />
				<InputWeight weight="-0.31962047625840173" />
				<InputWeight weight="-0.020639571430758119" />
				<InputWeight weight="0.55323660054324764" />
				<InputWeight weight="0.65183390544286279" />
				<InputWeight weight="-0.43815354042287513" />
				<InputWeight weight="-0.41869208464713692" />
				<InputWeight weight="-0.48544881160657927" />
				<InputWeight weight="-0.077660979161044752" />
				<InputWeight weight="0.15483190458864016" />
				<InputWeight weight="0.60455041461751824" />
				<InputWeight weight="0.37273032768664827" />
				<InputWeight weight="-0.12237609502887126" />
				<InputWeight weight="-0.28977575656032606" />
				<InputWeight weight="0.054776605246358745" />
				<InputWeight weight="-0.49812121979294943" />
				<InputWeight weight="0.054798656072622576" />
				<InputWeight weight="-0.017858861179705032" />
				<InputWeight weight="0.53370025006328214" />
				<InputWeight weight="0.18914094854596897" />
				<InputWeight weight="-0.11791536901191035" />
				<InputWeight weight="0.62950489472365634" />
				<InputWeight weight="0.37920015726180401" />
				<InputWeight weight="-0.13634167680282905" />
				<InputWeight weight="0.5162875233415245" />
				<InputWeight weight="0.26642227919743" />
				<InputWeight weight="0.41788588009098482" />
				<InputWeight weight="0.60605855745573134" />
				<InputWeight weight="0.066426048580793484" />
				<InputWeight weight="0.94979035068829254" />
				<InputWeight weight="-0.23778126612841877" />
				<InputWeight weight="0.63442105575420893" />
				<InputWeight weight="-0.38324431651628421" />
				<InputWeight weight="-0.087133887760067585" />
				<InputWeight weight="0.22450608309906639" />
				<InputWeight weight="-0.31723350594350497" />
				<InputWeight weight="0.019082222494530399" />
				<InputWeight weight="-0.43814702069961919" />
				<InputWeight weight="0.35699473214427102" />
				<InputWeight weight="0.71539606576212655" />
				<InputWeight weight="0.2625469035788659" />
				<InputWeight weight="-0.33453981453206572" />
				<InputWeight weight="-0.11447857070757173" />
				<InputWeight weight="0.54055591980902151" />
				<InputWeight weight="0.38903481856972055" />
				<InputWeight weight="-0.048030577564280974" />
				<InputWeight weight="0.83979242319686387" />
				<InputWeight weight="0.30673056468861448" />
				<InputWeight weight="0.68961029088128933" />
				<InputWeight weight="0.31603346181304559" />
				<InputWeight weight="-0.46412403347041598" />
				<InputWeight weight="-0.2261062675009915" />
				<InputWeight weight="-0.58186577408257789" />
				<InputWeight weight="-0.50093269785660821" />
				<InputWeight weight="0.09478433899234151" />
				<InputWeight weight="0.74987857468396757" />
				<InputWeight weight="-0.037138259546629304" />
				<InputWeight weight="0.59123557656397319" />
				<InputWeight weight="0.51602777421577173" />
				<InputWeight weight="0.83296465472357806" />
				<InputWeight weight="-0.19524430989890418" />
				<InputWeight weight="0.68354496239730667" />
				<InputWeight weight="0.65973317975351753" />
				<InputWeight weight="-0.54126819306699747" />
				<InputWeight weight="0.11451590065452422" />
				<InputWeight weight="-0.45294867619736001" />
				<InputWeight weight="-0.43753172625063141" />
				<InputWeight weight="-0.060412967347695967" />
				<InputWeight weight="0.086314124738561482" />
				<InputWeight weight="0.1387205033412735" />
				<InputWeight weight="0.10554102053152681" />
				<InputWeight weight="0.45898602278403589" />
				<InputWeight weight="0.199367118321649" />
				<InputWeight weight="0.53898566002527115" />
				<InputWeight weight="0.40702876959313206" />
				<InputWeight weight="0.33342377431890746" />
				<InputWeight weight="0.63077575276799402" />
				<InputWeight weight="0.55205403420143773" />
				<InputWeight weight="0.6486378892757132" />
				<InputWeight weight="-0.048717337380387749" />
				<InputWeight weight="0.24850549299180669" />
				<InputWeight weight="0.6854536405611662" />
				<InputWeight weight="-0.60571566151943212" />
				<InputWeight weight="0.51405953083967093" />
				<InputWeight weight="0.31223090630503147" />
				<InputWeight weight="0.56710936863888461" />
				<InputWeight weight="0.71344246434662351" />
				<InputWeight weight="-0.048813971205472595" />
				<InputWeight weight="0.55490474678033852" />
				<InputWeight weight="0.45357058164148389" />
				<InputWeight weight="0.16947935988931029" />
				<InputWeight weight="0.73467974054671092" />
				<InputWeight weight="-0.029057518924841319" />
				<InputWeight weight="-0.060276595302085512" />
				<InputWeight weight="0.47460227440607894" />
				<InputWeight weight="0.64635950127178177" />
				<InputWeight weight="-0.63304579281025208" />
				<InputWeight weight="0.37834716431374193" />
				<InputWeight weight="0.16081837736982196" />
				<InputWeight weight="0.65383948083181043" />
				<InputWeight weight="-0.21914687022053181" />
				<InputWeight weight="-0.34679649900622866" />
				<InputWeight weight="0.54683765430029263" />
				<InputWeight weight="0.16602544135319719" />
				<InputWeight weight="-0.45082717670368511" />
				<InputWeight weight="0.5551508785381809" />
				<InputWeight weight="0.57082126167844116" />
				<InputWeight weight="0.5875065160818651" />
				<InputWeight weight="0.78282420039602885" />
				<InputWeight weight="0.50463719019739806" />
				<InputWeight weight="-0.029277204750978503" />
				<InputWeight weight="0.28395024869665875" />
				<InputWeight weight="0.79239981692387684" />
				<InputWeight weight="-0.15107552684267211" />
				<InputWeight weight="-0.40825594755130146" />
				<InputWeight weight="0.8465926036821847" />
				<InputWeight weight="0.74480228506235013" />
				<InputWeight weight="0.01670340976159812" />
				<InputWeight weight="0.78361208396911675" />
				<InputWeight weight="-0.47584021872291937" />
				<InputWeight weight="0.51694371234551717" />
				<InputWeight weight="-0.21290073979143387" />
				<InputWeight weight="-0.070231585732761559" />
				<InputWeight weight="-0.30406544206371744" />
				<InputWeight weight="0.94074393510876297" />
				<InputWeight weight="-0.41360552755122448" />
				<InputWeight weight="0.835818231727397" />
				<InputWeight weight="-0.27411299941458445" />
				<InputWeight weight="0.44038166964844128" />
				<InputWeight weight="0.3831081447528657" />
				<InputWeight weight="-0.57590077526354244" />
				<InputWeight weight="0.13121162995296198" />
				<InputWeight weight="-0.17196478822968086" />
				<InputWeight weight="-0.4916054968744521" />
				<InputWeight weight="-0.063813874944773308" />
				<InputWeight weight="0.019587186498760456" />
				<InputWeight weight="-0.27133028882188448" />
				<InputWeight weight="-0.17824133242378271" />
				<InputWeight weight="0.90807688455964031" />
				<InputWeight weight="-0.49281604312006588" />
				<InputWeight weight="0.72979868114200697" />
				<InputWeight weight="0.76532281063008956" />
				<InputWeight weight="0.84572975323200317" />
				<InputWeight weight="0.60145889808792097" />
				<InputWeight weight="0.53233493886366112" />
				<InputWeight weight="0.24936119008938173" />
				<InputWeight weight="0.76328659287900491" />
				<InputWeight weight="0.58209913303941652" />
				<InputWeight weight="0.24854697471733922" />
				<InputWeight weight="0.73457327890667168" />
				<InputWeight weight="-0.027366039660926877" />
				<InputWeight weight="0.045321247889807736" />
				<InputWeight weight="0.9139604331917992" />
				<InputWeight weight="-0.60625153052874392" />
				<InputWeight weight="-0.18449659816943476" />
				<InputWeight weight="0.81258538162565541" />
				<InputWeight weight="0.8909263185167513" />
				<InputWeight weight="0.91718674944627598" />
				<InputWeight weight="0.6279054382859135" />
				<InputWeight weight="0.49378395504028871" />
				<InputWeight weight="-0.10359517719912603" />
				<InputWeight weight="0.32787488999027214" />
				<InputWeight weight="0.90891253306631925" />
				<InputWeight weight="0.73891804630821323" />
				<InputWeight weight="-0.50429205484513295" />
				<InputWeight weight="0.09155565057604953" />
				<InputWeight weight="-0.48954963613045055" />
				<InputWeight weight="-0.41243978435781292" />
				<InputWeight weight="0.21491770117377551" />
				<InputWeight weight="-0.091937390685564502" />
				<InputWeight weight="0.57866459716855756" />
				<InputWeight weight="-0.35853984973241504" />
				<InputWeight weight="0.26220906414819423" />
				<InputWeight weight="-0.50766324141547314" />
				<InputWeight weight="-0.022734865596281795" />
				<InputWeight weight="0.00069023819823943455" />
				<InputWeight weight="-0.51534365922973291" />
				<InputWeight weight="0.30048003557736314" />
				<InputWeight weight="0.17400879081395959" />
				<InputWeight weight="-0.41081404173301816" />
				<InputWeight weight="-0.18835081248889207" />
				<InputWeight weight="-0.46307165751963941" />
				<InputWeight weight="0.88777695888900654" />
				<InputWeight weight="-0.35872418787620408" />
				<InputWeight weight="-0.47527125549814242" />
				<InputWeight weight="-0.38615269311529721" />
				<InputWeight weight="0.25696436983041426" />
				<InputWeight weight="0.76319532858913108" />
				<InputWeight weight="0.18402094419595039" />
				<InputWeight weight="0.60876401681495951" />
				<InputWeight weight="-0.041574635196763743" />
				<InputWeight weight="-0.36537783907554466" />
				<InputWeight weight="-0.4177548049076063" />
				<InputWeight weight="0.74295114203079748" />
				<InputWeight weight="-0.15631174694339223" />
				<InputWeight weight="0.51796853059840497" />
				<InputWeight weight="-0.032478207154375327" />
				<InputWeight weight="-0.11027751592662538" />
				<InputWeight weight="-0.20902173358078213" />
				<InputWeight weight="0.21805865080858666" />
				<InputWeight weight="0.22206998890585661" />
				<InputWeight weight="0.15368436896954751" />
				<InputWeight weight="-0.20898735919172784" />
				<InputWeight weight="0.59216623738622953" />
				<InputWeight weight="-0.47106897731372244" />
				<InputWeight weight="0.53926611543741387" />
				<InputWeight weight="0.42143592060153501" />
				<InputWeight weight="0.74861059199946478" />
				<InputWeight weight="0.67096820268366786" />
				<InputWeight weight="-0.3643666418715924" />
				<InputWeight weight="-0.42559660286847789" />
				<InputWeight weight="0.43408292649491664" />
				<InputWeight weight="-0.20640476433152433" />
				<InputWeight weight="-0.20362259974090424" />
				<InputWeight weight="0.60354716041141687" />
				<InputWeight weight="0.072514167413152197" />
				<InputWeight weight="0.72516838828899188" />
				<InputWeight weight="0.33285107023128568" />
				<InputWeight weight="-0.20421871582880458" />
				<InputWeight weight="0.38085164031039254" />
				<InputWeight weight="0.51076710230951194" />
				<InputWeight weight="0.21252152585872053" />
				<InputWeight weight="0.71599594106962972" />
				<InputWeight weight="0.85435155230713011" />
				<InputWeight weight="-0.32043401191089704" />
				<InputWeight weight="0.68040506768995979" />
				<InputWeight weight="-0.33824330759516141" />
				<InputWeight weight="0.023430742746068045" />
				<InputWeight weight="-0.28746713314458072" />
				<InputWeight weight="-0.15888189512214446" />
				<InputWeight weight="-0.46226762973513269" />
				<InputWeight weight="0.8245686409904085" />
				<InputWeight weight="-0.26189651581620954" />
				<InputWeight weight="0.16058577447385347" />
				<InputWeight weight="-0.40140463833530782" />
				<InputWeight weight="0.22052722344445352" />
				<InputWeight weight="0.36441732344673339" />
				<InputWeight weight="-0.49472161321778541" />
				<InputWeight weight="0.14398266611001942" />
				<InputWeight weight="0.21488142898658746" />
				<InputWeight weight="-0.4953868952275462" />
				<InputWeight weight="-0.42284967926297967" />
				<InputWeight weight="-0.1325589749835927" />
				<InputWeight weight="0.039231079948785386" />
				<InputWeight weight="0.1962418824906238" />
				<InputWeight weight="0.90757711558073884" />
				<InputWeight weight="-0.029624124766669646" />
				<InputWeight weight="0.50158966138639993" />
				<InputWeight weight="0.55559671062753813" />
				<InputWeight weight="-0.3613062718196185" />
				<InputWeight weight="0.74359616524443495" />
				<InputWeight weight="0.0161624006461345" />
				<InputWeight weight="0.03195028075277806" />
				<InputWeight weight="-0.25808254109733797" />
				<InputWeight weight="-0.39087500322481339" />
				<InputWeight weight="0.73601503155937698" />
				<InputWeight weight="0.87656213695324592" />
				<InputWeight weight="0.071162635266056373" />
				<InputWeight weight="-0.45623492468936178" />
				<InputWeight weight="-0.54374401497957159" />
				<InputWeight weight="0.28557330265035663" />
				<InputWeight weight="0.4517312726458409" />
				<InputWeight weight="0.1488538014043379" />
				<InputWeight weight="-0.58622139705073373" />
				<InputWeight weight="-0.46071631992993312" />
				<InputWeight weight="0.44592173622825482" />
				<InputWeight weight="-0.22588988656920395" />
				<InputWeight weight="-0.22794860846320908" />
				<InputWeight weight="-0.60132330529890887" />
				<InputWeight weight="0.5876652584234856" />
				<InputWeight weight="0.6744490428064136" />
				<InputWeight weight="-0.18619926137288456" />
				<InputWeight weight="0.20457786838568448" />
				<InputWeight weight="0.036110331333377488" />
				<InputWeight weight="0.72713135514795546" />
				<InputWeight weight="0.66748791539524088" />
				<InputWeight weight="-0.2679745638426555" />
				<InputWeight weight="0.10286513657620144" />
				<InputWeight weight="0.82180134309934916" />
				<InputWeight weight="0.65257782023992528" />
			</Inputs>
		</Neuron>
		<Neuron>
			<ActivationFunction function="1" param="5" />
			<Bias use="1" weight="-1" />
			<Inputs inputCount="1024">
				<InputWeight weight="-0.22009502568591666" />
				<InputWeight weight="0.80756642984099258" />
				<InputWeight weight="0.49185719421305762" />
				<InputWeight weight="-0.17253804266086448" />
				<InputWeight weight="0.61345562640477547" />
				<InputWeight weight="-0.59421429005179216" />
				<InputWeight weight="0.61195212738533278" />
				<InputWeight weight="0.46557055123552926" />
				<InputWeight weight="-0.34331208730683349" />
				<InputWeight weight="0.44573331147487805" />
				<InputWeight weight="0.79496111751568344" />
				<InputWeight weight="0.71314094208290379" />
				<InputWeight weight="-0.37362143030660577" />
				<InputWeight weight="-0.13970692160530751" />
				<InputWeight weight="-0.01795180725868506" />
				<InputWeight weight="-0.15681052386242589" />
				<InputWeight weight="-0.53702499175228235" />
				<InputWeight weight="0.99506973659073306" />
				<InputWeight weight="0.1122450425339403" />
				<InputWeight weight="0.241504808889347" />
				<InputWeight weight="0.22888023558688086" />
				<InputWeight weight="-0.40383034064702206" />
				<InputWeight weight="0.67365393688980535" />
				<InputWeight weight="0.20106248543918825" />
				<InputWeight weight="0.055923621798039891" />
				<InputWeight weight="-0.13282430138609103" />
				<InputWeight weight="0.53626216289818851" />
				<InputWeight weight="0.17175006021577666" />
				<InputWeight weight="0.0071023391676852121" />
				<InputWeight weight="0.98694661001579931" />
				<InputWeight weight="0.043326194596698286" />
				<InputWeight weight="0.17307267732387888" />
				<InputWeight weight="0.44291997369970382" />
				<InputWeight weight="-0.012119617394163451" />
				<InputWeight weight="-0.24907739362407744" />
				<InputWeight weight="0.033959169844948844" />
				<InputWeight weight="0.91934157110067272" />
				<InputWeight weight="0.53006309630996662" />
				<InputWeight weight="0.41399848614809054" />
				<InputWeight weight="0.1125861554254437" />
				<InputWeight weight="0.44556415913047132" />
				<InputWeight weight="0.60672223635996958" />
				<InputWeight weight="-0.22208592065285204" />
				<InputWeight weight="-0.12738065034609836" />
				<InputWeight weight="-0.57857101002054101" />
				<InputWeight weight="0.10730961918359694" />
				<InputWeight weight="-0.069296768674257159" />
				<InputWeight weight="-0.36476758276877197" />
				<InputWeight weight="0.51981039422243835" />
				<InputWeight weight="0.81280384566891972" />
				<InputWeight weight="0.6436484681620962" />
				<InputWeight weight="-0.32472944415559224" />
				<InputWeight weight="0.56698236521353751" />
				<InputWeight weight="-0.27923003377700295" />
				<InputWeight weight="0.23549582161149307" />
				<InputWeight weight="0.37882042432258345" />
				<InputWeight weight="0.44591567221397521" />
				<InputWeight weight="0.78914495487590308" />
				<InputWeight weight="0.64682966327677849" />
				<InputWeight weight="-0.28644033419299597" />
				<InputWeight weight="0.035658796643640356" />
				<InputWeight weight="0.76464746716167675" />
				<InputWeight weight="-0.47405495717236545" />
				<InputWeight weight="-0.54884078590487873" />
				<InputWeight weight="0.64510746125782892" />
				<InputWeight weight="-0.051959729218454931" />
				<InputWeight weight="0.15207496261244047" />
				<InputWeight weight="0.98091310975097046" />
				<InputWeight weight="0.47710651404713267" />
				<InputWeight weight="-0.17157843637963399" />
				<InputWeight weight="0.5355004497701874" />
				<InputWeight weight="0.77519605507884637" />
				<InputWeight weight="0.79290099495615096" />
				<InputWeight weight="0.41371489178928234" />
				<InputWeight weight="0.58390408059867438" />
				<InputWeight weight="-0.045879223138799108" />
				<InputWeight weight="0.57850836388628757" />
				<InputWeight weight="-0.080085349692473717" />
				<InputWeight weight="0.96513080859971745" />
				<InputWeight weight="0.84104092089809912" />
				<InputWeight weight="0.65397476821498857" />
				<InputWeight weight="0.17108546437780303" />
				<InputWeight weight="0.32376145696486169" />
				<InputWeight weight="0.25294942421426936" />
				<InputWeight weight="-0.12829227689569211" />
				<InputWeight weight="0.2204228470706715" />
				<InputWeight weight="-0.11170785061101163" />
				<InputWeight weight="0.97646644449443176" />
				<InputWeight weight="-0.41748228159690115" />
				<InputWeight weight="-0.096497619815307356" />
				<InputWeight weight="0.60584968258770733" />
				<InputWeight weight="0.14907629754888863" />
				<InputWeight weight="-0.19452033752259956" />
				<InputWeight weight="0.45910298241936887" />
				<InputWeight weight="0.081149754287417997" />
				<InputWeight weight="-0.47094410725844371" />
				<InputWeight weight="0.57176482545499718" />
				<InputWeight weight="-0.037919908886407838" />
				<InputWeight weight="-0.532622658472649" />
				<InputWeight weight="0.19926948470202976" />
				<InputWeight weight="0.51525370733001252" />
				<InputWeight weight="-0.57042845716550727" />
				<InputWeight weight="-0.2195000179371438" />
				<InputWeight weight="0.59059354810012143" />
				<InputWeight weight="-0.44272314757802667" />
				<InputWeight weight="0.57282314682046764" />
				<InputWeight weight="0.56894922963912964" />
				<InputWeight weight="-0.58255032104752202" />
				<InputWeight weight="-0.29427471653134962" />
				<InputWeight weight="0.4596047820359368" />
				<InputWeight weight="0.81617946271546327" />
				<InputWeight weight="0.1581744110354828" />
				<InputWeight weight="0.010645585041143102" />
				<InputWeight weight="0.27991658054653112" />
				<InputWeight weight="-0.35595808198819867" />
				<InputWeight weight="-0.55447243801357937" />
				<InputWeight weight="0.56112892994906116" />
				<InputWeight weight="-0.34838445877725843" />
				<InputWeight weight="0.92846718390355143" />
				<InputWeight weight="-0.41077118237125143" />
				<InputWeight weight="0.94081804498383947" />
				<InputWeight weight="0.6939261994078636" />
				<InputWeight weight="0.8932166730424087" />
				<InputWeight weight="-0.30434058198879022" />
				<InputWeight weight="0.58969818173823052" />
				<InputWeight weight="0.81902715302535212" />
				<InputWeight weight="0.36768670689330252" />
				<InputWeight weight="0.28968168581917908" />
				<InputWeight weight="0.27030437486917047" />
				<InputWeight weight="0.32285025745366736" />
				<InputWeight weight="-0.54251020517419701" />
				<InputWeight weight="0.5355866328185781" />
				<InputWeight weight="0.92506622879587286" />
				<InputWeight weight="0.072333408675500088" />
				<InputWeight weight="0.49449773028395128" />
				<InputWeight weight="-0.30147272177523543" />
				<InputWeight weight="0.38003566901295893" />
				<InputWeight weight="-0.16609519344841628" />
				<InputWeight weight="0.47533089320864375" />
				<InputWeight weight="0.38850107931719946" />
				<InputWeight weight="-0.23045215134047714" />
				<InputWeight weight="0.036078409089250085" />
				<InputWeight weight="-0.30949169198575388" />
				<InputWeight weight="0.75380819953460509" />
				<InputWeight weight="0.23346516430767816" />
				<InputWeight weight="-0.55727853668508165" />
				<InputWeight weight="0.61468597441359796" />
				<InputWeight weight="0.18752033592229478" />
				<InputWeight weight="0.099856315049899003" />
				<InputWeight weight="0.051903712303182248" />
				<InputWeight weight="-0.0051739126498422383" />
				<InputWeight weight="-0.20646695746251398" />
				<InputWeight weight="0.40126299973899027" />
				<InputWeight weight="-0.13006786303853868" />
				<InputWeight weight="-0.026485901410115642" />
				<InputWeight weight="-0.54083912855534355" />
				<InputWeight weight="0.15250342093735259" />
				<InputWeight weight="0.45585727640727658" />
				<InputWeight weight="-0.070358609045712339" />
				<InputWeight weight="-0.31758154619662038" />
				<InputWeight weight="0.68639766470762686" />
				<InputWeight weight="-0.033563377512740411" />
				<InputWeight weight="0.84705624740313601" />
				<InputWeight weight="0.24734385161232386" />
				<InputWeight weight="-0.059962559984215402" />
				<InputWeight weight="0.36920466453440115" />
				<InputWeight weight="-0.58560999326833563" />
				<InputWeight weight="0.49266273472996835" />
				<InputWeight weight="0.27816227597128496" />
				<InputWeight weight="0.92378388011318457" />
				<InputWeight weight="0.48008470743624909" />
				<InputWeight weight="-0.48493338573019396" />
				<InputWeight weight="-0.11442933361629404" />
				<InputWeight weight="0.24751448570921086" />
				<InputWeight weight="-0.44334592197572731" />
				<InputWeight weight="0.51504866301189134" />
				<InputWeight weight="-0.0050811998371631528" />
				<InputWeight weight="-0.2708038815641729" />
				<InputWeight weight="0.64866185502601104" />
				<InputWeight weight="0.82503786516488065" />
				<InputWeight weight="0.71969979014878915" />
				<InputWeight weight="-0.12305070993602163" />
				<InputWeight weight="0.26717774662677596" />
				<InputWeight weight="0.99778351965908474" />
				<InputWeight weight="0.97656319606242348" />
				<InputWeight weight="0.16231058592809022" />
				<InputWeight weight="0.050224985821271995" />
				<InputWeight weight="-0.28112408736279715" />
				<InputWeight weight="0.13366252234572396" />
				<InputWeight weight="0.45571687870437705" />
				<InputWeight weight="0.71173842403328891" />
				<InputWeight weight="0.68169606514105752" />
				<InputWeight weight="-0.29046903756172771" />
				<InputWeight weight="-0.039249606823640093" />
				<InputWeight weight="-0.52993982318751076" />
				<InputWeight weight="-0.48034985955180953" />
				<InputWeight weight="0.0077786291839649913" />
				<InputWeight weight="0.96504104955202297" />
				<InputWeight weight="-0.56781928528852932" />
				<InputWeight weight="0.49614909431844834" />
				<InputWeight weight="0.62318106284352526" />
				<InputWeight weight="0.83592263830987013" />
				<InputWeight weight="-0.17347429191437402" />
				<InputWeight weight="0.77800201735361041" />
				<InputWeight weight="-0.55682953697331228" />
				<InputWeight weight="0.020208244853834101" />
				<InputWeight weight="0.8440076185619525" />
				<InputWeight weight="0.78499121776487013" />
				<InputWeight weight="-0.3100606988923722" />
				<InputWeight weight="0.92473432697188285" />
				<InputWeight weight="0.80920143731654881" />
				<InputWeight weight="0.93862825656967352" />
				<InputWeight weight="-0.59204718738988271" />
				<InputWeight weight="-0.46901331706787308" />
				<InputWeight weight="0.11397824374684462" />
				<InputWeight weight="0.87239031844410175" />
				<InputWeight weight="-0.57791145874154215" />
				<InputWeight weight="-0.32637409234172154" />
				<InputWeight weight="0.54377979404132248" />
				<InputWeight weight="0.82534228301511026" />
				<InputWeight weight="0.87933309268437232" />
				<InputWeight weight="0.345925568421384" />
				<InputWeight weight="0.55047117887957575" />
				<InputWeight weight="0.15060812862490791" />
				<InputWeight weight="0.36950928741354994" />
				<InputWeight weight="0.48413606039170887" />
				<InputWeight weight="-0.18398883832517876" />
				<InputWeight weight="0.16754785961896568" />
				<InputWeight weight="0.30293558942070309" />
				<InputWeight weight="0.79288384852112603" />
				<InputWeight weight="0.13444215161804429" />
				<InputWeight weight="0.49294531014671561" />
				<InputWeight weight="0.69517240777092693" />
				<InputWeight weight="0.090138289888971546" />
				<InputWeight weight="0.24767521195228825" />
				<InputWeight weight="-0.120851243495668" />
				<InputWeight weight="0.79346153283917986" />
				<InputWeight weight="0.96956372913340361" />
				<InputWeight weight="0.55092538589098794" />
				<InputWeight weight="0.57465516080413992" />
				<InputWeight weight="0.040226872009737402" />
				<InputWeight weight="0.70523869010461326" />
				<InputWeight weight="0.39927700326413995" />
				<InputWeight weight="0.17697560487518493" />
				<InputWeight weight="0.32608119432191796" />
				<InputWeight weight="0.90455879927152449" />
				<InputWeight weight="-0.37264969344190557" />
				<InputWeight weight="0.20892892502412841" />
				<InputWeight weight="0.26372211431263959" />
				<InputWeight weight="0.38608747679542632" />
				<InputWeight weight="-0.40258604882719384" />
				<InputWeight weight="-0.57851785873379347" />
				<InputWeight weight="0.81811183352423211" />
				<InputWeight weight="0.66878940996961833" />
				<InputWeight weight="0.22067567164116553" />
				<InputWeight weight="0.87583821428848929" />
				<InputWeight weight="-0.11461313101044623" />
				<InputWeight weight="0.30750111727084595" />
				<InputWeight weight="0.99955356215131741" />
				<InputWeight weight="0.032586432461794157" />
				<InputWeight weight="0.56332742373487976" />
				<InputWeight weight="0.38428341942256838" />
				<InputWeight weight="0.75880805601761203" />
				<InputWeight weight="-0.54010079161873015" />
				<InputWeight weight="0.10880600694272324" />
				<InputWeight weight="-0.13308979769604079" />
				<InputWeight weight="0.37881363136838964" />
				<InputWeight weight="0.89443327432956954" />
				<InputWeight weight="-0.42752862212880527" />
				<InputWeight weight="-0.42042596904150975" />
				<InputWeight weight="0.85415298022551012" />
				<InputWeight weight="-0.23693687999133628" />
				<InputWeight weight="-0.37670152927617295" />
				<InputWeight weight="0.92742862554905781" />
				<InputWeight weight="0.62129602649838289" />
				<InputWeight weight="0.32318795589380689" />
				<InputWeight weight="0.11049551017126702" />
				<InputWeight weight="-0.5758319566395721" />
				<InputWeight weight="0.48334064086327189" />
				<InputWeight weight="0.5858067977462238" />
				<InputWeight weight="-0.59278182292695192" />
				<InputWeight weight="0.70270494684965668" />
				<InputWeight weight="-0.51292314632083857" />
				<InputWeight weight="0.97903215027068047" />
				<InputWeight weight="-0.57833707700360981" />
				<InputWeight weight="0.70674259900248182" />
				<InputWeight weight="0.28139576457857141" />
				<InputWeight weight="-0.47383343227936359" />
				<InputWeight weight="-0.48125831054136869" />
				<InputWeight weight="0.39719277774177986" />
				<InputWeight weight="0.67716914406352569" />
				<InputWeight weight="0.68645733879629778" />
				<InputWeight weight="0.17436379031384597" />
				<InputWeight weight="-0.098255294073145372" />
				<InputWeight weight="0.38297126795460845" />
				<InputWeight weight="0.02911074951631476" />
				<InputWeight weight="-0.34351029826508828" />
				<InputWeight weight="-0.49050876515021458" />
				<InputWeight weight="0.83924019316906451" />
				<InputWeight weight="0.062278691517834606" />
				<InputWeight weight="0.54524117705773878" />
				<InputWeight weight="0.36307656992284043" />
				<InputWeight weight="0.1420406562101455" />
				<InputWeight weight="-0.23444121847139054" />
				<InputWeight weight="0.52566916742962766" />
				<InputWeight weight="0.9212262321499729" />
				<InputWeight weight="0.27060647811595562" />
				<InputWeight weight="0.91588094498931905" />
				<InputWeight weight="-0.15077341408267775" />
				<InputWeight weight="0.79630100270469617" />
				<InputWeight weight="-0.30693684729972537" />
				<InputWeight weight="0.26419854326634251" />
				<InputWeight weight="-0.29412369434115559" />
				<InputWeight weight="0.76231311308113869" />
				<InputWeight weight="-0.13491364475935996" />
				<InputWeight weight="0.70525116878359984" />
				<InputWeight weight="0.5012137735304425" />
				<InputWeight weight="0.22269795280006166" />
				<InputWeight weight="0.05722160236542484" />
				<InputWeight weight="0.23058089803956294" />
				<InputWeight weight="-0.062693237033853544" />
				<InputWeight weight="-0.18209063590183416" />
				<InputWeight weight="0.88190155786068836" />
				<InputWeight weight="-0.28077063037816552" />
				<InputWeight weight="0.86102119183474235" />
				<InputWeight weight="0.857947195330232" />
				<InputWeight weight="0.46027166612257697" />
				<InputWeight weight="0.35384083183966442" />
				<InputWeight weight="-0.5820701652688316" />
				<InputWeight weight="0.22091095370632052" />
				<InputWeight weight="0.018739461851809303" />
				<InputWeight weight="0.28350080639902342" />
				<InputWeight weight="0.1405673006268755" />
				<InputWeight weight="-0.36283560705116247" />
				<InputWeight weight="0.7685424854192866" />
				<InputWeight weight="-0.063482866951205641" />
				<InputWeight weight="-0.19748758285140766" />
				<InputWeight weight="0.67826817006782214" />
				<InputWeight weight="0.63171995005367454" />
				<InputWeight weight="0.98794258593148987" />
				<InputWeight weight="-0.22825035011311379" />
				<InputWeight weight="0.63346640527631637" />
				<InputWeight weight="0.37283116723258769" />
				<InputWeight weight="0.057989633089136516" />
				<InputWeight weight="0.89302436933757012" />
				<InputWeight weight="0.20234143418154149" />
				<InputWeight weight="-0.14090635741372737" />
				<InputWeight weight="0.15538446059236843" />
				<InputWeight weight="0.68323094570259002" />
				<InputWeight weight="-0.34451032066926268" />
				<InputWeight weight="0.33951640057014609" />
				<InputWeight weight="0.79713736100084986" />
				<InputWeight weight="-0.25321624379097152" />
				<InputWeight weight="-0.21319062261644184" />
				<InputWeight weight="0.53135755132168883" />
				<InputWeight weight="0.9286582652380202" />
				<InputWeight weight="0.23545334989406053" />
				<InputWeight weight="-0.56154661619883783" />
				<InputWeight weight="0.71253373008720966" />
				<InputWeight weight="-0.3645573304678662" />
				<InputWeight weight="-0.20891970975800478" />
				<InputWeight weight="0.95163859991787003" />
				<InputWeight weight="0.020510893938243235" />
				<InputWeight weight="0.76065777196989637" />
				<InputWeight weight="0.46236707689651868" />
				<InputWeight weight="-0.41712131608965186" />
				<InputWeight weight="-0.39912742876141083" />
				<InputWeight weight="-0.14685231250335251" />
				<InputWeight weight="0.91208835772015995" />
				<InputWeight weight="-0.38058846369006982" />
				<InputWeight weight="-0.063758244391033281" />
				<InputWeight weight="0.24328063514044129" />
				<InputWeight weight="-0.39527654487536612" />
				<InputWeight weight="-0.39549383067979949" />
				<InputWeight weight="0.013548589322455395" />
				<InputWeight weight="-0.15809540640462538" />
				<InputWeight weight="-0.2528733619567739" />
				<InputWeight weight="0.85288102068215466" />
				<InputWeight weight="-0.3095198775217195" />
				<InputWeight weight="0.16900946459763966" />
				<InputWeight weight="0.63609967632062059" />
				<InputWeight weight="-0.095713956339473105" />
				<InputWeight weight="-0.5652966147604388" />
				<InputWeight weight="-0.036701833045156507" />
				<InputWeight weight="0.58541664690968931" />
				<InputWeight weight="0.4655258654565253" />
				<InputWeight weight="0.86990401068613776" />
				<InputWeight weight="-0.069962832797047847" />
				<InputWeight weight="-0.092333293142500161" />
				<InputWeight weight="-0.32197661230648433" />
				<InputWeight weight="0.28415609489899474" />
				<InputWeight weight="-0.11861210392823607" />
				<InputWeight weight="-0.40329113677234074" />
				<InputWeight weight="0.015511225347013324" />
				<InputWeight weight="-0.060858827646316449" />
				<InputWeight weight="-0.56996231264227104" />
				<InputWeight weight="-0.3168262945605036" />
				<InputWeight weight="-0.37248024145587377" />
				<InputWeight weight="0.74006249444258887" />
				<InputWeight weight="0.85592190397407397" />
				<InputWeight weight="-0.11395514794767392" />
				<InputWeight weight="-0.42419603536686568" />
				<InputWeight weight="0.09510242259831303" />
				<InputWeight weight="0.44017978608254493" />
				<InputWeight weight="0.019506954501010698" />
				<InputWeight weight="0.20813573345550673" />
				<InputWeight weight="0.42006373904674499" />
				<InputWeight weight="0.47491011544242667" />
				<InputWeight weight="0.82239930836749431" />
				<InputWeight weight="-0.11828238201192931" />
				<InputWeight weight="0.0061248620589682279" />
				<InputWeight weight="0.73668436079864041" />
				<InputWeight weight="-0.20110867241853247" />
				<InputWeight weight="0.1977424353087569" />
				<InputWeight weight="0.14274698734118063" />
				<InputWeight weight="-0.35322687535466912" />
				<InputWeight weight="0.34508864493158176" />
				<InputWeight weight="0.49712388461631707" />
				<InputWeight weight="-0.21878962383880862" />
				<InputWeight weight="-0.11268798531500124" />
				<InputWeight weight="-0.15664594745358806" />
				<InputWeight weight="0.55985380929175643" />
				<InputWeight weight="0.36715010966883366" />
				<InputWeight weight="0.16108491285830895" />
				<InputWeight weight="0.22424514644224836" />
				<InputWeight weight="0.70671239902946703" />
				<InputWeight weight="-0.0069905454193636141" />
				<InputWeight weight="0.39336781282679345" />
				<InputWeight weight="-0.38007729081504449" />
				<InputWeight weight="0.73841385044414487" />
				<InputWeight weight="0.097840338732936294" />
				<InputWeight weight="-0.27961783458073741" />
				<InputWeight weight="0.10405496752663068" />
				<InputWeight weight="0.49151183564299505" />
				<InputWeight weight="0.43893007992630584" />
				<InputWeight weight="0.4970099681423561" />
				<InputWeight weight="0.35174571137101673" />
				<InputWeight weight="0.80769054757266079" />
				<InputWeight weight="-0.18471419537047162" />
				<InputWeight weight="0.88927621529986478" />
				<InputWeight weight="0.49355721387703078" />
				<InputWeight weight="0.40808166121607603" />
				<InputWeight weight="-0.48517057250811246" />
				<InputWeight weight="-0.0043742407606824907" />
				<InputWeight weight="-0.5479673581986455" />
				<InputWeight weight="0.35463194749717952" />
				<InputWeight weight="-0.52242293543613605" />
				<InputWeight weight="0.32900511621009754" />
				<InputWeight weight="-0.28966666964744936" />
				<InputWeight weight="-0.50674472660949754" />
				<InputWeight weight="0.1581112484799414" />
				<InputWeight weight="0.62037783739699104" />
				<InputWeight weight="0.52149020408434676" />
				<InputWeight weight="0.14403786001447161" />
				<InputWeight weight="-0.32852106883485865" />
				<InputWeight weight="0.76333825794578525" />
				<InputWeight weight="-0.47927276551037046" />
				<InputWeight weight="0.23932741439642036" />
				<InputWeight weight="-0.20353506485850592" />
				<InputWeight weight="0.40929716881863021" />
				<InputWeight weight="0.87387606390668715" />
				<InputWeight weight="0.32848784370896755" />
				<InputWeight weight="0.016780028999837215" />
				<InputWeight weight="0.35883829127807054" />
				<InputWeight weight="-0.39764269432366339" />
				<InputWeight weight="0.86213341606568705" />
				<InputWeight weight="0.86152064984538379" />
				<InputWeight weight="0.42855906315660564" />
				<InputWeight weight="0.84616410408374931" />
				<InputWeight weight="0.408419988116977" />
				<InputWeight weight="-0.48193242007634518" />
				<InputWeight weight="0.95478101398419013" />
				<InputWeight weight="-0.10188863155245953" />
				<InputWeight weight="0.69676703440032184" />
				<InputWeight weight="0.43340726427146192" />
				<InputWeight weight="0.71006574824332813" />
				<InputWeight weight="-0.42469231534335439" />
				<InputWeight weight="-0.27584581467528091" />
				<InputWeight weight="0.22063191105124114" />
				<InputWeight weight="0.96387147510740356" />
				<InputWeight weight="0.98864813093598047" />
				<InputWeight weight="0.50241489430146857" />
				<InputWeight weight="0.49848941874826047" />
				<InputWeight weight="0.88084579123656459" />
				<InputWeight weight="0.406007813595888" />
				<InputWeight weight="-0.26661747993640295" />
				<InputWeight weight="0.44109191260176672" />
				<InputWeight weight="0.6975003579562431" />
				<InputWeight weight="0.68039836256355146" />
				<InputWeight weight="0.19356848020953743" />
				<InputWeight weight="0.68941133777212049" />
				<InputWeight weight="-0.32971302422011761" />
				<InputWeight weight="0.93278512726165985" />
				<InputWeight weight="-0.45431620098134373" />
				<InputWeight weight="0.20509970322506121" />
				<InputWeight weight="0.80085281597861835" />
				<InputWeight weight="0.035119487716657405" />
				<InputWeight weight="0.40326475658683436" />
				<InputWeight weight="0.41405107401576435" />
				<InputWeight weight="-0.16546252964427732" />
				<InputWeight weight="-0.47194221383623802" />
				<InputWeight weight="-0.094763980188644181" />
				<InputWeight weight="-0.3668719982529971" />
				<InputWeight weight="0.66782528702329569" />
				<InputWeight weight="1" />
				<InputWeight weight="0.66484069955358649" />
				<InputWeight weight="0.22557894198458994" />
				<InputWeight weight="-0.54783586359894132" />
				<InputWeight weight="-0.21899347611706443" />
				<InputWeight weight="0.64950505305688111" />
				<InputWeight weight="0.43275865748518072" />
				<InputWeight weight="0.65405841380405461" />
				<InputWeight weight="-0.19287838533686186" />
				<InputWeight weight="-0.2575132286749533" />
				<InputWeight weight="-0.021417832302749851" />
				<InputWeight weight="0.74668508466632799" />
				<InputWeight weight="0.83244672005511888" />
				<InputWeight weight="-0.10542962648001852" />
				<InputWeight weight="0.8974866192126667" />
				<InputWeight weight="0.53607910516833934" />
				<InputWeight weight="0.90332587044855694" />
				<InputWeight weight="-0.36605580329415843" />
				<InputWeight weight="0.56495659654040198" />
				<InputWeight weight="0.45655457192420101" />
				<InputWeight weight="0.90153641787885608" />
				<InputWeight weight="0.68857021788341743" />
				<InputWeight weight="-0.37749608354140785" />
				<InputWeight weight="-0.02567566959981793" />
				<InputWeight weight="-0.19383465005571432" />
				<InputWeight weight="-0.58111036958183093" />
				<InputWeight weight="0.70967509902664627" />
				<InputWeight weight="-0.34375185230348759" />
				<InputWeight weight="-0.12824487427690523" />
				<InputWeight weight="0.020263488417187503" />
				<InputWeight weight="0.099095022710143699" />
				<InputWeight weight="0.67297242299758508" />
				<InputWeight weight="-0.16180066834841589" />
				<InputWeight weight="0.62488495870611516" />
				<InputWeight weight="-0.22212063814329119" />
				<InputWeight weight="-0.42854636205322827" />
				<InputWeight weight="0.83812802908973771" />
				<InputWeight weight="0.1933094809945628" />
				<InputWeight weight="0.23383841556167173" />
				<InputWeight weight="0.83563895681237033" />
				<InputWeight weight="0.54715925676651311" />
				<InputWeight weight="0.5668447746901375" />
				<InputWeight weight="0.99420115234345929" />
				<InputWeight weight="0.70580598065556144" />
				<InputWeight weight="0.20200730785666487" />
				<InputWeight weight="-0.17632426402933454" />
				<InputWeight weight="0.11971945563834741" />
				<InputWeight weight="0.83532623822442309" />
				<InputWeight weight="0.26902274562592532" />
				<InputWeight weight="0.96540001798804576" />
				<InputWeight weight="-0.0047253007644110223" />
				<InputWeight weight="0.97853636381180675" />
				<InputWeight weight="-0.19280349898745086" />
				<InputWeight weight="-0.077818107815804782" />
				<InputWeight weight="-0.20415723582576595" />
				<InputWeight weight="0.87206043831341429" />
				<InputWeight weight="-0.21451328013608717" />
				<InputWeight weight="0.30939041368283293" />
				<InputWeight weight="0.72672378899420087" />
				<InputWeight weight="-0.16566331920846744" />
				<InputWeight weight="0.55135970736684281" />
				<InputWeight weight="0.65164856490014955" />
				<InputWeight weight="0.071272511549238304" />
				<InputWeight weight="-0.37491930696398257" />
				<InputWeight weight="0.89237616282919152" />
				<InputWeight weight="-0.33643010029646259" />
				<InputWeight weight="0.58164409390222938" />
				<InputWeight weight="-0.48468280862529689" />
				<InputWeight weight="0.30639693716923455" />
				<InputWeight weight="0.098064419820376614" />
				<InputWeight weight="0.17354110739485074" />
				<InputWeight weight="0.82687220201672007" />
				<InputWeight weight="0.57066557315509336" />
				<InputWeight weight="0.37125852242319324" />
				<InputWeight weight="0.76724920000070496" />
				<InputWeight weight="-0.084019140278713711" />
				<InputWeight weight="-0.39453776320258016" />
				<InputWeight weight="0.30185341925887843" />
				<InputWeight weight="0.038145738195637158" />
				<InputWeight weight="-0.095861069938704246" />
				<InputWeight weight="0.33633960526429307" />
				<InputWeight weight="0.74880390507815875" />
				<InputWeight weight="0.40766208546611571" />
				<InputWeight weight="-0.51353290930962348" />
				<InputWeight weight="0.072761260487672397" />
				<InputWeight weight="0.26531543511154765" />
				<InputWeight weight="0.19382373813035225" />
				<InputWeight weight="0.35058479193458014" />
				<InputWeight weight="0.044404435215980476" />
				<InputWeight weight="-0.29149965832931313" />
				<InputWeight weight="-0.24293509722098017" />
				<InputWeight weight="0.06411229923518702" />
				<InputWeight weight="-0.041710882297416818" />
				<InputWeight weight="0.34789875850904717" />
				<InputWeight weight="0.11561532081033121" />
				<InputWeight weight="0.020175341679386394" />
				<InputWeight weight="0.75213495626395344" />
				<InputWeight weight="0.28051390205531246" />
				<InputWeight weight="-0.44207956320220387" />
				<InputWeight weight="-0.54423829606994367" />
				<InputWeight weight="0.64641050017728929" />
				<InputWeight weight="-0.22424000243922892" />
				<InputWeight weight="0.30071697846167034" />
				<InputWeight weight="-0.2868518200650475" />
				<InputWeight weight="-0.36151990554100089" />
				<InputWeight weight="0.39583254044211746" />
				<InputWeight weight="0.20107162613900531" />
				<InputWeight weight="0.5368147276969053" />
				<InputWeight weight="-0.5120525926795837" />
				<InputWeight weight="-0.49705535550721203" />
				<InputWeight weight="-0.53676310952355288" />
				<InputWeight weight="-0.37148117927286051" />
				<InputWeight weight="0.7036878214570137" />
				<InputWeight weight="-0.5692822636039272" />
				<InputWeight weight="0.0070055710548704297" />
				<InputWeight weight="-0.45364920082403404" />
				<InputWeight weight="-0.16791494574868326" />
				<InputWeight weight="0.63680817662439826" />
				<InputWeight weight="-0.16724206087649141" />
				<InputWeight weight="0.092622623876168264" />
				<InputWeight weight="-0.59402969732502298" />
				<InputWeight weight="0.70827550033614317" />
				<InputWeight weight="-0.49840320672935645" />
				<InputWeight weight="0.68444594895174027" />
				<InputWeight weight="-0.2700990402484349" />
				<InputWeight weight="0.76653846656788494" />
				<InputWeight weight="0.96785838677872271" />
				<InputWeight weight="0.25975975984011246" />
				<InputWeight weight="0.96599890615684014" />
				<InputWeight weight="0.27701676949051723" />
				<InputWeight weight="-0.48832617749079854" />
				<InputWeight weight="0.14081247360916116" />
				<InputWeight weight="0.75916097451687348" />
				<InputWeight weight="-0.51259437957226406" />
				<InputWeight weight="-0.38515266401511916" />
				<InputWeight weight="-0.34402690327860264" />
				<InputWeight weight="-0.46038011588748773" />
				<InputWeight weight="0.582439778691062" />
				<InputWeight weight="-0.49356552687242417" />
				<InputWeight weight="-0.56014482992262238" />
				<InputWeight weight="0.48141408073309488" />
				<InputWeight weight="0.71973828218244917" />
				<InputWeight weight="-0.19978677948010648" />
				<InputWeight weight="0.62427896700501639" />
				<InputWeight weight="0.78283709238296439" />
				<InputWeight weight="-0.202481730925547" />
				<InputWeight weight="0.41921056866284134" />
				<InputWeight weight="0.96806209267759025" />
				<InputWeight weight="0.1231377083619738" />
				<InputWeight weight="-0.31156012556225521" />
				<InputWeight weight="0.33859429315159906" />
				<InputWeight weight="0.50018613007117985" />
				<InputWeight weight="0.14346057800714984" />
				<InputWeight weight="0.77412872871972582" />
				<InputWeight weight="0.4404847612199434" />
				<InputWeight weight="0.98127291778563652" />
				<InputWeight weight="0.018302282945555692" />
				<InputWeight weight="0.87030398370346629" />
				<InputWeight weight="-0.4414412016183914" />
				<InputWeight weight="-0.22643212909658428" />
				<InputWeight weight="0.052722390974714317" />
				<InputWeight weight="0.072534182570174188" />
				<InputWeight weight="0.011639661500261411" />
				<InputWeight weight="-0.23154241041584833" />
				<InputWeight weight="0.16938631779097046" />
				<InputWeight weight="0.57277088387100017" />
				<InputWeight weight="-0.41860127946052583" />
				<InputWeight weight="0.39904871951251875" />
				<InputWeight weight="0.98259780558490206" />
				<InputWeight weight="0.051179471656736419" />
				<InputWeight weight="0.88743075713323161" />
				<InputWeight weight="0.94659510509592493" />
				<InputWeight weight="-0.057042393173359018" />
				<InputWeight weight="0.64212834009724018" />
				<InputWeight weight="-0.23769734484946681" />
				<InputWeight weight="-0.035209973411774009" />
				<InputWeight weight="-0.047243365866910803" />
				<InputWeight weight="0.40551535789697613" />
				<InputWeight weight="0.19143367234163944" />
				<InputWeight weight="-0.5659847941342333" />
				<InputWeight weight="0.65280743610766301" />
				<InputWeight weight="0.69063189441367934" />
				<InputWeight weight="0.18287365589158067" />
				<InputWeight weight="0.66892180437387383" />
				<InputWeight weight="0.55760437122230888" />
				<InputWeight weight="-0.092752930710486292" />
				<InputWeight weight="0.70271628714417145" />
				<InputWeight weight="0.3416612136942021" />
				<InputWeight weight="0.27988007786593228" />
				<InputWeight weight="0.78791630976704075" />
				<InputWeight weight="-0.48166286357858101" />
				<InputWeight weight="0.54691891917032764" />
				<InputWeight weight="0.12272631869641959" />
				<InputWeight weight="-0.25218750276565027" />
				<InputWeight weight="-0.55040745981604111" />
				<InputWeight weight="0.46999606981909059" />
				<InputWeight weight="0.14807063279451449" />
				<InputWeight weight="-0.29504152346921597" />
				<InputWeight weight="0.82473875626698945" />
				<InputWeight weight="0.45061634602894429" />
				<InputWeight weight="0.71794173412417783" />
				<InputWeight weight="0.29413341520542002" />
				<InputWeight weight="-0.35558981115995347" />
				<InputWeight weight="0.78815194866983629" />
				<InputWeight weight="0.37653387422653806" />
				<InputWeight weight="-0.5834381626025269" />
				<InputWeight weight="0.98050609822179591" />
				<InputWeight weight="0.79415654766512556" />
				<InputWeight weight="0.74394145919699017" />
				<InputWeight weight="-0.41835609965614251" />
				<InputWeight weight="0.14755128617485158" />
				<InputWeight weight="0.83581022224624979" />
				<InputWeight weight="-0.4766485819807702" />
				<InputWeight weight="-0.071915184651230812" />
				<InputWeight weight="-0.19295185929274739" />
				<InputWeight weight="-0.33321904200709329" />
				<InputWeight weight="-0.024905754003165415" />
				<InputWeight weight="-0.53704257687546386" />
				<InputWeight weight="0.59485103429628117" />
				<InputWeight weight="-0.45823098616989888" />
				<InputWeight weight="0.62452544932530007" />
				<InputWeight weight="0.87150228373760918" />
				<InputWeight weight="-0.432635694208235" />
				<InputWeight weight="-0.34178055703035815" />
				<InputWeight weight="0.68116788239080051" />
				<InputWeight weight="0.7251549763694265" />
				<InputWeight weight="0.73853641681785542" />
				<InputWeight weight="0.76162281569878165" />
				<InputWeight weight="0.50239538831724118" />
				<InputWeight weight="0.94102700762548452" />
				<InputWeight weight="-0.35181542225638218" />
				<InputWeight weight="0.81413154984787206" />
				<InputWeight weight="-0.19762068633910057" />
				<InputWeight weight="0.4026333120215273" />
				<InputWeight weight="-0.038414207512643128" />
				<InputWeight weight="0.017908913920285929" />
				<InputWeight weight="-0.25865007418410513" />
				<InputWeight weight="0.17618174573028567" />
				<InputWeight weight="0.18475656451846789" />
				<InputWeight weight="-0.43160083929171233" />
				<InputWeight weight="-0.16262693821397989" />
				<InputWeight weight="0.38709467560477906" />
				<InputWeight weight="0.80929911367117424" />
				<InputWeight weight="-0.38897766261273248" />
				<InputWeight weight="0.87614601049289709" />
				<InputWeight weight="0.38007052800063756" />
				<InputWeight weight="0.87604407850177068" />
				<InputWeight weight="-0.34709522671320203" />
				<InputWeight weight="0.56618083148925513" />
				<InputWeight weight="0.50147051702034484" />
				<InputWeight weight="0.74755980165160074" />
				<InputWeight weight="0.14745279054453153" />
				<InputWeight weight="0.41316181596513268" />
				<InputWeight weight="-0.21915585183873909" />
				<InputWeight weight="-0.13461660390890995" />
				<InputWeight weight="0.10286663339660951" />
				<InputWeight weight="0.090211664791095103" />
				<InputWeight weight="0.72523367394903726" />
				<InputWeight weight="0.57234039534875336" />
				<InputWeight weight="0.022506386655683386" />
				<InputWeight weight="0.32827923513698365" />
				<InputWeight weight="0.85242399667434032" />
				<InputWeight weight="0.15856304710985936" />
				<InputWeight weight="-0.2877484313385017" />
				<InputWeight weight="-0.5710076827765469" />
				<InputWeight weight="0.072021698225925856" />
				<InputWeight weight="0.57160168891302976" />
				<InputWeight weight="0.85022617953853863" />
				<InputWeight weight="0.11080889682870376" />
				<InputWeight weight="0.91865250614615745" />
				<InputWeight weight="-0.30934625665386206" />
				<InputWeight weight="-0.14078600483087367" />
				<InputWeight weight="-0.29645262456842048" />
				<InputWeight weight="0.51491977393916133" />
				<InputWeight weight="0.49111625612180276" />
				<InputWeight weight="0.37846215711507503" />
				<InputWeight weight="0.31115980782571184" />
				<InputWeight weight="-0.17042126134325797" />
				<InputWeight weight="0.6933372917657592" />
				<InputWeight weight="0.29912693922992917" />
				<InputWeight weight="-0.30378764264310953" />
				<InputWeight weight="0.58515147398716416" />
				<InputWeight weight="-0.58780576623681902" />
				<InputWeight weight="0.17090145144318258" />
				<InputWeight weight="0.78725405078484334" />
				<InputWeight weight="0.10450853936358939" />
				<InputWeight weight="-0.43302377557929361" />
				<InputWeight weight="0.95127419539210423" />
				<InputWeight weight="0.12794771174982711" />
				<InputWeight weight="0.74658756674736382" />
				<InputWeight weight="0.019650426930877263" />
				<InputWeight weight="0.076009311304243488" />
				<InputWeight weight="0.54245422935605592" />
				<InputWeight weight="-0.40471277578006315" />
				<InputWeight weight="0.60980371911368447" />
				<InputWeight weight="0.81317227780081769" />
				<InputWeight weight="-0.16924467061249127" />
				<InputWeight weight="0.11531449132919813" />
				<InputWeight weight="0.47747816833027912" />
				<InputWeight weight="0.46405881027883678" />
				<InputWeight weight="-0.35597596272244647" />
				<InputWeight weight="0.97678971639008605" />
				<InputWeight weight="0.43664102160741591" />
				<InputWeight weight="-0.081495948985269906" />
				<InputWeight weight="-0.14212796056705612" />
				<InputWeight weight="-0.32066503587040129" />
				<InputWeight weight="0.97621664059787649" />
				<InputWeight weight="-0.2555884360521542" />
				<InputWeight weight="-0.24666619604090856" />
				<InputWeight weight="-0.3928574746141924" />
				<InputWeight weight="0.73226584983145426" />
				<InputWeight weight="-0.069638153753208032" />
				<InputWeight weight="0.048413671133734626" />
				<InputWeight weight="-0.28609545636806588" />
				<InputWeight weight="-0.40396766269814266" />
				<InputWeight weight="0.72063358867624716" />
				<InputWeight weight="0.39922987674265809" />
				<InputWeight weight="-0.39678589521565089" />
				<InputWeight weight="-0.48712585949396214" />
				<InputWeight weight="0.9433212127462669" />
				<InputWeight weight="0.1251306100340972" />
				<InputWeight weight="0.52835978280418594" />
				<InputWeight weight="0.91307559332494814" />
				<InputWeight weight="0.047469416382038165" />
				<InputWeight weight="0.09084900575345034" />
				<InputWeight weight="-0.35548894919175922" />
				<InputWeight weight="0.71294874188636337" />
				<InputWeight weight="-0.15465816313539671" />
				<InputWeight weight="0.21726809071001507" />
				<InputWeight weight="-0.44954955018396836" />
				<InputWeight weight="0.43873762122881743" />
				<InputWeight weight="0.98774484827398323" />
				<InputWeight weight="0.44837856609090387" />
				<InputWeight weight="0.3242648234753136" />
				<InputWeight weight="-0.24530631072467057" />
				<InputWeight weight="-0.038506265625328107" />
				<InputWeight weight="0.77713726270350802" />
				<InputWeight weight="0.73578742834622113" />
				<InputWeight weight="-0.5134197240046936" />
				<InputWeight weight="-0.10495410761698676" />
				<InputWeight weight="0.12867067567972579" />
				<InputWeight weight="0.50177505444307302" />
				<InputWeight weight="-0.061370051749192189" />
				<InputWeight weight="-0.54790810921829536" />
				<InputWeight weight="0.19642594135740743" />
				<InputWeight weight="0.41980052589251793" />
				<InputWeight weight="0.62522833460136118" />
				<InputWeight weight="0.79479447787117197" />
				<InputWeight weight="-0.1844778546174457" />
				<InputWeight weight="0.86103035004713835" />
				<InputWeight weight="0.80947548186583429" />
				<InputWeight weight="0.0568975867990682" />
				<InputWeight weight="0.95955694225095867" />
				<InputWeight weight="-0.34344988296782741" />
				<InputWeight weight="-0.34549656035192322" />
				<InputWeight weight="-0.18270543556874375" />
				<InputWeight weight="-0.038262566380412144" />
				<InputWeight weight="-0.16045836137224412" />
				<InputWeight weight="-0.59190841050352994" />
				<InputWeight weight="0.26102665478582643" />
				<InputWeight weight="-0.13394244545249656" />
				<InputWeight weight="0.23710317857274466" />
				<InputWeight weight="-0.34569503615569741" />
				<InputWeight weight="-0.091632001351326764" />
				<InputWeight weight="0.26623404536679729" />
				<InputWeight weight="0.62938353869595898" />
				<InputWeight weight="-0.023249070054127574" />
				<InputWeight weight="0.1131834436281538" />
				<InputWeight weight="-0.55297700420765694" />
				<InputWeight weight="0.42854021003466092" />
				<InputWeight weight="-0.47991908419834173" />
				<InputWeight weight="0.94108895144914695" />
				<InputWeight weight="0.58669435464383235" />
				<InputWeight weight="-0.23144502541025735" />
				<InputWeight weight="0.6995277243236484" />
				<InputWeight weight="0.73697514753485605" />
				<InputWeight weight="0.81385700414000484" />
				<InputWeight weight="0.36899182863322566" />
				<InputWeight weight="0.37175037480474882" />
				<InputWeight weight="-0.1798373079922595" />
				<InputWeight weight="0.57288105702209213" />
				<InputWeight weight="-0.033138207641117079" />
				<InputWeight weight="0.28403419666677254" />
				<InputWeight weight="0.70040159783003841" />
				<InputWeight weight="-0.48215071437848855" />
				<InputWeight weight="-0.16581778185480323" />
				<InputWeight weight="-0.20667735905814066" />
				<InputWeight weight="0.58675277043961183" />
				<InputWeight weight="0.45901724606572181" />
				<InputWeight weight="0.43460781139751181" />
				<InputWeight weight="-0.15974177507442266" />
				<InputWeight weight="0.34348381276827467" />
				<InputWeight weight="-0.57647606701379983" />
				<InputWeight weight="0.13903362982294221" />
				<InputWeight weight="0.15208370344296718" />
				<InputWeight weight="-0.56484751197602512" />
				<InputWeight weight="0.67358261203936465" />
				<InputWeight weight="0.63146895836431027" />
				<InputWeight weight="-0.55487525968038509" />
				<InputWeight weight="0.36438286324560454" />
				<InputWeight weight="0.65810730427608988" />
				<InputWeight weight="0.75091358312942535" />
				<InputWeight weight="0.69050684086316605" />
				<InputWeight weight="0.4200594705734102" />
				<InputWeight weight="-0.20554849554972709" />
				<InputWeight weight="0.67401972828919243" />
				<InputWeight weight="0.58898514516917944" />
				<InputWeight weight="-0.021350559802022606" />
				<InputWeight weight="0.60550327439858376" />
				<InputWeight weight="-0.54373173910013362" />
				<InputWeight weight="0.9948826083078377" />
				<InputWeight weight="0.93619044771515503" />
				<InputWeight weight="0.1898233789549082" />
				<InputWeight weight="0.86996392426327263" />
				<InputWeight weight="0.85604535053920361" />
				<InputWeight weight="0.69733675525568017" />
				<InputWeight weight="0.018665714369464181" />
				<InputWeight weight="0.83586825316844915" />
				<InputWeight weight="0.23080608736318142" />
				<InputWeight weight="0.50979066025243136" />
				<InputWeight weight="-0.1850657366936056" />
				<InputWeight weight="0.87706560554111257" />
				<InputWeight weight="-0.35700235639386679" />
				<InputWeight weight="-0.35355151848471611" />
				<InputWeight weight="-0.58545599450784036" />
				<InputWeight weight="0.44898164606680702" />
				<InputWeight weight="0.75530527969576333" />
				<InputWeight weight="0.22668032805172267" />
				<InputWeight weight="-0.19041965547098805" />
				<InputWeight weight="0.71373757259065074" />
				<InputWeight weight="-0.43133402710747348" />
				<InputWeight weight="0.053520350499966618" />
				<InputWeight weight="0.69119686647699941" />
				<InputWeight weight="0.83800540442978289" />
				<InputWeight weight="0.38490989731744674" />
				<InputWeight weight="0.91886408787840135" />
				<InputWeight weight="0.12255859147145309" />
				<InputWeight weight="0.63948714493304792" />
				<InputWeight weight="0.67544157165658292" />
				<InputWeight weight="0.93043089227362841" />
				<InputWeight weight="-0.31841056816899893" />
				<InputWeight weight="0.09388845485296593" />
				<InputWeight weight="-0.51401438811661426" />
				<InputWeight weight="0.73269529875701611" />
				<InputWeight weight="-0.28657297996784126" />
				<InputWeight weight="0.035138170243585787" />
				<InputWeight weight="-0.54641070520312351" />
				<InputWeight weight="0.34615085038479765" />
				<InputWeight weight="0.43761237310783008" />
				<InputWeight weight="0.59444500523981714" />
				<InputWeight weight="-0.42128219186404992" />
				<InputWeight weight="0.22041738929939925" />
				<InputWeight weight="0.93917284692192515" />
				<InputWeight weight="0.38015495506380126" />
				<InputWeight weight="-0.49316269220462461" />
				<InputWeight weight="-0.17348166102791462" />
				<InputWeight weight="0.84426625102488106" />
				<InputWeight weight="0.4390362938683039" />
				<InputWeight weight="0.95365585907314676" />
				<InputWeight weight="0.90869587884401648" />
				<InputWeight weight="0.53121181640627002" />
				<InputWeight weight="0.73034062524423504" />
				<InputWeight weight="0.23416881636171638" />
				<InputWeight weight="-0.18389716111989307" />
				<InputWeight weight="0.86851666891412016" />
				<InputWeight weight="-0.15625223079519113" />
				<InputWeight weight="-0.28108485748694934" />
				<InputWeight weight="-0.54119280376999668" />
				<InputWeight weight="0.87023255207909767" />
				<InputWeight weight="-0.11802746122513585" />
				<InputWeight weight="-0.23671021998118202" />
				<InputWeight weight="-0.069973316959867304" />
				<InputWeight weight="0.14151821349016158" />
				<InputWeight weight="0.063287755365238452" />
				<InputWeight weight="0.7552001501252712" />
				<InputWeight weight="0.75240752543888134" />
				<InputWeight weight="-0.58884487829755694" />
				<InputWeight weight="0.98654512195447075" />
				<InputWeight weight="-0.48009909405923323" />
				<InputWeight weight="-0.35840891059371049" />
				<InputWeight weight="0.23637879451153898" />
				<InputWeight weight="0.78112146967861662" />
				<InputWeight weight="0.50691885311356777" />
				<InputWeight weight="-0.1619389242724022" />
				<InputWeight weight="0.16946872688632175" />
				<InputWeight weight="-0.46961228013751621" />
				<InputWeight weight="-0.0051967093654264884" />
				<InputWeight weight="0.3634904221009998" />
